0.028689	-0.0130029	-0.0270158	-0.0155169	-0.0239127	-0.040289	0.0118886	0.0024926	-0.039352	0.0478979	-0.00863077	-0.0310383	-0.0337416	-0.0228542	0.01204	0.047819	-0.00264912	0.0450565	-0.0433193	0.0157655	-0.028275	0.0466382	0.0181595	-0.0318845	-0.0328638	0.00567716	-0.023628	-0.0245235	0.0225901	0.0234449	-0.0418045	0.0409482
0.512039	0.388072	-0.463496	-0.484414	-0.487984	0.45717	0.443429	0.521528	-0.475327	-0.484009	0.512493	-0.370575	-0.525467	-0.518897	-0.503201	0.521632	0.485766	-0.525947	0.445948	0.428352	-0.481989	0.53658	-0.512293	0.495653	0.432615	-0.473322	0.437105	-0.453454	0.397354	0.490776	-0.420802	0.465578
0.519023	0.519824	-0.428381	-0.490294	-0.434942	0.496353	0.403443	0.471987	-0.389558	-0.457948	0.516783	-0.433255	-0.486328	-0.360468	-0.462073	0.429016	0.351613	-0.444183	0.461783	0.4748	-0.502234	0.370875	-0.468902	0.516092	0.46863	-0.512305	0.492756	-0.400573	0.474435	0.509256	-0.543319	0.464347
0.494403	0.524599	-0.486977	-0.433131	-0.469521	0.513711	0.497337	0.425569	-0.41445	-0.490038	0.448654	-0.447285	-0.402917	-0.533973	-0.51484	0.412963	0.540044	-0.45743	0.419206	0.475782	-0.426893	0.452439	-0.475034	0.472349	0.512633	-0.482081	0.505677	-0.508464	0.545907	0.442335	-0.500926	0.522322
0.418676	0.342073	-0.529659	-0.513219	-0.417194	0.452813	0.457998	0.445692	-0.529897	-0.445695	0.482939	-0.476168	-0.532598	-0.424993	-0.394937	0.460671	0.455571	-0.486092	0.452736	0.49769	-0.478555	0.49242	-0.505576	0.49646	0.499213	-0.457976	0.436704	-0.4824	0.397427	0.514423	-0.381619	0.482359
0.421866	0.503946	-0.36743	-0.39605	-0.502433	0.449006	0.383349	0.423883	-0.432095	-0.357952	0.435871	-0.439448	-0.376344	-0.426993	-0.462839	0.387768	0.4248	-0.420618	0.361683	0.415154	-0.478977	0.414205	-0.450819	0.401525	0.501391	-0.474416	0.435605	-0.48087	0.469103	0.355417	-0.419915	0.397148
0.474683	0.350545	-0.48758	-0.388863	-0.51516	0.460798	0.438607	0.4115	-0.447475	-0.516763	0.514614	-0.482933	-0.465247	-0.418831	-0.450686	0.470522	0.431749	-0.471758	0.471997	0.521025	-0.438186	0.412049	-0.517923	0.482084	0.491081	-0.461266	0.45777	-0.457417	0.455169	0.386216	-0.445673	0.401211
0.500785	0.503272	-0.497654	-0.483958	-0.473715	0.457766	0.482702	0.40256	-0.425396	-0.46595	0.505952	-0.461738	-0.435285	-0.441398	-0.475668	0.47884	0.422049	-0.512861	0.463452	0.49045	-0.517987	0.487582	-0.439453	0.450747	0.497748	-0.508603	0.464747	-0.505937	0.469905	0.514403	-0.423839	0.424663
0.459163	0.469929	-0.472495	-0.424164	-0.414952	0.504099	0.482942	0.499612	-0.531414	-0.43827	0.42728	-0.484512	-0.444486	-0.503927	-0.470741	0.458131	0.383888	-0.447064	0.516955	0.439275	-0.524157	0.420375	-0.513336	0.469443	0.43731	-0.407292	0.460655	-0.414075	0.450043	0.545518	-0.522509	0.512904
0.350989	0.570962	-0.247922	-0.431194	-0.432566	0.461751	0.471401	0.277907	-0.583267	-0.43708	0.427399	-0.490259	-0.295678	-0.097257	-0.548814	0.404371	0.515717	-0.426524	0.438623	0.411663	-0.468655	0.480528	-0.49747	0.502732	0.331299	-0.3775	0.468557	-0.44145	0.40121	0.447231	-0.294386	0.526061
0.433554	0.46657	-0.492449	-0.416524	-0.414983	0.36801	0.351972	0.473687	-0.38805	-0.444896	0.412227	-0.377263	-0.479946	-0.18937	-0.393301	0.487676	0.47516	-0.397813	0.441346	0.478104	-0.499975	0.446392	-0.394836	0.419391	0.433922	-0.382424	0.438305	-0.345276	0.390809	0.234089	-0.450837	0.367608
0.352714	0.281611	-0.319208	-0.478119	-0.401299	0.376832	0.389016	0.3191	-0.353882	-0.394197	0.451357	-0.345537	-0.255418	-0.413776	-0.352902	0.276099	0.395972	-0.453311	0.426662	0.378438	-0.465502	0.518823	-0.427628	0.35252	0.289505	-0.401643	0.511288	-0.361298	0.375111	0.312946	-0.374216	0.468548
0.473594	0.36653	-0.403557	-0.443805	-0.460699	0.497289	0.51063	0.445715	-0.553874	-0.472642	0.422307	-0.384508	-0.434978	-0.475674	-0.412225	0.358266	0.442847	-0.505901	0.413759	0.493387	-0.418904	0.438561	-0.481809	0.490345	0.461396	-0.535722	0.495936	-0.5347	0.427321	0.449766	-0.429488	0.414423
0.441497	0.538117	-0.395842	-0.444832	-0.472879	0.48372	0.567712	0.503916	-0.332274	-0.409758	0.434157	-0.437516	-0.480963	-0.549414	-0.423702	0.48988	0.586254	-0.516383	0.420751	0.447901	-0.30854	0.476019	-0.517588	0.404924	0.488298	-0.519358	0.508326	-0.414905	0.477487	0.450494	-0.536381	0.490346
0.45073	0.421126	-0.329386	-0.498434	-0.481764	0.471421	0.546535	0.457902	-0.524608	-0.518341	0.428838	-0.523911	-0.447541	-0.439914	-0.524049	0.426677	0.496075	-0.44554	0.429901	0.540482	-0.404081	0.451018	-0.42587	0.532576	0.491898	-0.508431	0.452875	-0.49183	0.323273	0.433099	-0.352083	0.504608
0.486519	0.423581	-0.409574	-0.464635	-0.448277	0.52506	0.497465	0.50035	-0.536202	-0.451277	0.484446	-0.458391	-0.508239	-0.494497	-0.460942	0.514896	0.461843	-0.454731	0.525119	0.451933	-0.364379	0.404592	-0.475075	0.419295	0.441363	-0.452174	0.376521	-0.441623	0.566579	0.523583	-0.448223	0.459359
0.442078	0.385313	-0.393221	-0.517785	-0.476311	0.481899	0.448591	0.501621	-0.494861	-0.486821	0.507257	-0.48217	-0.510382	-0.489794	-0.4958	0.432834	0.412835	-0.520242	0.514082	0.519232	-0.483799	0.494604	-0.499272	0.487964	0.477493	-0.457036	0.41974	-0.455905	0.51974	0.517812	-0.417411	0.474689
0.478589	0.459251	-0.478862	-0.51686	-0.496888	0.471819	0.472777	0.380853	-0.407695	-0.463849	0.474661	-0.440692	-0.468664	-0.436399	-0.423791	0.527967	0.407679	-0.492935	0.453245	0.435454	-0.360219	0.511181	-0.505205	0.510372	0.413136	-0.465019	0.361073	-0.493159	0.46552	0.408528	-0.440941	0.413894
0.490815	0.452375	-0.445923	-0.485929	-0.402245	0.48532	0.481953	0.458445	-0.54487	-0.50167	0.53598	-0.45043	-0.493244	-0.465792	-0.490797	0.43596	0.390338	-0.445326	0.551326	0.448053	-0.406308	0.387638	-0.446085	0.508707	0.430119	-0.434432	0.509647	-0.437089	0.477165	0.502259	-0.406772	0.428713
0.417042	0.337502	-0.426246	-0.47918	-0.432879	0.510276	0.509261	0.399738	-0.406605	-0.476886	0.464292	-0.520227	-0.448141	-0.48598	-0.439243	0.450992	0.472675	-0.46493	0.480875	0.513242	-0.44268	0.434056	-0.464747	0.446259	0.515824	-0.482938	0.379294	-0.456092	0.538147	0.505379	-0.408753	0.511349
0.418212	0.464357	-0.537224	-0.480082	-0.403008	0.466949	0.480606	0.465251	-0.506611	-0.418942	0.524007	-0.526031	-0.460382	-0.539708	-0.406303	0.430391	0.44486	-0.471282	0.537977	0.48837	-0.536555	0.427724	-0.472868	0.500476	0.426921	-0.477236	0.491732	-0.442975	0.56313	0.47234	-0.475208	0.43053
0.419474	0.459293	-0.393535	-0.51014	-0.478716	0.453351	0.434296	0.483709	-0.451599	-0.390414	0.435648	-0.483314	-0.529133	-0.490764	-0.439286	0.406188	0.443261	-0.41916	0.414451	0.411171	-0.343009	0.418444	-0.510816	0.45076	0.415558	-0.495223	0.406358	-0.457202	0.413014	0.470369	-0.447855	0.440392
0.485422	0.576593	-0.430595	-0.38648	-0.461575	0.41506	0.519823	0.533372	-0.431757	-0.420067	0.442442	-0.472442	-0.405667	-0.457988	-0.506992	0.479544	0.551851	-0.499788	0.504215	0.498026	-0.471726	0.45656	-0.522613	0.365802	0.474301	-0.422836	0.455657	-0.492425	0.512529	0.484278	-0.560341	0.453089
0.49612	0.381841	-0.447521	-0.524858	-0.517949	0.532231	0.464438	0.512612	-0.463319	-0.448371	0.506195	-0.472276	-0.477884	-0.493997	-0.420791	0.52556	0.451623	-0.475732	0.500771	0.468529	-0.493382	0.525353	-0.511919	0.472629	0.454578	-0.522699	0.489275	-0.542382	0.465461	0.49114	-0.506784	0.458121
0.39967	0.344157	-0.406717	-0.492017	-0.504984	0.524631	0.416046	0.513338	-0.436915	-0.45016	0.477788	-0.41484	-0.51123	-0.527859	-0.526084	0.539381	0.514355	-0.476094	0.435333	0.456391	-0.494445	0.508406	-0.501408	0.481681	0.520374	-0.528384	0.417152	-0.446172	0.44413	0.476696	-0.386817	0.490644
0.399272	0.630946	-0.509934	-0.416177	-0.480796	0.389679	0.461994	0.46978	-0.340764	-0.489082	0.418608	-0.394859	-0.327985	-0.352601	-0.418847	0.535772	0.343841	-0.465382	0.537993	0.482164	-0.155867	0.41745	-0.385761	0.491668	0.369368	-0.286903	0.433333	-0.472493	0.438165	0.243014	-0.553313	0.406327
0.508332	0.433861	-0.507035	-0.45857	-0.443921	0.497104	0.521234	0.497329	-0.48934	-0.440504	0.458261	-0.526201	-0.531478	-0.526539	-0.477655	0.535225	0.423285	-0.532729	0.442201	0.436541	-0.533281	0.41104	-0.50696	0.493628	0.437508	-0.429905	0.485783	-0.45991	0.406373	0.470402	-0.433128	0.471132
0.485555	0.290711	-0.34662	-0.404372	-0.444297	0.423914	0.356659	0.509081	-0.320889	-0.490457	0.413916	-0.386777	-0.24759	-0.27507	-0.430676	0.263326	0.458303	-0.34858	0.357607	0.339241	-0.398444	0.38669	-0.392204	0.477142	0.428679	-0.362161	0.450483	-0.43148	0.338236	0.212084	-0.325078	0.490369
0.452238	0.316222	-0.435527	-0.408411	-0.495988	0.528555	0.43506	0.407336	-0.507205	-0.499984	0.426871	-0.553149	-0.469991	-0.505935	-0.494399	0.53828	0.507518	-0.531674	0.449859	0.546902	-0.506959	0.482955	-0.479417	0.439859	0.478359	-0.507025	0.443977	-0.505025	0.382863	0.540319	-0.468744	0.420137
0.423043	0.458425	-0.506469	-0.537194	-0.458862	0.450489	0.471232	0.44058	-0.434258	-0.476762	0.438174	-0.429056	-0.522139	-0.486843	-0.532453	0.508263	0.441336	-0.466915	0.469187	0.467716	-0.443244	0.436829	-0.530099	0.47736	0.42898	-0.50984	0.486454	-0.505083	0.439292	0.469395	-0.535788	0.503878
0.478987	0.486829	-0.5353	-0.464462	-0.457785	0.482498	0.454505	0.446487	-0.504684	-0.537624	0.492623	-0.437307	-0.389055	-0.43546	-0.470935	0.528408	0.404934	-0.456133	0.417062	0.407323	-0.422735	0.528959	-0.417571	0.522059	0.477129	-0.40266	0.517086	-0.428028	0.445425	0.49944	-0.427409	0.466503
0.493967	0.472596	-0.543884	-0.526544	-0.422867	0.462489	0.454205	0.464868	-0.455778	-0.478468	0.445681	-0.416829	-0.45494	-0.512364	-0.491079	0.543116	0.461293	-0.51582	0.470164	0.524623	-0.397555	0.528078	-0.51572	0.41961	0.506735	-0.444283	0.411444	-0.532699	0.45414	0.423189	-0.449371	0.506923
0.523969	0.487759	-0.426684	-0.502872	-0.500588	0.42023	0.477817	0.419283	-0.480316	-0.472456	0.48212	-0.501273	-0.540094	-0.517012	-0.469903	0.527636	0.398325	-0.480655	0.522997	0.451141	-0.443453	0.423878	-0.493408	0.432972	0.438089	-0.426196	0.356533	-0.499834	0.508131	0.433623	-0.513763	0.447324
0.481251	0.503662	-0.510281	-0.464483	-0.446898	0.454027	0.505818	0.535365	-0.521945	-0.491862	0.48059	-0.406634	-0.466113	-0.45821	-0.425989	0.416757	0.383891	-0.515463	0.427453	0.509891	-0.456302	0.563675	-0.43888	0.496999	0.423337	-0.405931	0.420422	-0.422687	0.431078	0.521251	-0.429704	0.445639
0.406805	0.421794	-0.456045	-0.445572	-0.43417	0.539535	0.484837	0.460473	-0.40877	-0.385163	0.524102	-0.452373	-0.548596	-0.488182	-0.41279	0.407132	0.406867	-0.378495	0.52552	0.527021	-0.450868	0.449577	-0.515246	0.515228	0.512611	-0.455507	0.396347	-0.354579	0.445887	0.553754	-0.531686	0.493547
0.494859	0.494206	-0.567349	-0.537945	-0.466072	0.469978	0.438697	0.440132	-0.434309	-0.495719	0.477972	-0.513661	-0.516148	-0.413338	-0.425164	0.476955	0.524994	-0.537509	0.48101	0.439944	-0.513596	0.429899	-0.447607	0.526728	0.492302	-0.445504	0.408759	-0.487196	0.502443	0.449346	-0.422784	0.499333
0.465414	0.425709	-0.496297	-0.501244	-0.420525	0.503842	0.495565	0.452485	-0.461484	-0.474236	0.449203	-0.530459	-0.398616	-0.523053	-0.510357	0.424646	0.494803	-0.452866	0.529648	0.534272	-0.463504	0.437012	-0.457055	0.514893	0.425411	-0.44082	0.442013	-0.422852	0.486318	0.51041	-0.459433	0.512161
0.460433	0.393359	-0.491343	-0.422855	-0.536514	0.490399	0.509682	0.505501	-0.44929	-0.511741	0.463735	-0.534415	-0.488302	-0.431547	-0.507936	0.388145	0.377649	-0.444656	0.419884	0.466712	-0.39441	0.452041	-0.507262	0.469699	0.44117	-0.47985	0.454188	-0.423654	0.470744	0.418167	-0.444371	0.525023
0.410579	0.409544	-0.43257	-0.402708	-0.517636	0.458226	0.475745	0.535373	-0.39822	-0.442767	0.477731	-0.507525	-0.438997	-0.374145	-0.474277	0.442196	0.469932	-0.466978	0.493704	0.474414	-0.307093	0.465474	-0.455723	0.483088	0.522958	-0.50304	0.511072	-0.431453	0.377115	0.421267	-0.42188	0.453846
0.406383	0.315004	-0.391376	-0.52701	-0.450875	0.504547	0.464489	0.445145	-0.463009	-0.521209	0.513056	-0.553823	-0.531076	-0.521434	-0.493637	0.471919	0.488829	-0.448669	0.500509	0.482764	-0.516615	0.499666	-0.418685	0.517832	0.478765	-0.47098	0.419486	-0.447421	0.499317	0.500957	-0.48082	0.442742
0.470146	0.395391	-0.564895	-0.437628	-0.425548	0.487095	0.507106	0.513316	-0.518254	-0.505819	0.517752	-0.42698	-0.480682	-0.411318	-0.404252	0.444156	0.459516	-0.506687	0.51537	0.456072	-0.444499	0.450974	-0.4818	0.426906	0.425962	-0.4844	0.439772	-0.499539	0.382938	0.507604	-0.374723	0.516781
0.404423	0.603222	-0.605168	-0.291764	-0.473403	0.392148	0.468214	0.48643	-0.469027	-0.337929	0.478553	-0.0944981	-0.410037	-0.49651	-0.426345	0.462217	0.255325	-0.516969	0.578337	0.44712	-0.0843274	0.422693	-0.304999	0.405983	0.36959	-0.330986	0.44881	-0.505807	0.336844	0.289892	-0.406238	0.513817
0.489524	0.45256	-0.370136	-0.477854	-0.517353	0.444786	0.457012	0.456753	-0.443255	-0.498192	0.494778	-0.481323	-0.472465	-0.307518	-0.495292	0.374458	0.520117	-0.397124	0.497752	0.472897	-0.435747	0.433187	-0.428953	0.503308	0.426216	-0.493076	0.473361	-0.438816	0.406053	0.359475	-0.440698	0.409507
0.427962	0.460935	-0.49315	-0.461254	-0.397638	0.432561	0.468175	0.46626	-0.464461	-0.482196	0.390705	-0.515159	-0.4889	-0.449506	-0.467231	0.433748	0.405883	-0.412561	0.507692	0.4316	-0.506005	0.451515	-0.478135	0.459414	0.450262	-0.444481	0.423061	-0.432439	0.478432	0.391629	-0.364688	0.483971
0.452147	0.356587	-0.458899	-0.459958	-0.44931	0.516146	0.417732	0.477575	-0.504393	-0.438087	0.446709	-0.48287	-0.489067	-0.525013	-0.534986	0.419514	0.507529	-0.471687	0.42889	0.490716	-0.459034	0.470606	-0.475953	0.456404	0.44365	-0.52034	0.509261	-0.510626	0.525533	0.490176	-0.434146	0.520653
0.500365	0.432013	-0.480178	-0.506211	-0.412096	0.396667	0.432822	0.414225	-0.438898	-0.39731	0.396058	-0.444132	-0.519345	-0.462379	-0.525927	0.434999	0.50709	-0.484325	0.531071	0.419315	-0.409983	0.50347	-0.507001	0.484729	0.502858	-0.407153	0.518823	-0.44813	0.481631	0.484908	-0.538367	0.482094
0.457275	0.59779	-0.507684	-0.417803	-0.502953	0.439867	0.501756	0.433482	-0.486232	-0.412744	0.520488	-0.346904	-0.438462	-0.507669	-0.385228	0.476824	0.2998	-0.428399	0.436867	0.527604	-0.394499	0.42198	-0.478743	0.455739	0.463481	-0.441226	0.482107	-0.424939	0.423084	0.401333	-0.50208	0.497925
0.403399	0.590979	-0.480023	-0.440396	-0.514248	0.45773	0.390849	0.52919	-0.376297	-0.474598	0.471218	-0.484504	-0.368883	-0.42021	-0.530374	0.503293	0.516876	-0.460687	0.475916	0.392355	-0.234102	0.540644	-0.451838	0.540996	0.387241	-0.519023	0.526486	-0.457229	0.558711	0.571012	-0.413458	0.42232
0.420044	0.353136	-0.455061	-0.431939	-0.464565	0.424179	0.460659	0.447455	-0.427177	-0.498353	0.507419	-0.509586	-0.463145	-0.523367	-0.475861	0.507819	0.410156	-0.469106	0.48444	0.519602	-0.556967	0.503658	-0.476186	0.477142	0.498899	-0.520389	0.504305	-0.478522	0.494432	0.483948	-0.499671	0.452359
0.445617	0.383808	-0.521589	-0.451655	-0.536714	0.498104	0.5105	0.507727	-0.517855	-0.47464	0.411113	-0.454642	-0.451471	-0.524031	-0.414762	0.446802	0.469241	-0.451003	0.493558	0.417645	-0.428469	0.4692	-0.475319	0.423794	0.528428	-0.471594	0.422859	-0.470199	0.485034	0.4612	-0.435266	0.424024
0.491038	0.518288	-0.528932	-0.526981	-0.426968	0.438388	0.454039	0.535096	-0.452119	-0.480841	0.436176	-0.431591	-0.400665	-0.47566	-0.449353	0.407505	0.478087	-0.513787	0.447719	0.517456	-0.565801	0.475735	-0.493563	0.532505	0.459283	-0.487183	0.454664	-0.502398	0.490602	0.56293	-0.548765	0.472064
0.428762	0.521223	-0.406834	-0.46113	-0.421127	0.451429	0.471049	0.537937	-0.532964	-0.494145	0.499721	-0.504017	-0.489756	-0.541354	-0.466961	0.512083	0.347598	-0.492744	0.470418	0.46413	-0.569152	0.447851	-0.439153	0.483362	0.5373	-0.510532	0.47501	-0.501733	0.368047	0.522682	-0.433509	0.522837
0.47107	0.4924	-0.463188	-0.502714	-0.471975	0.456787	0.514865	0.429502	-0.502742	-0.476854	0.515707	-0.420835	-0.505988	-0.535663	-0.474019	0.401047	0.420654	-0.412475	0.475585	0.477407	-0.453804	0.422506	-0.502404	0.437238	0.448543	-0.511676	0.448618	-0.513563	0.406921	0.405033	-0.453517	0.42992
0.459465	0.53551	-0.551977	-0.449579	-0.35813	0.383462	0.479485	0.458347	-0.526445	-0.439142	0.546931	-0.420354	-0.382038	-0.44232	-0.391517	0.564846	0.464609	-0.444928	0.527217	0.476686	-0.564454	0.495238	-0.424219	0.45381	0.530908	-0.489088	0.520599	-0.455784	0.412961	0.360688	-0.353046	0.419322
0.492356	0.431971	-0.466027	-0.51722	-0.456025	0.425322	0.481743	0.520192	-0.46835	-0.43162	0.502304	-0.419761	-0.504977	-0.50852	-0.464203	0.474474	0.39369	-0.409298	0.492733	0.438294	-0.466505	0.538	-0.440695	0.464702	0.527359	-0.43919	0.473516	-0.47886	0.441309	0.454001	-0.442425	0.408142
0.457763	0.486461	-0.480646	-0.431563	-0.452091	0.445916	0.483963	0.505327	-0.396051	-0.497713	0.448272	-0.460787	-0.451491	-0.491164	-0.511246	0.463587	0.546677	-0.519229	0.470972	0.511154	-0.443488	0.528753	-0.452771	0.410715	0.40753	-0.459375	0.433012	-0.479112	0.445122	0.421684	-0.511328	0.522095
0.495584	0.475087	-0.469736	-0.490194	-0.493987	0.428822	0.417531	0.429927	-0.554146	-0.460312	0.435733	-0.504294	-0.431796	-0.494391	-0.460653	0.441665	0.515059	-0.482292	0.51371	0.509271	-0.455959	0.423647	-0.482007	0.401666	0.441838	-0.45245	0.489909	-0.512671	0.391242	0.467486	-0.480784	0.455153
0.460471	0.322022	-0.480494	-0.49744	-0.445333	0.479216	0.494571	0.487279	-0.415036	-0.475668	0.46257	-0.53463	-0.523665	-0.418316	-0.490642	0.455863	0.410284	-0.49076	0.506398	0.461044	-0.431784	0.39455	-0.428841	0.431517	0.410417	-0.425634	0.410616	-0.520886	0.450688	0.498559	-0.416887	0.4454
0.474899	0.528874	-0.559532	-0.44385	-0.441284	0.434537	0.458256	0.483751	-0.530254	-0.516436	0.421476	-0.386977	-0.497314	-0.406009	-0.495756	0.387622	0.457769	-0.493613	0.503415	0.499612	-0.471344	0.487537	-0.429013	0.458247	0.505493	-0.430241	0.460064	-0.523664	0.39941	0.538399	-0.494613	0.524997
0.405337	0.459506	-0.300594	-0.404221	-0.36279	0.35485	0.404827	0.332635	-0.450888	-0.351193	0.390321	-0.209058	-0.325837	-0.217595	-0.326612	0.421364	0.441625	-0.425073	0.428595	0.426511	-0.300162	0.343366	-0.295974	0.37161	0.312214	-0.280193	0.343004	-0.321741	0.458022	0.248562	-0.436464	0.320035
0.536289	0.395286	-0.446366	-0.523133	-0.363873	0.419596	0.45873	0.505251	-0.469655	-0.451288	0.464461	-0.528088	-0.477694	-0.519603	-0.472624	0.409349	0.371759	-0.396238	0.427705	0.479561	-0.425119	0.397808	-0.442948	0.500814	0.541876	-0.379889	0.387332	-0.514307	0.394462	0.55054	-0.36	0.47096
0.416634	0.412124	-0.431323	-0.520689	-0.516158	0.504737	0.516784	0.485616	-0.398127	-0.539649	0.428759	-0.4366	-0.499526	-0.439235	-0.530902	0.395488	0.471249	-0.459762	0.535338	0.488279	-0.386695	0.470508	-0.472447	0.511661	0.438054	-0.479939	0.430101	-0.487051	0.41948	0.524	-0.539616	0.501885
0.49242	0.555726	-0.351512	-0.460268	-0.383204	0.413924	0.406176	0.444751	-0.396416	-0.471269	0.42296	-0.454658	-0.467703	-0.525146	-0.424751	0.501827	0.543657	-0.452422	0.427398	0.489806	-0.429852	0.360761	-0.475794	0.392449	0.451646	-0.492573	0.463401	-0.49186	0.494605	0.480049	-0.409382	0.509816
0.520983	0.425959	-0.480447	-0.41605	-0.470486	0.445703	0.512693	0.531524	-0.462361	-0.472197	0.472144	-0.534512	-0.539966	-0.522553	-0.509062	0.527869	0.39866	-0.504387	0.421212	0.495377	-0.540434	0.430133	-0.449595	0.440021	0.531572	-0.486453	0.454359	-0.429986	0.506448	0.511069	-0.508575	0.479676
0.48562	0.374992	-0.449557	-0.440141	-0.50599	0.454128	0.365901	0.474237	-0.555726	-0.522622	0.435676	-0.518409	-0.511014	-0.52212	-0.504141	0.528307	0.490223	-0.487411	0.494706	0.387856	-0.418176	0.417034	-0.495486	0.474901	0.400652	-0.525072	0.521797	-0.531071	0.483137	0.485853	-0.445122	0.4253
0.423437	0.33567	-0.391736	-0.473146	-0.473484	0.492397	0.472847	0.4876	-0.44543	-0.420943	0.419452	-0.461003	-0.509512	-0.34107	-0.487582	0.350358	0.44071	-0.437088	0.438963	0.480403	-0.490924	0.498394	-0.413057	0.463071	0.449177	-0.47321	0.412251	-0.469793	0.389767	0.459154	-0.377753	0.506574
0.545547	0.492448	-0.487301	-0.510699	-0.510491	0.440788	0.461862	0.469192	-0.501867	-0.472617	0.514774	-0.511223	-0.44426	-0.478628	-0.531521	0.374218	0.506676	-0.441174	0.471877	0.494949	-0.380127	0.421183	-0.506001	0.52201	0.542629	-0.470554	0.491963	-0.443289	0.532042	0.486519	-0.468209	0.522528
0.467102	0.450443	-0.519933	-0.486756	-0.416012	0.458142	0.515373	0.421797	-0.466729	-0.492239	0.526168	-0.531218	-0.452685	-0.454061	-0.466546	0.463919	0.507176	-0.453528	0.422598	0.489641	-0.45859	0.387688	-0.474258	0.412021	0.417518	-0.49677	0.484916	-0.404039	0.493819	0.427464	-0.517512	0.482694
0.445817	0.547445	-0.519033	-0.435773	-0.455773	0.444972	0.483514	0.445437	-0.45419	-0.395693	0.438935	-0.431663	-0.480892	-0.487721	-0.51058	0.50191	0.477192	-0.483807	0.537749	0.523332	-0.521874	0.49201	-0.475967	0.424819	0.500088	-0.47487	0.412717	-0.448459	0.478266	0.462342	-0.454781	0.429662
0.404794	0.497623	-0.529582	-0.492835	-0.479386	0.410243	0.445184	0.528458	-0.43989	-0.379458	0.441101	-0.524479	-0.402774	-0.41774	-0.488785	0.410897	0.366462	-0.488505	0.48582	0.422924	-0.417112	0.311988	-0.419068	0.424315	0.41176	-0.410141	0.383149	-0.511251	0.490423	0.547037	-0.408179	0.437007
0.491167	0.447579	-0.506479	-0.517498	-0.486953	0.436105	0.49239	0.510107	-0.464875	-0.503002	0.45402	-0.495996	-0.444827	-0.522583	-0.466041	0.473841	0.455751	-0.457411	0.398637	0.396315	-0.419192	0.480049	-0.48597	0.480649	0.447323	-0.430326	0.41632	-0.451893	0.446925	0.448166	-0.439889	0.515031
0.472303	0.394938	-0.40658	-0.465441	-0.478632	0.507684	0.510125	0.492794	-0.494233	-0.51126	0.485345	-0.403752	-0.478938	-0.502541	-0.41406	0.516234	0.450297	-0.468416	0.441199	0.462446	-0.383909	0.469685	-0.481791	0.496568	0.489729	-0.464899	0.403323	-0.467603	0.370867	0.493467	-0.370887	0.479284
0.476528	0.54299	-0.408921	-0.432623	-0.346215	0.374856	0.411321	0.444716	-0.365133	-0.347268	0.444297	-0.464892	-0.456368	-0.389945	-0.44188	0.454958	0.483017	-0.490722	0.373798	0.497958	-0.547186	0.509975	-0.411385	0.408089	0.466579	-0.383577	0.380297	-0.405527	0.380228	0.394026	-0.293753	0.440138
0.53155	0.245496	-0.377323	-0.435618	-0.52614	0.496285	0.548866	0.535053	-0.462804	-0.504337	0.45269	-0.482854	-0.451302	-0.491706	-0.430579	0.456971	0.414176	-0.384532	0.4861	0.426377	-0.400544	0.402914	-0.408169	0.477788	0.464766	-0.4027	0.503707	-0.487035	0.446988	0.502497	-0.408762	0.464395
0.435939	0.476842	-0.516933	-0.404874	-0.385266	0.530346	0.504446	0.397171	-0.48545	-0.414323	0.48007	-0.495374	-0.491717	-0.514604	-0.493189	0.451467	0.48279	-0.447942	0.413354	0.46033	-0.415687	0.524374	-0.440244	0.419201	0.512295	-0.406282	0.389519	-0.468606	0.504537	0.476938	-0.387497	0.436428
0.539096	0.453637	-0.496365	-0.512017	-0.484705	0.52142	0.435743	0.454884	-0.499207	-0.460661	0.451077	-0.410984	-0.479088	-0.552799	-0.485211	0.472581	0.510041	-0.487568	0.539515	0.469598	-0.487083	0.487876	-0.453586	0.490198	0.476008	-0.436223	0.450294	-0.460609	0.46452	0.480302	-0.42446	0.455995
0.47285	0.343367	-0.430276	-0.50458	-0.484061	0.467693	0.424782	0.521469	-0.552349	-0.494278	0.444354	-0.486602	-0.500063	-0.422216	-0.435673	0.4281	0.483111	-0.429529	0.480415	0.450189	-0.493607	0.442195	-0.514231	0.440035	0.445982	-0.433895	0.445223	-0.444261	0.417435	0.453551	-0.489164	0.517485
0.524374	0.483536	-0.455963	-0.474828	-0.532472	0.497396	0.529892	0.47228	-0.468575	-0.431875	0.501482	-0.458054	-0.412852	-0.359318	-0.505193	0.381345	0.523571	-0.46862	0.514595	0.463751	-0.363036	0.483893	-0.496551	0.440544	0.437818	-0.424981	0.46496	-0.520153	0.480932	0.490852	-0.504957	0.419138
0.472872	0.470169	-0.495135	-0.505378	-0.476221	0.449426	0.492024	0.405786	-0.358991	-0.435918	0.439127	-0.510744	-0.409177	-0.471306	-0.485754	0.540619	0.442579	-0.441283	0.460936	0.44398	-0.4575	0.481261	-0.492118	0.524015	0.467354	-0.512169	0.412331	-0.438636	0.483076	0.479836	-0.436799	0.456815
0.509965	0.521387	-0.524273	-0.484999	-0.427093	0.50283	0.47671	0.540554	-0.358778	-0.496269	0.536359	-0.399854	-0.478152	-0.415987	-0.508442	0.565776	0.354743	-0.415975	0.441681	0.551776	-0.56012	0.533021	-0.408789	0.45836	0.453805	-0.429205	0.450666	-0.4517	0.262257	0.325702	-0.576913	0.41831
0.481172	0.506532	-0.450579	-0.481164	-0.520916	0.44482	0.43269	0.490347	-0.435041	-0.548975	0.470642	-0.507902	-0.506721	-0.434865	-0.426819	0.453241	0.508342	-0.516095	0.467809	0.43692	-0.437444	0.448633	-0.520624	0.516438	0.473082	-0.430661	0.455109	-0.459966	0.463264	0.444869	-0.462585	0.445895
0.441259	0.514727	-0.511456	-0.424656	-0.502459	0.533515	0.485803	0.493704	-0.496008	-0.456191	0.52351	-0.444574	-0.462315	-0.544108	-0.427746	0.513644	0.446016	-0.490763	0.448608	0.472791	-0.369418	0.520591	-0.512405	0.439636	0.522439	-0.431889	0.525255	-0.492994	0.403552	0.452812	-0.471808	0.492513
0.487141	0.347489	-0.496199	-0.509282	-0.506681	0.433791	0.478561	0.473064	-0.456522	-0.42647	0.539771	-0.410097	-0.497545	-0.360138	-0.548011	0.516768	0.503256	-0.460396	0.458448	0.456296	-0.523204	0.554311	-0.448382	0.452725	0.449862	-0.399061	0.509763	-0.488803	0.391397	0.510757	-0.364413	0.444873
0.489262	0.474989	-0.433719	-0.431389	-0.510052	0.498933	0.434901	0.508525	-0.434675	-0.445959	0.429444	-0.506924	-0.414345	-0.343128	-0.403506	0.494425	0.437669	-0.482806	0.492721	0.460095	-0.565772	0.446167	-0.511625	0.402413	0.466203	-0.528842	0.506948	-0.428883	0.517151	0.509154	-0.459637	0.458223
0.415381	0.435358	-0.431892	-0.427963	-0.417344	0.491742	0.455883	0.440944	-0.403256	-0.516355	0.51808	-0.415443	-0.388619	-0.42242	-0.43293	0.506506	0.487983	-0.497661	0.407126	0.405513	-0.394998	0.542852	-0.502848	0.472818	0.444798	-0.431169	0.387594	-0.504304	0.411726	0.538837	-0.459089	0.464595
0.488181	0.482727	-0.383992	-0.4481	-0.529978	0.409575	0.470651	0.453974	-0.517011	-0.461386	0.454828	-0.498583	-0.472272	-0.427573	-0.527311	0.514633	0.458881	-0.40073	0.441387	0.422612	-0.442632	0.444529	-0.423115	0.520291	0.519678	-0.474642	0.477043	-0.504134	0.560421	0.431116	-0.480145	0.414048
0.46196	0.412718	-0.488982	-0.489861	-0.434953	0.545699	0.51466	0.462912	-0.549343	-0.443589	0.476691	-0.432264	-0.453061	-0.551903	-0.506444	0.416576	0.471284	-0.485795	0.438147	0.486295	-0.528108	0.458362	-0.461237	0.540584	0.542416	-0.448423	0.542715	-0.509103	0.44523	0.468549	-0.446048	0.517964
0.361472	0.371772	-0.493026	-0.447688	-0.434153	0.488825	0.35224	0.511623	-0.417847	-0.466165	0.528035	-0.457885	-0.406684	-0.442874	-0.427567	0.384898	0.508422	-0.471209	0.433491	0.433779	-0.487583	0.396324	-0.453056	0.491611	0.401016	-0.406511	0.526433	-0.464852	0.391365	0.493059	-0.396847	0.403972
0.437617	0.506315	-0.446908	-0.466466	-0.414771	0.527637	0.524464	0.507138	-0.547028	-0.389526	0.442096	-0.464471	-0.428525	-0.461562	-0.536344	0.418583	0.416839	-0.463999	0.468517	0.423199	-0.558856	0.468491	-0.442622	0.44392	0.434711	-0.480321	0.488644	-0.515756	0.42667	0.478175	-0.528325	0.464647
0.45177	0.471185	-0.447748	-0.499347	-0.494801	0.460579	0.528503	0.385899	-0.463724	-0.511328	0.482615	-0.519756	-0.503959	-0.53301	-0.458318	0.467377	0.442512	-0.490286	0.455393	0.502714	-0.443313	0.457489	-0.445983	0.401215	0.467647	-0.414225	0.435963	-0.463344	0.491956	0.489412	-0.446213	0.516465
0.418394	0.418909	-0.451001	-0.445109	-0.403365	0.466148	0.495291	0.494608	-0.482862	-0.376531	0.444858	-0.488095	-0.540351	-0.443635	-0.495516	0.432974	0.444411	-0.443634	0.448529	0.466333	-0.479199	0.42869	-0.508375	0.372272	0.464213	-0.375023	0.469258	-0.524217	0.460321	0.471648	-0.556066	0.478018
0.483674	0.532626	-0.503527	-0.526278	-0.508475	0.511445	0.461342	0.44768	-0.536707	-0.420425	0.415918	-0.460658	-0.353501	-0.362837	-0.436144	0.435901	0.422157	-0.461565	0.452502	0.428618	-0.401907	0.455782	-0.482519	0.403265	0.424151	-0.497429	0.507013	-0.474557	0.452576	0.416099	-0.523142	0.416302
0.485998	0.455625	-0.416241	-0.364488	-0.504676	0.387708	0.524892	0.482555	-0.411504	-0.528032	0.422128	-0.451025	-0.486772	-0.469274	-0.477408	0.526136	0.51333	-0.381176	0.472368	0.401006	-0.433904	0.436875	-0.41608	0.41498	0.517753	-0.485362	0.399966	-0.443222	0.512723	0.458354	-0.420875	0.490066
0.466016	0.532159	-0.479413	-0.463238	-0.411006	0.453688	0.480839	0.436935	-0.50124	-0.526483	0.522177	-0.39369	-0.453927	-0.45702	-0.497451	0.494126	0.390567	-0.483881	0.441897	0.53121	-0.425702	0.458058	-0.463739	0.458283	0.414178	-0.387764	0.486699	-0.457028	0.446334	0.451663	-0.521788	0.495837
0.515341	0.408226	-0.485844	-0.436388	-0.435422	0.478574	0.413373	0.46942	-0.47594	-0.444863	0.523835	-0.527203	-0.50239	-0.409654	-0.394398	0.437224	0.410472	-0.473798	0.44338	0.44545	-0.419647	0.519863	-0.430109	0.534338	0.478081	-0.39364	0.466462	-0.447232	0.435419	0.462754	-0.502921	0.436071
0.415322	0.334348	-0.444906	-0.494011	-0.532858	0.500526	0.440181	0.434033	-0.460928	-0.425045	0.504272	-0.395704	-0.476025	-0.493615	-0.496201	0.492416	0.411493	-0.449908	0.46121	0.493723	-0.553002	0.515185	-0.481846	0.5002	0.403305	-0.395043	0.414042	-0.525831	0.566183	0.520409	-0.443112	0.494939
0.450849	0.427398	-0.376476	-0.514435	-0.473896	0.502284	0.501094	0.472161	-0.435408	-0.479962	0.509357	-0.529402	-0.469931	-0.354437	-0.420263	0.415156	0.423845	-0.448587	0.455667	0.514477	-0.503223	0.426536	-0.424401	0.451071	0.490705	-0.486765	0.49215	-0.494983	0.432934	0.460894	-0.549732	0.520666
0.440157	0.422756	-0.445825	-0.415069	-0.454958	0.540386	0.428089	0.506752	-0.445381	-0.51857	0.485333	-0.521969	-0.456648	-0.45543	-0.529916	0.41171	0.406764	-0.487631	0.476162	0.517176	-0.531867	0.480893	-0.443875	0.506414	0.484194	-0.450796	0.49784	-0.466832	0.441776	0.463958	-0.428465	0.497945
0.447933	0.587025	-0.418531	-0.519136	-0.37458	0.27917	0.323903	0.297892	-0.205543	-0.446633	0.47991	-0.0786127	-0.311468	-0.218348	-0.378486	0.60513	0.238968	-0.346752	0.412526	0.373686	-0.165961	0.530615	-0.459008	0.503886	0.385451	-0.316981	0.396462	-0.450052	0.41633	0.282422	-0.597339	0.340432
0.472989	0.365847	-0.49111	-0.438352	-0.411494	0.408342	0.471739	0.531793	-0.434795	-0.456537	0.418059	-0.449031	-0.413834	-0.42356	-0.457661	0.453002	0.488615	-0.462825	0.519143	0.497669	-0.485985	0.494559	-0.483274	0.428793	0.493166	-0.39416	0.516309	-0.389331	0.45602	0.384763	-0.442705	0.484182
0.458671	0.405466	-0.492463	-0.437138	-0.373359	0.511528	0.469217	0.480106	-0.396753	-0.516982	0.450948	-0.514	-0.518364	-0.547712	-0.405109	0.528088	0.396363	-0.39619	0.52959	0.521854	-0.515638	0.493608	-0.442003	0.473694	0.526595	-0.458836	0.481109	-0.49771	0.476337	0.512078	-0.366422	0.496363
0.507458	0.574307	-0.444423	-0.471916	-0.517957	0.47499	0.514101	0.46255	-0.455538	-0.489851	0.491148	-0.362126	-0.431942	-0.507688	-0.453138	0.405353	0.512789	-0.473426	0.501126	0.447804	-0.417328	0.471783	-0.506526	0.515486	0.460797	-0.516901	0.467726	-0.4921	0.520131	0.456445	-0.420799	0.508072
0.4923	0.509401	-0.443636	-0.449841	-0.440405	0.49579	0.495268	0.48456	-0.437656	-0.495976	0.422782	-0.459769	-0.446344	-0.435427	-0.528371	0.477906	0.433832	-0.455947	0.522201	0.457867	-0.441949	0.536557	-0.49824	0.504663	0.49461	-0.501281	0.451868	-0.424352	0.442599	0.499215	-0.472767	0.483128
0.450556	0.489582	-0.516148	-0.44672	-0.362667	0.387622	0.437581	0.384784	-0.384849	-0.400851	0.485947	-0.530706	-0.354685	-0.508199	-0.382585	0.325275	0.456715	-0.412296	0.42125	0.452972	-0.56219	0.417299	-0.460448	0.435613	0.334707	-0.385639	0.511675	-0.475198	0.477021	0.461782	-0.393013	0.415923
0.505346	0.475019	-0.470356	-0.453771	-0.521363	0.430254	0.500692	0.441136	-0.560182	-0.470516	0.474936	-0.528988	-0.512118	-0.442908	-0.472062	0.477122	0.406732	-0.447592	0.49342	0.517879	-0.448285	0.417103	-0.499297	0.527601	0.481291	-0.508532	0.402888	-0.442268	0.481666	0.451767	-0.541612	0.523879
0.51598	0.491699	-0.52248	-0.458932	-0.418335	0.441914	0.431888	0.469675	-0.498238	-0.531055	0.446857	-0.530487	-0.491604	-0.511554	-0.409454	0.472832	0.443361	-0.46736	0.466282	0.501228	-0.438497	0.445069	-0.466799	0.499459	0.471028	-0.41141	0.489958	-0.531554	0.540658	0.544169	-0.482523	0.496747
0.427001	0.451551	-0.391955	-0.39451	-0.449337	0.419115	0.502425	0.480907	-0.415321	-0.414083	0.51093	-0.430654	-0.408651	-0.543542	-0.508187	0.412685	0.437552	-0.426909	0.504826	0.482342	-0.394944	0.445332	-0.439972	0.454232	0.511754	-0.486494	0.438851	-0.472534	0.46475	0.508012	-0.521583	0.475527
0.49912	0.463823	-0.494554	-0.499326	-0.519162	0.465872	0.435262	0.463556	-0.521879	-0.379578	0.428864	-0.455289	-0.524804	-0.406904	-0.509928	0.370589	0.427804	-0.499671	0.467645	0.507337	-0.417902	0.486932	-0.437618	0.501777	0.537969	-0.432475	0.501444	-0.487652	0.440268	0.538267	-0.411546	0.439685
0.392496	0.244875	-0.475523	-0.453559	-0.517935	0.475953	0.512744	0.454843	-0.499583	-0.418792	0.509554	-0.483288	-0.409432	-0.452424	-0.494935	0.503639	0.469689	-0.432541	0.45082	0.52683	-0.447424	0.439502	-0.450739	0.497244	0.405365	-0.534085	0.479163	-0.395842	0.382095	0.475171	-0.508963	0.443735
0.52904	0.508479	-0.424386	-0.50101	-0.442581	0.501148	0.455113	0.438582	-0.496428	-0.443816	0.466481	-0.478653	-0.457593	-0.410171	-0.411261	0.471832	0.529455	-0.447708	0.520964	0.460805	-0.35627	0.49289	-0.448696	0.427995	0.459862	-0.44532	0.519921	-0.521823	0.343309	0.542514	-0.409458	0.527119
0.415817	0.522077	-0.473677	-0.467116	-0.507166	0.434933	0.454931	0.42605	-0.352477	-0.40569	0.499477	-0.447745	-0.460861	-0.559725	-0.488654	0.421394	0.537208	-0.498576	0.565352	0.579399	-0.512759	0.5219	-0.517877	0.380573	0.549374	-0.484902	0.513228	-0.472695	0.325955	0.416187	-0.460711	0.4803
0.363502	0.510432	-0.515348	-0.493267	-0.52868	0.428891	0.487706	0.423097	-0.478541	-0.452153	0.438213	-0.499368	-0.400089	-0.433195	-0.465368	0.432425	0.460453	-0.502909	0.465856	0.381151	-0.557002	0.381377	-0.452255	0.455853	0.409461	-0.441552	0.451382	-0.500668	0.428795	0.382279	-0.424194	0.491508
0.439653	0.42382	-0.376274	-0.46707	-0.535098	0.525704	0.396771	0.526202	-0.550404	-0.41826	0.510771	-0.530133	-0.477391	-0.421266	-0.409022	0.522607	0.389588	-0.45848	0.513973	0.449203	-0.479364	0.53643	-0.511583	0.479	0.503887	-0.465632	0.465118	-0.503639	0.472158	0.403119	-0.486065	0.423951
0.42524	0.527042	-0.430615	-0.421279	-0.446381	0.53687	0.476265	0.497264	-0.547919	-0.534937	0.52416	-0.48913	-0.469502	-0.403394	-0.531115	0.451527	0.451153	-0.490381	0.502238	0.508824	-0.510662	0.528688	-0.443575	0.518397	0.501146	-0.449541	0.499398	-0.509055	0.506584	0.47715	-0.435089	0.485984
0.448045	0.531162	-0.486877	-0.446251	-0.529623	0.379466	0.361104	0.474693	-0.494652	-0.45645	0.44141	-0.374669	-0.387696	-0.31719	-0.481678	0.405878	0.510735	-0.373933	0.480583	0.524857	-0.540188	0.372005	-0.439937	0.47072	0.402183	-0.35031	0.403165	-0.415165	0.417927	0.316644	-0.531987	0.35998
0.492514	0.486457	-0.482599	-0.428936	-0.446153	0.457631	0.449256	0.458909	-0.36593	-0.476691	0.47677	-0.505827	-0.481704	-0.4007	-0.515674	0.525654	0.433217	-0.503584	0.458162	0.518182	-0.396138	0.460956	-0.435428	0.463817	0.441788	-0.455867	0.449132	-0.473512	0.520244	0.545734	-0.523733	0.516074
0.486945	0.552921	-0.482607	-0.525456	-0.456372	0.42208	0.531555	0.494319	-0.461306	-0.382337	0.439097	-0.556461	-0.527912	-0.496172	-0.444471	0.432767	0.499859	-0.489336	0.506525	0.427513	-0.456013	0.510426	-0.419882	0.475911	0.382124	-0.480551	0.414627	-0.49618	0.363034	0.482146	-0.39408	0.530325
0.456688	0.438902	-0.450046	-0.463097	-0.484182	0.442586	0.405401	0.478977	-0.483791	-0.398035	0.47843	-0.421089	-0.383458	-0.489333	-0.475412	0.515457	0.4728	-0.479413	0.476944	0.509307	-0.352538	0.428835	-0.479406	0.490856	0.451431	-0.406986	0.499841	-0.463197	0.433376	0.445382	-0.416758	0.449275
0.374552	0.511084	-0.325721	-0.399718	-0.410622	0.391289	0.366415	0.48037	-0.487825	-0.307361	0.382002	-0.337779	-0.387527	-0.409433	-0.455257	0.326975	0.472851	-0.434599	0.407879	0.33627	-0.401447	0.353185	-0.346248	0.372095	0.406705	-0.3167	0.338789	-0.398164	0.501481	0.371994	-0.468047	0.474354
0.42345	0.322404	-0.405921	-0.490271	-0.496969	0.476676	0.45497	0.456198	-0.539174	-0.52914	0.401567	-0.541182	-0.371304	-0.40491	-0.471831	0.44461	0.36198	-0.484435	0.417552	0.466948	-0.495554	0.413487	-0.43275	0.417408	0.435897	-0.436735	0.47963	-0.426224	0.528142	0.419309	-0.514667	0.404313
0.537158	0.340022	-0.485073	-0.448503	-0.526915	0.47587	0.521015	0.462683	-0.403463	-0.461476	0.502415	-0.54799	-0.421219	-0.512509	-0.46347	0.484906	0.457359	-0.486059	0.459255	0.431968	-0.472654	0.454935	-0.478154	0.472799	0.447505	-0.420076	0.53631	-0.520234	0.479755	0.454174	-0.461531	0.519905
0.521335	0.517214	-0.512766	-0.479516	-0.389636	0.455269	0.407343	0.418935	-0.456698	-0.495775	0.428124	-0.458363	-0.442384	-0.441099	-0.395894	0.449982	0.442793	-0.498361	0.452014	0.4691	-0.4145	0.46744	-0.426965	0.450748	0.473419	-0.411517	0.445166	-0.507811	0.506804	0.521651	-0.534982	0.411113
0.445224	0.517243	-0.513107	-0.487286	-0.475041	0.44133	0.419024	0.504168	-0.475169	-0.495012	0.495699	-0.494657	-0.472163	-0.447889	-0.503778	0.530714	0.486279	-0.428551	0.503328	0.432565	-0.530395	0.47435	-0.474349	0.500911	0.480025	-0.430897	0.513425	-0.487369	0.50896	0.445798	-0.438161	0.441407
0.517865	0.456659	-0.522971	-0.466684	-0.503595	0.43521	0.403212	0.544268	-0.381317	-0.521725	0.465337	-0.464157	-0.505832	-0.519571	-0.518998	0.520223	0.491533	-0.41847	0.513072	0.48883	-0.337644	0.519591	-0.487635	0.528059	0.51256	-0.371636	0.466648	-0.440255	0.454509	0.461937	-0.511196	0.437707
0.435349	0.406633	-0.514815	-0.488844	-0.430916	0.518058	0.435952	0.507947	-0.538181	-0.425216	0.491381	-0.46559	-0.487427	-0.435228	-0.450406	0.438286	0.326628	-0.41608	0.521646	0.417024	-0.514385	0.400826	-0.510678	0.476247	0.501352	-0.471512	0.442826	-0.487172	0.455531	0.500908	-0.428302	0.433248
0.51943	0.475457	-0.438397	-0.469499	-0.515941	0.423	0.494624	0.506909	-0.525866	-0.49413	0.506639	-0.450927	-0.445777	-0.536747	-0.482849	0.432655	0.54612	-0.485845	0.484892	0.482952	-0.456643	0.519867	-0.42914	0.449902	0.428843	-0.490474	0.406859	-0.479086	0.463363	0.494517	-0.485019	0.462414
0.422509	0.45985	-0.4553	-0.526901	-0.410869	0.499072	0.520737	0.439297	-0.392839	-0.480927	0.412119	-0.543284	-0.470002	-0.551653	-0.492089	0.486444	0.523944	-0.431403	0.443612	0.45209	-0.520878	0.382285	-0.488349	0.502116	0.477196	-0.484601	0.344978	-0.474853	0.476375	0.422354	-0.442091	0.515101
0.465497	0.519795	-0.509032	-0.427581	-0.450019	0.45498	0.459851	0.434671	-0.427269	-0.421513	0.525733	-0.485927	-0.457134	-0.488745	-0.421535	0.544278	0.474845	-0.408847	0.380016	0.45304	-0.5172	0.505777	-0.490345	0.429909	0.396989	-0.478017	0.488983	-0.502111	0.448274	0.476612	-0.494921	0.483259
0.497267	0.391222	-0.517146	-0.427923	-0.418687	0.500471	0.528415	0.496769	-0.452803	-0.461085	0.520284	-0.526201	-0.495387	-0.510624	-0.475062	0.39761	0.368767	-0.469223	0.52475	0.41454	-0.481741	0.513831	-0.417888	0.461208	0.511108	-0.418245	0.489393	-0.419556	0.453523	0.433021	-0.450733	0.507668
0.456064	0.384625	-0.41906	-0.522151	-0.431945	0.539916	0.517879	0.452907	-0.393732	-0.392061	0.416796	-0.480416	-0.541619	-0.497328	-0.43661	0.503999	0.443799	-0.397731	0.529083	0.434887	-0.46172	0.417729	-0.459553	0.499743	0.46104	-0.468958	0.481276	-0.420409	0.498844	0.432343	-0.366012	0.447273
0.410396	0.429048	-0.471868	-0.415256	-0.454601	0.448186	0.517936	0.453587	-0.437877	-0.485105	0.48149	-0.545442	-0.486726	-0.432127	-0.415836	0.403952	0.551261	-0.515737	0.43424	0.417249	-0.464103	0.511714	-0.51874	0.521307	0.43543	-0.517711	0.423424	-0.456727	0.494114	0.491567	-0.550599	0.468424
0.442197	0.440146	-0.438174	-0.504803	-0.528408	0.484224	0.373347	0.360088	-0.476914	-0.454731	0.465879	-0.578366	-0.263701	-0.530698	-0.448406	0.407674	0.53101	-0.432532	0.437675	0.492922	-0.544931	0.42834	-0.400979	0.435735	0.322586	-0.412118	0.448766	-0.434937	0.333992	0.446333	-0.46746	0.375905
0.465433	0.472009	-0.495505	-0.496164	-0.497175	0.454051	0.395343	0.472587	-0.42162	-0.430942	0.400318	-0.428382	-0.397253	-0.568807	-0.457603	0.44347	0.481535	-0.448229	0.520227	0.489423	-0.476911	0.433113	-0.415285	0.466335	0.515783	-0.411888	0.527871	-0.488113	0.413787	0.427298	-0.412345	0.448631
0.453042	0.461034	-0.448579	-0.501296	-0.481494	0.486317	0.449624	0.469655	-0.405628	-0.44022	0.453554	-0.498191	-0.492306	-0.431085	-0.52092	0.50073	0.411653	-0.489192	0.503359	0.490874	-0.471909	0.486295	-0.500589	0.51078	0.508114	-0.429295	0.398552	-0.494759	0.533705	0.443451	-0.537649	0.50531
0.522038	0.443868	-0.429938	-0.433123	-0.505704	0.459877	0.47218	0.426708	-0.510223	-0.421122	0.417675	-0.51044	-0.537678	-0.426104	-0.510166	0.506667	0.364178	-0.495041	0.517234	0.411577	-0.392113	0.45881	-0.439688	0.50771	0.440309	-0.453121	0.49803	-0.484408	0.418821	0.527021	-0.48526	0.463161
0.535284	0.534809	-0.500602	-0.509479	-0.412538	0.390758	0.432304	0.445804	-0.48713	-0.462016	0.463834	-0.407888	-0.425064	-0.528635	-0.426336	0.452504	0.428766	-0.412976	0.426351	0.416245	-0.443891	0.50693	-0.539341	0.454961	0.514997	-0.486292	0.491629	-0.546402	0.551795	0.451312	-0.49715	0.456432
0.418229	0.437594	-0.514802	-0.546939	-0.433342	0.42894	0.445236	0.486206	-0.580348	-0.418202	0.423506	-0.440665	-0.49765	-0.464141	-0.490821	0.518596	0.379336	-0.463203	0.491167	0.416947	-0.560872	0.514978	-0.45712	0.407551	0.555288	-0.489459	0.403767	-0.517485	0.427131	0.508711	-0.507162	0.501223
0.517594	0.521822	-0.479635	-0.464379	-0.409163	0.459184	0.470801	0.492135	-0.495818	-0.482787	0.50099	-0.407903	-0.453372	-0.473942	-0.423931	0.517956	0.512688	-0.507064	0.431338	0.482216	-0.462706	0.454415	-0.421234	0.431067	0.426372	-0.412088	0.433044	-0.469832	0.38274	0.448791	-0.439908	0.41427
0.502988	0.56135	-0.403785	-0.404882	-0.422911	0.405516	0.427149	0.447696	-0.442833	-0.499114	0.4727	-0.32327	-0.493293	-0.525052	-0.383874	0.422166	0.407863	-0.365177	0.457862	0.346037	-0.440584	0.401258	-0.426701	0.510997	0.511945	-0.43534	0.465978	-0.404968	0.394783	0.487852	-0.483567	0.472506
0.453417	0.41447	-0.410691	-0.42115	-0.450574	0.447288	0.480145	0.546637	-0.467498	-0.448859	0.51217	-0.506179	-0.476337	-0.532887	-0.552625	0.401967	0.451537	-0.447487	0.480293	0.461907	-0.440039	0.535279	-0.525839	0.447256	0.47348	-0.489799	0.49797	-0.541267	0.503087	0.476973	-0.494049	0.479335
0.528306	0.487092	-0.46369	-0.47249	-0.534748	0.440986	0.445379	0.499697	-0.375331	-0.498457	0.494125	-0.419955	-0.475307	-0.450071	-0.516698	0.477487	0.472213	-0.506994	0.411283	0.351393	-0.362792	0.50643	-0.48975	0.453779	0.502412	-0.480751	0.484684	-0.480988	0.454762	0.538347	-0.479914	0.520343
0.497706	0.522615	-0.478063	-0.532579	-0.528057	0.458296	0.390749	0.520046	-0.498859	-0.495908	0.453654	-0.436328	-0.507862	-0.428247	-0.443173	0.41914	0.432319	-0.464681	0.484481	0.378659	-0.403451	0.519268	-0.451022	0.479408	0.492469	-0.471373	0.46358	-0.467752	0.336174	0.472892	-0.41479	0.481525
0.467905	0.441483	-0.508771	-0.533209	-0.457275	0.478996	0.489392	0.445349	-0.4777	-0.539121	0.483567	-0.548748	-0.550475	-0.44373	-0.46024	0.564026	0.506656	-0.492296	0.512969	0.467277	-0.544969	0.45767	-0.473942	0.530482	0.432665	-0.47895	0.454076	-0.496583	0.369013	0.441738	-0.5068	0.454904
0.491297	0.45414	-0.511116	-0.479201	-0.53269	0.476729	0.482934	0.474384	-0.419683	-0.543646	0.450947	-0.453401	-0.488559	-0.497438	-0.478032	0.455623	0.451302	-0.502056	0.421894	0.442535	-0.405002	0.430035	-0.437254	0.513849	0.436594	-0.52341	0.46671	-0.490614	0.483311	0.477813	-0.397867	0.432831
0.522438	0.412847	-0.395568	-0.435109	-0.534599	0.462992	0.465996	0.515245	-0.483079	-0.456762	0.484169	-0.507136	-0.433396	-0.406806	-0.479405	0.473445	0.514739	-0.414816	0.489014	0.373443	-0.454969	0.548044	-0.418627	0.531661	0.488379	-0.431559	0.527488	-0.414071	0.538415	0.520608	-0.540238	0.507582
0.449808	0.5528	-0.312516	-0.432969	-0.340886	0.440993	0.344863	0.409935	-0.436327	-0.348932	0.493769	-0.397471	-0.414111	-0.494106	-0.30106	0.383123	0.517075	-0.482169	0.410558	0.304186	-0.309339	0.489003	-0.441752	0.334088	0.291361	-0.448079	0.314209	-0.41163	0.189715	0.288716	-0.293481	0.264092
0.472121	0.345628	-0.514237	-0.438485	-0.433963	0.40533	0.432363	0.519848	-0.504487	-0.449313	0.473668	-0.469562	-0.471288	-0.475599	-0.498871	0.43446	0.495454	-0.440484	0.473002	0.432597	-0.382094	0.504351	-0.502621	0.509512	0.516427	-0.448732	0.490822	-0.480334	0.493962	0.425996	-0.401487	0.427513
0.46428	0.450073	-0.475627	-0.490413	-0.449635	0.514672	0.494573	0.420662	-0.570476	-0.509248	0.458656	-0.45501	-0.497517	-0.470692	-0.449788	0.486832	0.461818	-0.456569	0.544012	0.482555	-0.474523	0.509951	-0.466647	0.494946	0.449468	-0.521487	0.449215	-0.46363	0.473273	0.475878	-0.445886	0.475993
0.443134	0.493139	-0.433438	-0.506002	-0.471536	0.388952	0.467431	0.447324	-0.369406	-0.41787	0.447764	-0.473893	-0.487934	-0.526653	-0.524581	0.429371	0.475636	-0.426867	0.511264	0.46699	-0.399262	0.4288	-0.507436	0.490489	0.503483	-0.531512	0.392983	-0.462883	0.475606	0.46856	-0.516293	0.428645
0.510215	0.369579	-0.432833	-0.514286	-0.501556	0.500855	0.434887	0.391765	-0.394688	-0.436578	0.442126	-0.510011	-0.412987	-0.536475	-0.417269	0.51555	0.472208	-0.42012	0.478842	0.490611	-0.488208	0.430661	-0.424909	0.40854	0.422155	-0.468122	0.457352	-0.463124	0.393708	0.533545	-0.392419	0.5109
0.509053	0.352037	-0.494447	-0.420157	-0.486316	0.420063	0.533334	0.447567	-0.388917	-0.439571	0.461642	-0.460396	-0.518213	-0.403052	-0.485383	0.497844	0.494477	-0.444118	0.515071	0.421039	-0.512208	0.442372	-0.421445	0.458854	0.458986	-0.53014	0.40169	-0.496962	0.512328	0.442316	-0.48441	0.512939
0.462687	0.324414	-0.50457	-0.430146	-0.513696	0.426276	0.359163	0.369343	-0.490121	-0.458536	0.495669	-0.533802	-0.481137	-0.463208	-0.496859	0.491319	0.485778	-0.504424	0.537827	0.405926	-0.526449	0.428685	-0.511583	0.528482	0.504286	-0.535312	0.471743	-0.489662	0.510265	0.508728	-0.468695	0.381401
0.497086	0.451896	-0.51491	-0.485995	-0.529815	0.498591	0.392366	0.386853	-0.402574	-0.445663	0.469677	-0.457865	-0.460775	-0.527049	-0.475905	0.477214	0.405608	-0.409918	0.465001	0.490107	-0.345158	0.501921	-0.434286	0.496968	0.415433	-0.404645	0.408964	-0.403787	0.505371	0.511951	-0.39489	0.499589
0.420436	0.418175	-0.522291	-0.429062	-0.397126	0.394527	0.41177	0.424531	-0.476635	-0.51874	0.517841	-0.428041	-0.488145	-0.562876	-0.445691	0.466096	0.499373	-0.468602	0.513668	0.385514	-0.490844	0.449654	-0.508657	0.425504	0.524435	-0.531964	0.518826	-0.414416	0.405879	0.524402	-0.386355	0.417558
0.509424	0.558431	-0.45264	-0.498371	-0.47759	0.444575	0.442376	0.431972	-0.430801	-0.424923	0.466869	-0.539158	-0.412458	-0.432984	-0.412983	0.409343	0.488269	-0.52639	0.442317	0.485921	-0.465187	0.425827	-0.46635	0.50564	0.403326	-0.494346	0.500293	-0.48463	0.509207	0.460673	-0.47194	0.472861
0.442376	0.385189	-0.460415	-0.43669	-0.470004	0.487167	0.538541	0.506935	-0.391857	-0.443995	0.448393	-0.493352	-0.400082	-0.433879	-0.527535	0.374751	0.434887	-0.5154	0.445514	0.428005	-0.467009	0.510423	-0.49566	0.463601	0.455208	-0.51152	0.478597	-0.484164	0.391735	0.545198	-0.488608	0.534955
0.481606	0.416105	-0.496439	-0.421948	-0.450609	0.462346	0.360735	0.519004	-0.524225	-0.469512	0.436184	-0.448836	-0.496759	-0.472716	-0.452044	0.517087	0.439123	-0.430825	0.443124	0.394277	-0.42077	0.467029	-0.425583	0.472566	0.394119	-0.539992	0.476794	-0.4863	0.355574	0.543175	-0.356045	0.465052
0.512768	0.447913	-0.44333	-0.489278	-0.48192	0.45868	0.561986	0.412779	-0.430313	-0.483588	0.470069	-0.513808	-0.53599	-0.497578	-0.423688	0.535704	0.567797	-0.497249	0.456803	0.441619	-0.384521	0.460011	-0.511601	0.502917	0.439675	-0.450657	0.350238	-0.475078	0.459972	0.536589	-0.517881	0.448334
0.491467	0.444061	-0.510806	-0.411769	-0.489398	0.473486	0.389925	0.401158	-0.514712	-0.414139	0.451187	-0.421198	-0.496988	-0.552619	-0.44666	0.480355	0.405185	-0.531574	0.474255	0.533579	-0.516998	0.448934	-0.422771	0.495914	0.437505	-0.481493	0.463947	-0.509808	0.505747	0.458	-0.44709	0.504781
0.497286	0.501968	-0.52694	-0.484341	-0.52027	0.421894	0.455905	0.516329	-0.519995	-0.530526	0.45274	-0.494728	-0.502702	-0.488131	-0.497335	0.409302	0.509044	-0.439715	0.510447	0.505694	-0.429013	0.502587	-0.515266	0.422078	0.455314	-0.442803	0.493187	-0.429055	0.462581	0.523887	-0.506915	0.461581
0.466317	0.464686	-0.515082	-0.528683	-0.47183	0.500974	0.440041	0.417832	-0.450677	-0.50197	0.513172	-0.427226	-0.460809	-0.52528	-0.480018	0.468266	0.460966	-0.439946	0.509886	0.482382	-0.525666	0.387567	-0.455977	0.495071	0.468376	-0.48669	0.482488	-0.442521	0.512416	0.433635	-0.419513	0.491484
0.470471	0.485103	-0.460514	-0.533529	-0.425779	0.422941	0.448591	0.476222	-0.540748	-0.432409	0.482025	-0.483293	-0.445769	-0.37345	-0.480265	0.470377	0.401625	-0.441503	0.546973	0.405814	-0.411463	0.549034	-0.476185	0.415158	0.47646	-0.408727	0.528324	-0.453999	0.529276	0.503783	-0.439275	0.413967
0.434354	0.365072	-0.340296	-0.486808	-0.486286	0.457409	0.511221	0.53779	-0.542565	-0.418638	0.47322	-0.468558	-0.428558	-0.443983	-0.444203	0.495911	0.411359	-0.440444	0.459308	0.53393	-0.446857	0.43497	-0.480048	0.440259	0.453228	-0.455005	0.460082	-0.521941	0.542566	0.407627	-0.474556	0.527484
0.514562	0.280451	-0.505467	-0.431001	-0.50101	0.502504	0.536334	0.491401	-0.445511	-0.501514	0.422539	-0.406047	-0.362276	-0.496422	-0.505521	0.434955	0.47247	-0.501317	0.538271	0.481119	-0.463975	0.499948	-0.489903	0.453794	0.415905	-0.451513	0.491919	-0.546016	0.520309	0.464327	-0.499999	0.435138
0.413498	0.446323	-0.384659	-0.480003	-0.463949	0.469184	0.504353	0.431489	-0.449272	-0.396183	0.439649	-0.413632	-0.448821	-0.539959	-0.516992	0.455897	0.470671	-0.52813	0.489651	0.390896	-0.393562	0.44897	-0.474136	0.46355	0.392589	-0.478929	0.415048	-0.505467	0.541612	0.544702	-0.445847	0.509149
0.44211	0.551836	-0.403074	-0.489205	-0.423141	0.472495	0.41963	0.506246	-0.42744	-0.542951	0.503195	-0.499148	-0.321866	-0.302389	-0.551336	0.55445	0.445402	-0.387103	0.530024	0.474106	-0.465392	0.478762	-0.50788	0.548669	0.500965	-0.35888	0.465336	-0.426289	0.473086	0.4994	-0.503765	0.432376
0.526586	0.385553	-0.490365	-0.458095	-0.453375	0.482593	0.43648	0.498281	-0.425652	-0.49609	0.466353	-0.472386	-0.498654	-0.453177	-0.450369	0.440308	0.515886	-0.490396	0.463907	0.546282	-0.418062	0.536289	-0.545978	0.471644	0.450878	-0.487264	0.51592	-0.533101	0.492001	0.447098	-0.420931	0.540316
0.5208	0.488846	-0.388237	-0.428299	-0.499576	0.500857	0.416604	0.402897	-0.515907	-0.50643	0.400243	-0.510224	-0.441656	-0.374241	-0.50256	0.454069	0.460058	-0.447685	0.423703	0.517442	-0.48197	0.479464	-0.470026	0.409858	0.516247	-0.430929	0.502456	-0.513801	0.415638	0.404465	-0.451992	0.445745
0.434583	0.427462	-0.470733	-0.485134	-0.478762	0.408634	0.461405	0.439929	-0.382548	-0.517973	0.487526	-0.467704	-0.527147	-0.546462	-0.459184	0.423069	0.51264	-0.482207	0.432125	0.448938	-0.438477	0.461227	-0.480518	0.4829	0.447032	-0.521429	0.525318	-0.526263	0.403579	0.461002	-0.42916	0.470697
0.411419	0.469041	-0.464438	-0.448972	-0.499775	0.482526	0.379974	0.449727	-0.38997	-0.545521	0.448195	-0.537308	-0.307617	-0.334852	-0.4964	0.37999	0.587746	-0.428402	0.508471	0.44961	-0.321947	0.466915	-0.362119	0.397725	0.379705	-0.522928	0.503182	-0.379693	0.443857	0.378136	-0.467771	0.481582
0.445617	0.524816	-0.452359	-0.430578	-0.484289	0.403281	0.386974	0.465396	-0.413811	-0.521878	0.51602	-0.405589	-0.404208	-0.487489	-0.48764	0.460032	0.485608	-0.388826	0.418146	0.456383	-0.448206	0.498754	-0.435189	0.515712	0.487258	-0.378982	0.46797	-0.48754	0.525396	0.528878	-0.384084	0.408735
0.376262	0.57384	-0.459397	-0.530301	-0.520901	0.466485	0.463422	0.460328	-0.431315	-0.480127	0.523972	-0.529243	-0.378616	-0.528599	-0.405647	0.439155	0.561452	-0.375012	0.494784	0.564159	-0.599906	0.452405	-0.548672	0.387236	0.441661	-0.437603	0.464036	-0.498237	0.344078	0.53666	-0.533303	0.471106
0.504767	0.548295	-0.441091	-0.521737	-0.347107	0.360611	0.446722	0.400669	-0.358197	-0.461982	0.47029	-0.450525	-0.38934	-0.46022	-0.494488	0.414401	0.446061	-0.395825	0.487575	0.461715	-0.368801	0.421909	-0.488723	0.498137	0.398085	-0.469071	0.444797	-0.396595	0.525519	0.378941	-0.468433	0.43554
0.51754	0.50692	-0.4728	-0.469934	-0.502775	0.531191	0.434694	0.421305	-0.423961	-0.421842	0.520437	-0.432039	-0.484035	-0.512418	-0.417366	0.513199	0.545983	-0.518792	0.490716	0.42172	-0.424612	0.474024	-0.425578	0.538897	0.524618	-0.517072	0.48361	-0.494753	0.434204	0.48212	-0.418089	0.435125
0.472467	0.551029	-0.494202	-0.490118	-0.446324	0.48418	0.523991	0.515206	-0.521241	-0.442517	0.438784	-0.487734	-0.540753	-0.372896	-0.435473	0.433731	0.444917	-0.459418	0.437996	0.39458	-0.353363	0.440072	-0.498929	0.476725	0.490889	-0.504531	0.46711	-0.490922	0.511445	0.511255	-0.453737	0.431276
0.485463	0.390539	-0.458079	-0.492138	-0.542213	0.431643	0.444157	0.390599	-0.544749	-0.553313	0.466719	-0.442962	-0.423819	-0.468497	-0.438434	0.378732	0.310589	-0.42526	0.43069	0.449442	-0.522137	0.467954	-0.524259	0.48571	0.503399	-0.493174	0.571457	-0.478634	0.473486	0.426058	-0.481894	0.441772
0.501275	0.413108	-0.413196	-0.492449	-0.472204	0.513207	0.43264	0.457309	-0.42767	-0.40602	0.513759	-0.465197	-0.407623	-0.474992	-0.500975	0.534306	0.407003	-0.434979	0.451628	0.475473	-0.380889	0.524124	-0.463915	0.514495	0.488599	-0.381873	0.389797	-0.44776	0.51901	0.452747	-0.483436	0.464162
0.484774	0.45568	-0.543507	-0.463378	-0.531016	0.438965	0.458863	0.517631	-0.402483	-0.464109	0.50522	-0.464007	-0.407637	-0.507691	-0.492421	0.46724	0.395001	-0.519392	0.414705	0.510174	-0.405211	0.457096	-0.426428	0.477587	0.467855	-0.403358	0.49055	-0.441312	0.554461	0.428152	-0.335305	0.488735
0.472853	0.564856	-0.463025	-0.479897	-0.411238	0.541261	0.49519	0.468004	-0.444125	-0.479809	0.445301	-0.451533	-0.418829	-0.464557	-0.530321	0.481843	0.478149	-0.44645	0.536754	0.464141	-0.389753	0.550614	-0.424312	0.454234	0.400647	-0.561277	0.449734	-0.472629	0.451999	0.516372	-0.468119	0.429637
0.505392	0.501592	-0.428546	-0.503764	-0.488058	0.465434	0.514848	0.416138	-0.520501	-0.521591	0.491438	-0.452101	-0.412461	-0.517818	-0.450067	0.38382	0.451227	-0.503619	0.467123	0.399879	-0.411758	0.49181	-0.475651	0.541338	0.518818	-0.439282	0.449381	-0.436318	0.491792	0.457632	-0.483723	0.472834
0.501563	0.585365	-0.543981	-0.475755	-0.448252	0.434333	0.426833	0.548167	-0.469962	-0.45137	0.445908	-0.373044	-0.52081	-0.545989	-0.498854	0.531763	0.459163	-0.565349	0.557824	0.482138	-0.394218	0.487735	-0.440557	0.47855	0.333912	-0.358362	0.429628	-0.44674	0.443908	0.450773	-0.534248	0.463176
0.49628	0.480937	-0.470916	-0.449501	-0.410808	0.440147	0.442606	0.461165	-0.4408	-0.420355	0.404598	-0.484484	-0.458723	-0.477675	-0.530892	0.461429	0.510824	-0.510432	0.490282	0.523769	-0.453121	0.466052	-0.433906	0.508651	0.444871	-0.530606	0.482184	-0.450879	0.437962	0.4833	-0.517989	0.467392
0.532272	0.542222	-0.454899	-0.520145	-0.509739	0.497558	0.418562	0.444435	-0.38712	-0.545322	0.532083	-0.538298	-0.510626	-0.521378	-0.441246	0.585035	0.496433	-0.558275	0.464926	0.531774	-0.577514	0.472958	-0.568739	0.467838	0.433088	-0.467584	0.411662	-0.406865	0.317935	0.481592	-0.524883	0.5085
0.484547	0.468058	-0.403362	-0.517005	-0.374773	0.423561	0.369365	0.394461	-0.557779	-0.492791	0.475566	-0.458527	-0.503116	-0.445598	-0.499764	0.506804	0.367369	-0.372284	0.370007	0.365419	-0.555555	0.521959	-0.470608	0.44213	0.47016	-0.465363	0.430463	-0.409236	0.375221	0.447695	-0.427846	0.439764
0.43103	0.53774	-0.406706	-0.453343	-0.490978	0.48482	0.446626	0.491019	-0.53764	-0.415006	0.388187	-0.535981	-0.558745	-0.501232	-0.443579	0.394047	0.372365	-0.464554	0.45913	0.50106	-0.46729	0.379666	-0.424701	0.500624	0.413246	-0.532851	0.448381	-0.493678	0.536673	0.5541	-0.448619	0.489734
0.496743	0.473768	-0.437735	-0.510006	-0.50878	0.469099	0.4666	0.491939	-0.3907	-0.490703	0.472103	-0.449187	-0.454564	-0.43072	-0.514259	0.362968	0.426085	-0.486006	0.430726	0.44527	-0.503924	0.515165	-0.456169	0.472845	0.448601	-0.415454	0.518419	-0.478279	0.465494	0.518502	-0.502361	0.445757
0.468528	0.533905	-0.503857	-0.403946	-0.414189	0.43678	0.501932	0.371794	-0.519219	-0.426617	0.466626	-0.534371	-0.34987	-0.38631	-0.441607	0.389389	0.433505	-0.382291	0.434367	0.487297	-0.417293	0.408354	-0.452744	0.40319	0.410343	-0.480511	0.517284	-0.449227	0.329474	0.383044	-0.43858	0.359863
0.466288	0.60356	-0.47666	-0.369238	-0.505936	0.474852	0.446677	0.548275	-0.516434	-0.453907	0.512578	-0.438091	-0.498366	-0.480169	-0.54774	0.404647	0.411855	-0.432544	0.423958	0.484103	-0.474938	0.384325	-0.416485	0.549957	0.468452	-0.559477	0.425968	-0.425742	0.445858	0.524058	-0.431489	0.368908
0.502491	0.417275	-0.436609	-0.465153	-0.442454	0.454632	0.506023	0.498934	-0.453981	-0.449347	0.441457	-0.477686	-0.540742	-0.452871	-0.443488	0.517027	0.516747	-0.408013	0.433206	0.431578	-0.448139	0.480324	-0.469618	0.494311	0.466245	-0.43493	0.463988	-0.516673	0.445101	0.504672	-0.433336	0.517485
0.25985	0.249623	-0.610575	-0.559309	-0.428827	0.497603	0.512358	0.380325	-0.534959	-0.315264	0.597116	-0.512088	-0.522634	-0.534064	-0.508641	0.422215	0.406947	-0.414612	0.462902	0.580123	-0.389829	0.531253	-0.473449	0.559367	0.480693	-0.534316	0.389722	-0.473086	0.330035	0.560599	-0.346714	0.438888
0.484282	0.505599	-0.551692	-0.419549	-0.478274	0.54053	0.464587	0.463723	-0.489306	-0.50762	0.517488	-0.406061	-0.506532	-0.426567	-0.482607	0.573985	0.554581	-0.508818	0.471294	0.530997	-0.541114	0.488918	-0.501049	0.523416	0.544321	-0.41884	0.493891	-0.423328	0.466903	0.482981	-0.367466	0.517399
0.497759	0.473913	-0.373748	-0.40442	-0.519978	0.404581	0.454717	0.451053	-0.44711	-0.422652	0.416669	-0.47189	-0.539353	-0.593335	-0.538479	0.444956	0.519596	-0.52578	0.462604	0.544188	-0.576171	0.471385	-0.457591	0.524803	0.501224	-0.505883	0.457987	-0.453614	0.464518	0.523098	-0.478021	0.541471
0.423836	0.497257	-0.520672	-0.465385	-0.453704	0.50196	0.437568	0.459619	-0.446537	-0.559255	0.538636	-0.439807	-0.423054	-0.473745	-0.452048	0.546031	0.459694	-0.499318	0.486822	0.433984	-0.537953	0.450603	-0.487618	0.49397	0.508571	-0.456826	0.494283	-0.436495	0.496456	0.45203	-0.550963	0.479241
0.538343	0.183559	-0.380911	-0.450304	-0.515232	0.493524	0.48749	0.544941	-0.553716	-0.531977	0.592491	-0.368676	-0.483473	-0.452543	-0.364474	0.373958	0.572817	-0.393329	0.429693	0.478192	-0.121208	0.426337	-0.469169	0.477772	0.516401	-0.462767	0.486186	-0.484905	0.40545	0.534349	-0.382447	0.402088
0.466547	0.328756	-0.451871	-0.417253	-0.54411	0.396342	0.513192	0.524905	-0.450992	-0.429618	0.469714	-0.362964	-0.474253	-0.453056	-0.46563	0.510161	0.408962	-0.482857	0.436128	0.433421	-0.399936	0.390837	-0.45473	0.466151	0.48127	-0.390124	0.458571	-0.497123	0.376448	0.413153	-0.511959	0.450492
0.446486	0.537121	-0.476034	-0.412616	-0.507609	0.386892	0.358495	0.479772	-0.341831	-0.508795	0.493674	-0.436463	-0.433857	-0.314288	-0.465696	0.499412	0.583288	-0.393334	0.490822	0.46938	-0.493476	0.523205	-0.427191	0.429699	0.478552	-0.4	0.476622	-0.398731	0.312142	0.470914	-0.391311	0.440982
0.516647	0.410539	-0.507098	-0.417689	-0.524007	0.449418	0.53965	0.421995	-0.439664	-0.45395	0.410653	-0.497372	-0.492594	-0.504003	-0.47457	0.481547	0.421894	-0.499326	0.464282	0.507436	-0.503229	0.43256	-0.497116	0.495021	0.46525	-0.509911	0.441669	-0.446546	0.421649	0.457058	-0.448402	0.480545
0.481726	0.447931	-0.452594	-0.380059	-0.470844	0.52161	0.437247	0.42154	-0.494698	-0.491377	0.491384	-0.47839	-0.537954	-0.382477	-0.442618	0.458198	0.393109	-0.494709	0.512824	0.521883	-0.601055	0.465538	-0.49713	0.492637	0.539138	-0.574268	0.529774	-0.456328	0.301887	0.536247	-0.416895	0.483911
0.442168	0.536986	-0.512784	-0.435823	-0.422348	0.472253	0.441325	0.485617	-0.462791	-0.427803	0.526634	-0.446183	-0.542172	-0.431067	-0.473634	0.562959	0.540738	-0.452175	0.474709	0.506638	-0.506846	0.389681	-0.521138	0.49738	0.483446	-0.408409	0.447277	-0.552999	0.503883	0.450055	-0.38251	0.436807
0.413599	0.386115	-0.51611	-0.441924	-0.443069	0.428197	0.551251	0.457455	-0.452585	-0.410096	0.516039	-0.50028	-0.501443	-0.393888	-0.483209	0.428532	0.447881	-0.533163	0.521423	0.466395	-0.37481	0.444529	-0.486344	0.485353	0.471874	-0.51307	0.504822	-0.457485	0.530398	0.478601	-0.526148	0.513483
0.491709	0.402062	-0.380843	-0.420667	-0.381978	0.395759	0.422156	0.520569	-0.429783	-0.484578	0.39977	-0.415189	-0.363121	-0.269972	-0.391471	0.442115	0.464092	-0.445976	0.509689	0.41738	-0.408865	0.437717	-0.376563	0.429555	0.347215	-0.436923	0.476914	-0.414415	0.331028	0.303145	-0.428387	0.377207
0.403343	0.509814	-0.485014	-0.44592	-0.470779	0.564388	0.40508	0.503469	-0.365067	-0.56192	0.517864	-0.436105	-0.338496	-0.503175	-0.494719	0.398144	0.440314	-0.531524	0.453931	0.501751	-0.529835	0.597803	-0.454213	0.537522	0.434958	-0.381815	0.461007	-0.515345	0.500298	0.468246	-0.454077	0.412473
0.493714	0.532442	-0.539363	-0.48831	-0.495612	0.509735	0.478598	0.472369	-0.474798	-0.500814	0.414234	-0.517956	-0.335381	-0.455914	-0.467405	0.504191	0.501961	-0.442009	0.477024	0.48034	-0.495932	0.47947	-0.497424	0.478322	0.485219	-0.441529	0.507399	-0.509964	0.536509	0.447801	-0.435969	0.512365
0.41922	0.383907	-0.508425	-0.484638	-0.368783	0.54385	0.510233	0.437365	-0.470564	-0.39907	0.536364	-0.537467	-0.525488	-0.468293	-0.514177	0.492757	0.315269	-0.388857	0.464578	0.547546	-0.40346	0.536445	-0.484045	0.534501	0.483436	-0.481571	0.443121	-0.432616	0.406719	0.514785	-0.41825	0.525991
0.467809	0.493315	-0.433265	-0.531825	-0.434753	0.474545	0.512874	0.44127	-0.527581	-0.466109	0.447815	-0.439701	-0.472179	-0.441108	-0.499024	0.502022	0.476011	-0.4412	0.529532	0.544354	-0.475552	0.49639	-0.482998	0.431233	0.536176	-0.45105	0.475374	-0.485899	0.481893	0.454772	-0.46426	0.486213
0.424354	0.482022	-0.532678	-0.514661	-0.526156	0.44861	0.534546	0.492981	-0.342885	-0.489017	0.506869	-0.551475	-0.516403	-0.507131	-0.529315	0.524839	0.438356	-0.462813	0.51579	0.48062	-0.44838	0.497644	-0.478031	0.532184	0.524851	-0.483327	0.41243	-0.453776	0.509691	0.513093	-0.460058	0.495547
0.504884	0.443219	-0.501033	-0.444551	-0.437272	0.471335	0.406027	0.408955	-0.445725	-0.431968	0.514656	-0.438558	-0.507355	-0.463666	-0.429364	0.457031	0.532453	-0.433844	0.446875	0.508649	-0.452513	0.424317	-0.453301	0.442489	0.367715	-0.488692	0.428923	-0.499112	0.473453	0.446027	-0.452987	0.442403
0.38128	0.569254	-0.500531	-0.460477	-0.449501	0.379549	0.496484	0.384221	-0.3368	-0.474416	0.391896	-0.396448	-0.3375	-0.406202	-0.398146	0.429819	0.429448	-0.394287	0.44635	0.425575	-0.417206	0.515072	-0.423153	0.399063	0.470915	-0.525559	0.521955	-0.452535	0.348855	0.377462	-0.395822	0.491138
0.489022	0.471877	-0.533289	-0.45079	-0.417343	0.514358	0.51678	0.502585	-0.456024	-0.435873	0.456783	-0.407656	-0.496926	-0.498184	-0.461845	0.516206	0.511398	-0.464663	0.508275	0.400162	-0.406039	0.521463	-0.478677	0.462937	0.445563	-0.440501	0.469729	-0.495402	0.341786	0.509294	-0.446823	0.487538
0.443387	0.444705	-0.414275	-0.488648	-0.427382	0.453657	0.441939	0.497581	-0.501977	-0.42819	0.428182	-0.428732	-0.464459	-0.490223	-0.539283	0.440725	0.433687	-0.447679	0.438569	0.467993	-0.499033	0.396505	-0.519175	0.477122	0.490054	-0.542072	0.392768	-0.394653	0.483882	0.459939	-0.499888	0.503265
0.449894	0.567351	-0.501431	-0.433163	-0.454083	0.409952	0.41926	0.475146	-0.472546	-0.474341	0.465008	-0.507416	-0.493804	-0.452839	-0.510806	0.519582	0.435825	-0.463293	0.421878	0.443479	-0.471562	0.454369	-0.430344	0.479094	0.536737	-0.52031	0.56418	-0.37397	0.477776	0.477231	-0.567718	0.40331
0.460736	0.501851	-0.50863	-0.521815	-0.480739	0.50162	0.535044	0.447693	-0.414503	-0.537587	0.439816	-0.529306	-0.42283	-0.43619	-0.422837	0.411163	0.447075	-0.430726	0.448857	0.464258	-0.420843	0.411316	-0.473603	0.431745	0.507018	-0.426739	0.517708	-0.447813	0.422525	0.518573	-0.466715	0.453239
0.452296	0.459504	-0.593709	-0.441195	-0.330486	0.399757	0.435473	0.36232	-0.454707	-0.499774	0.505742	-0.46114	-0.392056	-0.266966	-0.340351	0.483712	0.384436	-0.46034	0.46702	0.505571	-0.577428	0.498134	-0.499855	0.46366	0.52368	-0.366172	0.370781	-0.467988	0.296109	0.333239	-0.422223	0.448751
0.456569	0.440681	-0.423989	-0.438511	-0.539925	0.464282	0.537026	0.477132	-0.483293	-0.519989	0.483211	-0.457641	-0.511938	-0.491355	-0.527004	0.385706	0.436667	-0.517238	0.488546	0.54363	-0.489299	0.471377	-0.523489	0.446321	0.436224	-0.487463	0.505371	-0.500706	0.458276	0.483786	-0.456467	0.48817
0.45468	0.422511	-0.415157	-0.46589	-0.398924	0.512566	0.455682	0.364111	-0.398965	-0.502639	0.438336	-0.397421	-0.437624	-0.489334	-0.400148	0.406089	0.49162	-0.409829	0.39585	0.493495	-0.411386	0.46879	-0.515366	0.463604	0.504717	-0.532904	0.525421	-0.512992	0.472221	0.430528	-0.497645	0.416594
0.466818	0.488375	-0.507277	-0.489994	-0.423112	0.480149	0.489195	0.496482	-0.484639	-0.476121	0.441486	-0.423634	-0.538311	-0.454703	-0.452491	0.492255	0.448088	-0.430496	0.533405	0.461773	-0.412156	0.508473	-0.466571	0.418022	0.448576	-0.51395	0.505356	-0.507049	0.318821	0.434747	-0.537587	0.472154
0.406537	0.501076	-0.42205	-0.435426	-0.480224	0.408985	0.490252	0.490047	-0.454968	-0.480009	0.428443	-0.549142	-0.485965	-0.518674	-0.501157	0.406968	0.422362	-0.445478	0.491981	0.428736	-0.550674	0.484321	-0.506736	0.507207	0.405988	-0.490024	0.421604	-0.443707	0.453289	0.500139	-0.520578	0.42995
0.467502	0.411946	-0.404022	-0.550313	-0.493087	0.521154	0.488654	0.435496	-0.447484	-0.422949	0.49478	-0.535482	-0.478736	-0.45222	-0.457045	0.50626	0.415369	-0.548216	0.45765	0.451747	-0.514187	0.405394	-0.5231	0.510255	0.541555	-0.4133	0.474764	-0.486768	0.383442	0.407524	-0.525276	0.422641
0.505055	0.30313	-0.500215	-0.496581	-0.538365	0.558832	0.435724	0.466238	-0.453358	-0.434421	0.545572	-0.538861	-0.500969	-0.443361	-0.524598	0.467433	0.524835	-0.440623	0.493163	0.537337	-0.549243	0.472355	-0.427671	0.494223	0.420257	-0.542323	0.425143	-0.421117	0.48182	0.453464	-0.485182	0.424995
0.43846	0.353828	-0.501517	-0.416589	-0.397989	0.489998	0.475854	0.489093	-0.393342	-0.412158	0.414473	-0.482831	-0.506719	-0.407855	-0.448177	0.385638	0.509344	-0.46739	0.460644	0.477244	-0.433733	0.46286	-0.499511	0.445254	0.430633	-0.464603	0.437671	-0.489025	0.506883	0.422919	-0.433131	0.486928
0.452649	0.36271	-0.431396	-0.471255	-0.445411	0.342814	0.324803	0.423742	-0.332993	-0.400541	0.379726	-0.511431	-0.446616	-0.408387	-0.386359	0.483579	0.301226	-0.327225	0.436055	0.363853	-0.399516	0.329126	-0.386957	0.403443	0.32223	-0.388857	0.488146	-0.428321	0.440405	0.372534	-0.476119	0.429971
0.483339	0.356474	-0.544933	-0.508952	-0.523574	0.485572	0.459453	0.458974	-0.43676	-0.543692	0.51319	-0.527453	-0.36106	-0.387266	-0.544279	0.353079	0.526834	-0.469925	0.550444	0.530942	-0.397036	0.502231	-0.436265	0.426034	0.463118	-0.525064	0.469223	-0.461095	0.484919	0.525731	-0.392527	0.438556
0.43875	0.322576	-0.39081	-0.504814	-0.436641	0.465998	0.454338	0.512487	-0.53471	-0.526881	0.491724	-0.414535	-0.481909	-0.45351	-0.493157	0.478736	0.445723	-0.462038	0.486292	0.493033	-0.407617	0.503422	-0.417956	0.481404	0.423762	-0.456065	0.525066	-0.492323	0.477575	0.435794	-0.365855	0.408214
0.394749	0.436014	-0.390466	-0.404152	-0.479135	0.538254	0.501	0.409287	-0.391782	-0.571588	0.479848	-0.417953	-0.230619	-0.451542	-0.436404	0.378951	0.381815	-0.357878	0.513918	0.512594	-0.414292	0.438304	-0.5482	0.533289	0.489392	-0.442964	0.462034	-0.34151	0.584027	0.325715	-0.340261	0.523037
0.519443	0.521655	-0.39821	-0.510378	-0.411705	0.441937	0.407718	0.525243	-0.461548	-0.427086	0.494196	-0.405925	-0.443261	-0.445709	-0.442198	0.453268	0.385109	-0.464527	0.531941	0.406747	-0.487101	0.545238	-0.515564	0.503095	0.487405	-0.48864	0.460259	-0.483772	0.420493	0.537838	-0.481489	0.461612
0.313906	0.228297	-0.347863	-0.364725	-0.355457	0.383124	0.473621	0.451005	-0.403493	-0.378701	0.364303	-0.422385	-0.273108	-0.168956	-0.422246	0.332972	0.45052	-0.338927	0.432287	0.368524	-0.311449	0.403672	-0.475163	0.368201	0.317373	-0.318216	0.486731	-0.376452	0.522188	0.132866	-0.304647	0.534922
0.48226	0.324075	-0.413525	-0.464005	-0.392399	0.463903	0.346596	0.422119	-0.373117	-0.455491	0.467645	-0.510582	-0.377922	-0.52252	-0.379739	0.544388	0.441755	-0.372113	0.509217	0.3903	-0.465813	0.380805	-0.401776	0.494195	0.442304	-0.481444	0.403545	-0.536123	0.350844	0.503728	-0.342268	0.485284
0.527507	0.456008	-0.448069	-0.406811	-0.235579	0.4461	0.340034	0.390804	-0.45768	-0.45397	0.458783	-0.394865	-0.354421	-0.422829	-0.389831	0.420437	0.45704	-0.43251	0.348762	0.438794	-0.41911	0.370907	-0.364598	0.398167	0.319107	-0.539192	0.424471	-0.360977	0.333923	0.387048	-0.32844	0.445689
0.433235	0.421165	-0.459996	-0.419327	-0.372935	0.41003	0.427221	0.359193	-0.34297	-0.394902	0.404392	-0.284354	-0.285512	-0.109614	-0.263361	0.451164	0.367272	-0.361847	0.421254	0.378457	-0.416187	0.401971	-0.304635	0.342221	0.284325	-0.311522	0.327441	-0.329367	0.487214	0.334389	-0.31088	0.370917
0.338932	0.271481	-0.393197	-0.481322	-0.505697	0.362735	0.34113	0.456247	-0.395795	-0.430716	0.482103	-0.49465	-0.356499	-0.334458	-0.390501	0.357695	0.417547	-0.39521	0.360401	0.464035	-0.380318	0.397692	-0.504425	0.380655	0.371645	-0.363924	0.472237	-0.368326	0.413073	0.485727	-0.389885	0.476886
0.381087	0.403383	-0.404674	-0.447251	-0.504809	0.377813	0.516422	0.439761	-0.433967	-0.446039	0.42116	-0.488606	-0.464612	-0.462641	-0.427421	0.397049	0.467999	-0.516675	0.494378	0.465212	-0.431318	0.429333	-0.473864	0.479305	0.427967	-0.496436	0.418609	-0.417768	0.397709	0.47943	-0.416407	0.431488
0.470963	0.503179	-0.43359	-0.537746	-0.484078	0.43705	0.505154	0.494451	-0.5845	-0.476832	0.490553	-0.523222	-0.438255	-0.55341	-0.454143	0.413117	0.416805	-0.464169	0.490057	0.452018	-0.404522	0.357499	-0.513621	0.466511	0.465485	-0.486324	0.473446	-0.4463	0.4281	0.453301	-0.51166	0.506536
0.503736	0.51225	-0.552715	-0.538871	-0.460694	0.44028	0.537674	0.450004	-0.465149	-0.433224	0.474506	-0.537804	-0.464171	-0.434031	-0.542048	0.502358	0.472083	-0.482611	0.467579	0.483389	-0.540571	0.478216	-0.476864	0.53194	0.480412	-0.491548	0.425506	-0.426837	0.549165	0.488642	-0.427231	0.464016
0.4185	0.401387	-0.493106	-0.477929	-0.491389	0.532546	0.31849	0.435741	-0.486542	-0.506491	0.456231	-0.491214	-0.36102	-0.360034	-0.39153	0.368615	0.415572	-0.379248	0.410848	0.39157	-0.519609	0.373935	-0.438139	0.462455	0.409042	-0.440737	0.334904	-0.434379	0.433515	0.350597	-0.348144	0.381713
0.453984	0.46973	-0.257481	-0.457986	-0.401234	0.474702	0.528364	0.437063	-0.433073	-0.495207	0.457993	-0.518529	-0.473372	-0.440098	-0.501028	0.415462	0.455144	-0.437508	0.48547	0.488419	-0.349191	0.428147	-0.475374	0.403886	0.394314	-0.485221	0.435172	-0.427538	0.479269	0.489565	-0.394702	0.456324
0.47017	0.578999	-0.470354	-0.531348	-0.408952	0.494346	0.486471	0.428096	-0.444468	-0.402026	0.40858	-0.397653	-0.470127	-0.566951	-0.430873	0.512284	0.522159	-0.446756	0.503359	0.410445	-0.491806	0.479978	-0.430786	0.496536	0.515551	-0.428083	0.468077	-0.40527	0.40481	0.374417	-0.447409	0.514941
0.518	0.547635	-0.442041	-0.425503	-0.461693	0.424435	0.478144	0.416818	-0.398811	-0.524725	0.44523	-0.408145	-0.524336	-0.504625	-0.454075	0.462788	0.473001	-0.447764	0.514114	0.39352	-0.494155	0.465649	-0.48858	0.494855	0.51652	-0.465788	0.453377	-0.531236	0.418975	0.47569	-0.501292	0.439828
0.523052	0.475124	-0.448118	-0.446382	-0.474895	0.421307	0.514707	0.446253	-0.457806	-0.513007	0.490344	-0.542188	-0.396275	-0.413397	-0.465872	0.424456	0.494241	-0.496229	0.533215	0.507057	-0.358373	0.490207	-0.454229	0.404127	0.532462	-0.446388	0.539739	-0.5101	0.503737	0.518389	-0.390779	0.452425
0.442739	0.547826	-0.495159	-0.430719	-0.49844	0.477942	0.487502	0.455029	-0.410945	-0.419713	0.453527	-0.478794	-0.56732	-0.45375	-0.458408	0.47695	0.397546	-0.499626	0.515486	0.457655	-0.432056	0.488891	-0.452643	0.520852	0.466257	-0.448485	0.424102	-0.434244	0.474765	0.48903	-0.551299	0.434501
0.381697	0.567671	-0.451568	-0.444723	-0.47033	0.498527	0.420514	0.551067	-0.460618	-0.391199	0.468284	-0.447568	-0.402819	-0.339907	-0.45232	0.338456	0.425717	-0.476792	0.403466	0.460404	-0.507817	0.464295	-0.423225	0.458879	0.491851	-0.46164	0.462511	-0.4039	0.472294	0.458943	-0.481275	0.508593
0.475213	0.363409	-0.43328	-0.43237	-0.404499	0.517173	0.395016	0.494059	-0.447085	-0.46304	0.45488	-0.500554	-0.490666	-0.524577	-0.410843	0.42142	0.414068	-0.493868	0.478127	0.478914	-0.53545	0.484053	-0.457023	0.515751	0.524696	-0.475541	0.44116	-0.450688	0.371	0.469457	-0.510084	0.50337
0.407517	0.459009	-0.338957	-0.490986	-0.397945	0.389205	0.487446	0.445784	-0.457503	-0.386859	0.475903	-0.4895	-0.464628	-0.461801	-0.408158	0.499425	0.456706	-0.444189	0.475308	0.491285	-0.535343	0.384212	-0.495634	0.493128	0.483629	-0.44617	0.346398	-0.422379	0.43006	0.531284	-0.471914	0.471446
0.508105	0.39265	-0.53551	-0.492217	-0.476102	0.464068	0.449735	0.383958	-0.473337	-0.460855	0.526081	-0.530928	-0.374998	-0.441686	-0.454844	0.426937	0.48414	-0.435947	0.422247	0.44744	-0.433132	0.446416	-0.515226	0.482227	0.432676	-0.450823	0.515312	-0.463146	0.360998	0.437471	-0.451584	0.477214
0.417262	0.559203	-0.41227	-0.401666	-0.483581	0.418584	0.48871	0.448098	-0.46464	-0.554146	0.487132	-0.445558	-0.3944	-0.315119	-0.492272	0.482312	0.532885	-0.412919	0.528313	0.426506	-0.49162	0.499206	-0.490915	0.43778	0.393971	-0.482305	0.451817	-0.475549	0.334885	0.449775	-0.488336	0.462718
0.45125	0.499263	-0.430122	-0.518484	-0.359782	0.412066	0.436188	0.462272	-0.430491	-0.351048	0.41091	-0.515262	-0.430811	-0.525188	-0.471953	0.508727	0.502726	-0.527274	0.520483	0.428686	-0.423745	0.494438	-0.508491	0.464659	0.415251	-0.436008	0.507889	-0.49475	0.499059	0.491519	-0.488596	0.399689
0.540241	0.45947	-0.533658	-0.469532	-0.498119	0.525533	0.529349	0.440254	-0.46433	-0.495227	0.503844	-0.491844	-0.437619	-0.394256	-0.521128	0.521464	0.429088	-0.463692	0.513023	0.505425	-0.445538	0.519013	-0.499086	0.453674	0.506045	-0.434072	0.431947	-0.514304	0.54969	0.484298	-0.439679	0.424681
0.481184	0.489699	-0.477788	-0.49311	-0.453678	0.450929	0.487955	0.470794	-0.485964	-0.434375	0.476922	-0.390993	-0.497431	-0.489239	-0.506358	0.43647	0.343252	-0.404203	0.476121	0.464249	-0.54231	0.498836	-0.504792	0.427371	0.466597	-0.457126	0.520949	-0.50848	0.540053	0.421289	-0.452774	0.452447
0.455493	0.543553	-0.49842	-0.541931	-0.356119	0.449261	0.475601	0.469363	-0.528577	-0.525941	0.496381	-0.479554	-0.47483	-0.404041	-0.541364	0.440022	0.513017	-0.477675	0.474311	0.489801	-0.497001	0.453416	-0.439705	0.501768	0.448308	-0.474643	0.52875	-0.422749	0.331208	0.488746	-0.431046	0.44546
0.468331	0.388404	-0.404125	-0.502847	-0.40287	0.421331	0.459681	0.404833	-0.433631	-0.438495	0.498445	-0.547654	-0.362706	-0.524635	-0.490444	0.520122	0.464508	-0.43834	0.466369	0.424347	-0.485881	0.42889	-0.452371	0.479439	0.44482	-0.429794	0.406525	-0.488315	0.491451	0.476873	-0.460345	0.364529
0.475521	0.434553	-0.492109	-0.423326	-0.355976	0.510062	0.481529	0.502935	-0.491914	-0.446547	0.407099	-0.558843	-0.51853	-0.450848	-0.525728	0.430638	0.391972	-0.432095	0.405239	0.530671	-0.326544	0.483025	-0.523964	0.499766	0.49259	-0.43856	0.530876	-0.44728	0.492787	0.533938	-0.442238	0.463363
0.428368	0.552146	-0.428582	-0.433424	-0.439263	0.508579	0.434335	0.476117	-0.410897	-0.438224	0.467147	-0.511393	-0.475966	-0.476165	-0.475648	0.431015	0.532498	-0.413764	0.475523	0.422619	-0.526112	0.459234	-0.474979	0.526778	0.419062	-0.475822	0.407798	-0.426493	0.361334	0.410353	-0.53727	0.4667
0.500956	0.516397	-0.388479	-0.450151	-0.537987	0.432699	0.505543	0.499206	-0.509059	-0.405057	0.443026	-0.471347	-0.451759	-0.462156	-0.474186	0.498542	0.459679	-0.430885	0.541717	0.433367	-0.377782	0.529443	-0.42731	0.477887	0.463671	-0.47098	0.422645	-0.49885	0.417989	0.527067	-0.501723	0.414285
0.480481	0.421448	-0.532031	-0.522915	-0.469258	0.51941	0.505103	0.465884	-0.435095	-0.476822	0.393477	-0.427612	-0.444574	-0.392226	-0.482149	0.423689	0.504925	-0.486203	0.480031	0.516849	-0.448166	0.53392	-0.463783	0.48403	0.423141	-0.501312	0.50973	-0.485155	0.425298	0.501001	-0.418519	0.468889
0.47344	0.559471	-0.449449	-0.451629	-0.479435	0.466465	0.42357	0.547779	-0.46317	-0.523355	0.514577	-0.379662	-0.423104	-0.353775	-0.497878	0.499114	0.477511	-0.538416	0.422566	0.541478	-0.414942	0.524882	-0.514576	0.44935	0.483857	-0.414759	0.550837	-0.409078	0.425423	0.41395	-0.514322	0.450601
0.487594	0.470616	-0.422325	-0.499781	-0.481405	0.46318	0.42651	0.393053	-0.480676	-0.449672	0.460972	-0.430599	-0.495259	-0.480476	-0.453751	0.44715	0.421121	-0.531333	0.431381	0.457309	-0.396836	0.435172	-0.511153	0.419947	0.529513	-0.490053	0.468777	-0.399295	0.42863	0.488991	-0.525163	0.45767
0.450744	0.384189	-0.509326	-0.435911	-0.479267	0.442532	0.510985	0.501433	-0.468262	-0.468129	0.47791	-0.495175	-0.460489	-0.395011	-0.44106	0.410548	0.507019	-0.457524	0.406919	0.421093	-0.558367	0.396164	-0.459713	0.389923	0.501046	-0.410846	0.392252	-0.382688	0.470929	0.440138	-0.522621	0.47297
0.526636	0.463366	-0.428444	-0.445602	-0.46623	0.520956	0.418674	0.513147	-0.424469	-0.468061	0.509511	-0.426426	-0.476961	-0.542678	-0.441732	0.444206	0.387105	-0.50604	0.533971	0.442559	-0.43254	0.479355	-0.426542	0.45325	0.430109	-0.535416	0.490664	-0.470953	0.484251	0.449578	-0.54459	0.505382
0.459761	0.303129	-0.388138	-0.473745	-0.393645	0.456198	0.325843	0.453752	-0.348653	-0.416728	0.415249	-0.446536	-0.494603	-0.537299	-0.319415	0.47582	0.357658	-0.461388	0.407956	0.441824	-0.440838	0.452354	-0.411238	0.430962	0.335827	-0.439194	0.443374	-0.368691	0.370899	0.434098	-0.407008	0.369428
0.393987	0.436051	-0.490894	-0.39736	-0.413834	0.405726	0.515236	0.449756	-0.414325	-0.49189	0.476667	-0.457711	-0.492464	-0.472634	-0.516804	0.438867	0.438808	-0.475792	0.494177	0.404246	-0.399015	0.378679	-0.47504	0.371246	0.407191	-0.392048	0.360643	-0.397221	0.376886	0.476944	-0.415069	0.477183
0.468953	0.527558	-0.40168	-0.498955	-0.438037	0.536144	0.481781	0.511327	-0.432664	-0.434321	0.486383	-0.478433	-0.554017	-0.387138	-0.430891	0.54225	0.446563	-0.521208	0.485812	0.500361	-0.375983	0.457833	-0.471772	0.419175	0.450176	-0.475981	0.470832	-0.537497	0.453636	0.48167	-0.432136	0.422611
0.532357	0.495923	-0.405515	-0.507851	-0.512442	0.479196	0.509288	0.441299	-0.510069	-0.517569	0.540321	-0.462856	-0.444131	-0.432649	-0.50961	0.488457	0.486531	-0.452513	0.491145	0.509016	-0.405322	0.411035	-0.52825	0.448911	0.516559	-0.525031	0.515875	-0.49532	0.404553	0.460206	-0.475179	0.449766
0.477116	0.376763	-0.400253	-0.46019	-0.461583	0.340337	0.28851	0.437002	-0.500838	-0.464147	0.477142	-0.455273	-0.401019	-0.370729	-0.434815	0.389831	0.345507	-0.374653	0.473016	0.459811	-0.413156	0.355241	-0.367006	0.452187	0.361936	-0.40649	0.383478	-0.452258	0.29062	0.324052	-0.385177	0.431878
0.471273	0.415639	-0.359308	-0.389787	-0.449411	0.51898	0.485572	0.512308	-0.44115	-0.534067	0.504869	-0.553111	-0.521215	-0.516211	-0.436878	0.482075	0.476559	-0.502462	0.481974	0.370195	-0.388428	0.393156	-0.432505	0.439942	0.550467	-0.489926	0.417595	-0.443534	0.442605	0.504116	-0.584525	0.444874
0.474928	0.42737	-0.422951	-0.456932	-0.417374	0.449207	0.459907	0.477086	-0.507609	-0.425301	0.408683	-0.402449	-0.453866	-0.522641	-0.463221	0.446359	0.479747	-0.409635	0.452976	0.389468	-0.39682	0.480166	-0.446034	0.477071	0.403184	-0.480308	0.458861	-0.505843	0.471048	0.407756	-0.477261	0.461174
0.492779	0.459652	-0.466292	-0.411856	-0.439405	0.53451	0.506654	0.466581	-0.445329	-0.43353	0.426634	-0.479308	-0.434987	-0.532266	-0.474348	0.480819	0.464901	-0.514908	0.440901	0.522565	-0.419904	0.469658	-0.433612	0.482828	0.487418	-0.474743	0.457787	-0.474661	0.418164	0.500758	-0.4384	0.46568
0.412797	0.463831	-0.537099	-0.40825	-0.530051	0.498438	0.475037	0.515433	-0.415532	-0.541365	0.429226	-0.445726	-0.530897	-0.482977	-0.507768	0.460401	0.430851	-0.511432	0.455661	0.448599	-0.565838	0.549917	-0.500973	0.455737	0.510894	-0.439894	0.450298	-0.36276	0.533281	0.458092	-0.487536	0.464994
0.482531	0.360484	-0.532693	-0.517532	-0.426119	0.504101	0.426972	0.508549	-0.525916	-0.536198	0.515754	-0.475223	-0.490586	-0.457178	-0.509045	0.477055	0.446238	-0.445482	0.45399	0.531802	-0.527242	0.427178	-0.476102	0.504471	0.413283	-0.440924	0.41779	-0.403061	0.480929	0.415878	-0.455499	0.480268
0.496685	0.468605	-0.43484	-0.427183	-0.437632	0.481143	0.400153	0.475983	-0.483678	-0.509517	0.527745	-0.506777	-0.427739	-0.472241	-0.470816	0.462481	0.509165	-0.446633	0.499322	0.428099	-0.481604	0.449014	-0.469447	0.458488	0.444934	-0.409691	0.4764	-0.5174	0.389192	0.480002	-0.424607	0.465438
0.512276	0.514858	-0.537287	-0.442803	-0.484382	0.454138	0.459837	0.431069	-0.494707	-0.47189	0.438278	-0.537441	-0.505837	-0.466417	-0.50947	0.416662	0.512467	-0.440434	0.462152	0.409342	-0.397574	0.431696	-0.41001	0.521958	0.488399	-0.488022	0.459831	-0.50883	0.455346	0.480084	-0.419296	0.478073
0.505066	0.526659	-0.479651	-0.44686	-0.44285	0.521459	0.485907	0.513004	-0.460097	-0.490239	0.50132	-0.487045	-0.508888	-0.510327	-0.534179	0.496889	0.428198	-0.497607	0.431968	0.495122	-0.341762	0.462566	-0.533128	0.440931	0.541295	-0.423965	0.432532	-0.509688	0.499972	0.489456	-0.495117	0.492519
0.397696	0.428654	-0.539592	-0.439628	-0.47164	0.47925	0.520761	0.459201	-0.432082	-0.534944	0.471677	-0.541333	-0.519412	-0.525662	-0.456043	0.387094	0.440434	-0.466969	0.478387	0.49674	-0.47116	0.396647	-0.531447	0.495448	0.463716	-0.451366	0.467663	-0.45916	0.517877	0.536591	-0.4897	0.461841
0.511089	0.417208	-0.461044	-0.458211	-0.370952	0.464253	0.405967	0.442147	-0.318043	-0.396863	0.512615	-0.497883	-0.391136	-0.428085	-0.41654	0.481773	0.464803	-0.51231	0.401369	0.469251	-0.418683	0.532352	-0.435979	0.462972	0.379765	-0.4843	0.519816	-0.489405	0.352145	0.406557	-0.35624	0.469009
0.519372	0.426513	-0.447961	-0.43918	-0.433631	0.530967	0.491918	0.510987	-0.518982	-0.547893	0.448807	-0.468687	-0.438164	-0.402537	-0.459727	0.479166	0.490786	-0.535666	0.468232	0.541751	-0.430044	0.455009	-0.491743	0.539481	0.477307	-0.494288	0.494448	-0.540485	0.407937	0.463999	-0.459117	0.512874
0.499117	0.35551	-0.407538	-0.378248	-0.380512	0.305876	0.296222	0.403597	-0.390436	-0.467884	0.373837	-0.483348	-0.39581	-0.305965	-0.344308	0.277711	0.351066	-0.34395	0.422645	0.329562	-0.466961	0.420167	-0.395764	0.365769	0.368907	-0.407476	0.285454	-0.324042	0.258929	0.326671	-0.434984	0.378992
0.451736	0.429803	-0.471044	-0.500846	-0.390255	0.416015	0.46958	0.43047	-0.431665	-0.416941	0.463394	-0.506338	-0.535846	-0.506846	-0.517697	0.462995	0.410242	-0.455323	0.535354	0.506141	-0.427804	0.504123	-0.440592	0.44402	0.553083	-0.416839	0.508832	-0.527914	0.415044	0.472842	-0.376217	0.429814
0.5107	0.508667	-0.347928	-0.464933	-0.470832	0.451031	0.412126	0.539336	-0.43067	-0.497772	0.435433	-0.411643	-0.39539	-0.5251	-0.378965	0.470816	0.426854	-0.489515	0.384825	0.397198	-0.510213	0.466119	-0.433513	0.503882	0.405021	-0.505154	0.4672	-0.520329	0.565127	0.473013	-0.458988	0.431628
0.429688	0.49214	-0.433843	-0.500308	-0.502199	0.523881	0.512083	0.519205	-0.431121	-0.536856	0.460848	-0.538634	-0.487838	-0.46775	-0.468256	0.547672	0.442614	-0.534489	0.539579	0.491549	-0.516138	0.493431	-0.525323	0.482287	0.472643	-0.463575	0.530994	-0.408354	0.422714	0.52119	-0.443724	0.533449
0.539206	0.512399	-0.371839	-0.409568	-0.390903	0.422552	0.519478	0.42118	-0.459686	-0.422179	0.420994	-0.402209	-0.505163	-0.469819	-0.536365	0.53247	0.478676	-0.453407	0.425221	0.515406	-0.381374	0.421564	-0.482002	0.539688	0.450143	-0.474547	0.532323	-0.420046	0.489193	0.45925	-0.511437	0.451706
0.426361	0.530098	-0.288039	-0.511936	-0.400443	0.416915	0.35153	0.425462	-0.381688	-0.511979	0.509594	-0.42888	-0.266071	-0.440981	-0.417439	0.440673	0.442262	-0.485073	0.427453	0.47655	-0.404124	0.422767	-0.446779	0.36724	0.392418	-0.397238	0.352517	-0.415464	0.499938	0.397011	-0.350387	0.47333
0.42637	0.450576	-0.431499	-0.495506	-0.387871	0.528915	0.392533	0.407702	-0.453263	-0.46171	0.415795	-0.400271	-0.445197	-0.45041	-0.496927	0.497566	0.460553	-0.473643	0.534614	0.405102	-0.482376	0.49941	-0.404309	0.519604	0.484666	-0.38175	0.494386	-0.511769	0.504574	0.51173	-0.487716	0.454766
0.508593	0.4216	-0.456385	-0.504685	-0.486464	0.527623	0.447498	0.469659	-0.455509	-0.487453	0.466465	-0.531611	-0.528903	-0.429758	-0.466843	0.507454	0.446835	-0.468974	0.534847	0.512506	-0.405237	0.498318	-0.521024	0.410581	0.426528	-0.414905	0.430332	-0.423609	0.399213	0.412489	-0.397833	0.474309
0.450427	0.35363	-0.52493	-0.436006	-0.468601	0.482973	0.30457	0.465948	-0.308552	-0.572638	0.475938	-0.40043	-0.393206	-0.247641	-0.469646	0.322175	0.490292	-0.408652	0.517857	0.468025	-0.38586	0.536771	-0.451342	0.508721	0.527862	-0.360152	0.463991	-0.416682	0.375347	0.473491	-0.421704	0.448704
0.525596	0.534955	-0.494933	-0.433198	-0.4617	0.455933	0.396213	0.521855	-0.438529	-0.494872	0.498159	-0.471729	-0.540524	-0.44971	-0.504297	0.472593	0.408907	-0.488511	0.449145	0.429931	-0.448917	0.517699	-0.486884	0.468206	0.457966	-0.471013	0.435187	-0.503253	0.529843	0.556281	-0.399009	0.441322
0.422711	0.497636	-0.495548	-0.474201	-0.431014	0.516601	0.517858	0.450408	-0.472738	-0.491849	0.4389	-0.427757	-0.502175	-0.492597	-0.509295	0.498783	0.418827	-0.448334	0.497265	0.479307	-0.491449	0.453235	-0.430714	0.515151	0.477403	-0.495557	0.427258	-0.52982	0.401414	0.438014	-0.505427	0.521006
0.402352	0.415053	-0.440336	-0.463581	-0.332745	0.511062	0.432967	0.526239	-0.396223	-0.512313	0.46704	-0.468184	-0.520089	-0.424001	-0.444413	0.501592	0.429549	-0.45623	0.469752	0.485656	-0.473105	0.46982	-0.498512	0.461181	0.419264	-0.485726	0.423488	-0.459121	0.442372	0.513574	-0.364146	0.514242
0.421929	0.546156	-0.481753	-0.516314	-0.489677	0.525174	0.462894	0.489391	-0.381043	-0.50166	0.505797	-0.525586	-0.451415	-0.479305	-0.471426	0.478722	0.547981	-0.488881	0.462907	0.449666	-0.473313	0.519537	-0.42823	0.488928	0.476829	-0.406786	0.45151	-0.50293	0.505885	0.510698	-0.461543	0.496135
0.408548	0.402955	-0.493114	-0.523942	-0.414021	0.445896	0.502972	0.423203	-0.447409	-0.478555	0.463504	-0.479757	-0.500271	-0.56107	-0.468015	0.526013	0.362785	-0.488818	0.459074	0.463029	-0.383651	0.521984	-0.437186	0.457199	0.466063	-0.387552	0.441078	-0.457602	0.387235	0.539441	-0.494941	0.495839
0.435314	0.488491	-0.444119	-0.478694	-0.391203	0.493163	0.483721	0.499836	-0.404822	-0.520102	0.448023	-0.502316	-0.418536	-0.454225	-0.420637	0.525783	0.479989	-0.464547	0.422831	0.50653	-0.488095	0.473463	-0.436349	0.442615	0.50035	-0.48364	0.379833	-0.499114	0.376882	0.435045	-0.488675	0.432834
0.479871	0.44962	-0.39662	-0.456743	-0.519825	0.457359	0.478324	0.420388	-0.544455	-0.451062	0.427813	-0.462675	-0.533297	-0.503352	-0.434242	0.505112	0.403645	-0.50849	0.520328	0.466301	-0.520777	0.422331	-0.516032	0.518629	0.50003	-0.50337	0.519861	-0.457321	0.432155	0.465591	-0.409482	0.490228
0.427753	0.458753	-0.412134	-0.396104	-0.412471	0.475685	0.412775	0.466527	-0.507674	-0.515707	0.466898	-0.382214	-0.444491	-0.525479	-0.353023	0.507738	0.437407	-0.486446	0.460096	0.361453	-0.47645	0.346445	-0.463751	0.495237	0.396916	-0.410358	0.412989	-0.407448	0.441226	0.472444	-0.470828	0.508825
0.531926	0.493984	-0.542385	-0.513451	-0.469619	0.44851	0.48632	0.536596	-0.43554	-0.441435	0.426651	-0.511986	-0.495283	-0.469275	-0.482265	0.435214	0.501287	-0.464444	0.526507	0.434755	-0.473181	0.471753	-0.459739	0.453358	0.478496	-0.464649	0.537147	-0.491188	0.452389	0.500988	-0.453467	0.451715
0.433229	0.488589	-0.410881	-0.462713	-0.405191	0.480561	0.481606	0.516675	-0.441105	-0.527268	0.426547	-0.447347	-0.471987	-0.537935	-0.461495	0.440218	0.509956	-0.528812	0.53852	0.438157	-0.399118	0.42829	-0.493232	0.43679	0.527471	-0.496242	0.460882	-0.505108	0.532366	0.469668	-0.541633	0.457988
0.447591	0.46239	-0.5053	-0.533676	-0.514998	0.47058	0.460838	0.511932	-0.406524	-0.422885	0.461534	-0.408094	-0.437873	-0.520686	-0.470308	0.509539	0.456011	-0.506433	0.454615	0.471211	-0.538051	0.408552	-0.478533	0.529344	0.450404	-0.436068	0.535286	-0.43493	0.411941	0.476878	-0.477045	0.472277
0.502205	0.484932	-0.389826	-0.479273	-0.493721	0.473999	0.512774	0.47968	-0.51962	-0.429043	0.53364	-0.500452	-0.454532	-0.492099	-0.496939	0.539655	0.451553	-0.517172	0.441571	0.514777	-0.372767	0.466727	-0.501929	0.511617	0.441778	-0.512154	0.544357	-0.493399	0.483737	0.491134	-0.416949	0.431435
0.430624	0.385277	-0.438314	-0.439815	-0.41593	0.493163	0.483485	0.420447	-0.430755	-0.470386	0.457882	-0.477636	-0.513996	-0.403998	-0.514444	0.503999	0.5127	-0.44039	0.420029	0.484123	-0.445008	0.490489	-0.506054	0.480637	0.517892	-0.508747	0.433269	-0.398162	0.442829	0.434699	-0.49209	0.424923
0.334131	0.403344	-0.497448	-0.47656	-0.473111	0.532764	0.460906	0.439108	-0.436339	-0.501633	0.412403	-0.488528	-0.483931	-0.450873	-0.476263	0.494643	0.462504	-0.502955	0.423349	0.461903	-0.465027	0.475148	-0.52155	0.540556	0.410939	-0.542579	0.478616	-0.537713	0.381959	0.495375	-0.342846	0.458686
0.420915	0.190237	-0.515046	-0.352433	-0.480392	0.494024	0.532702	0.489153	-0.538554	-0.330274	0.385159	-0.356872	-0.468125	-0.392115	-0.440096	0.424964	0.3282	-0.477013	0.441173	0.381829	-0.377579	0.481035	-0.392861	0.456766	0.472508	-0.441936	0.460999	-0.497067	0.392457	0.449919	-0.458702	0.372174
0.503813	0.487159	-0.419547	-0.426344	-0.395108	0.497322	0.426462	0.476028	-0.309151	-0.408598	0.450037	-0.451655	-0.478171	-0.472803	-0.409763	0.415093	0.411012	-0.374474	0.404395	0.455415	-0.528742	0.419598	-0.492731	0.448445	0.459626	-0.421426	0.486153	-0.513262	0.38334	0.36936	-0.481285	0.494533
0.417735	0.558706	-0.453198	-0.447462	-0.428035	0.509587	0.470973	0.511931	-0.48815	-0.533667	0.427624	-0.520048	-0.333377	-0.477758	-0.468089	0.498696	0.473046	-0.478156	0.46173	0.477695	-0.356041	0.432762	-0.424029	0.390257	0.45305	-0.526873	0.414368	-0.519286	0.513109	0.410928	-0.463452	0.540053
0.415816	0.455982	-0.416806	-0.421139	-0.466613	0.464382	0.382842	0.489987	-0.399454	-0.422091	0.423452	-0.388547	-0.472235	-0.488168	-0.514336	0.449386	0.387845	-0.467288	0.520169	0.5181	-0.454193	0.435473	-0.497566	0.420856	0.403533	-0.48633	0.497555	-0.481609	0.516971	0.482932	-0.447889	0.485846
0.457196	0.512613	-0.492463	-0.472918	-0.450065	0.405415	0.482814	0.461286	-0.476859	-0.457447	0.510015	-0.531998	-0.462815	-0.45949	-0.528373	0.449291	0.45723	-0.495682	0.465209	0.43419	-0.45888	0.414819	-0.528914	0.529533	0.417551	-0.552673	0.461161	-0.458492	0.455909	0.453337	-0.419024	0.516397
0.41361	0.435092	-0.445278	-0.40761	-0.42906	0.418004	0.476078	0.519974	-0.42366	-0.416255	0.41809	-0.440143	-0.471754	-0.47737	-0.428353	0.464195	0.424908	-0.452386	0.41333	0.397398	-0.423071	0.506403	-0.514325	0.461687	0.502512	-0.437648	0.485726	-0.42362	0.396342	0.380788	-0.425097	0.416737
0.391192	0.344155	-0.422545	-0.479566	-0.473135	0.476154	0.492559	0.421589	-0.377093	-0.494491	0.527363	-0.470655	-0.43984	-0.542025	-0.461665	0.460058	0.489646	-0.430528	0.542439	0.463452	-0.524191	0.500923	-0.493464	0.468313	0.529208	-0.518081	0.449849	-0.436239	0.465462	0.463755	-0.487171	0.464174
0.412486	0.30279	-0.231366	-0.394811	-0.369199	0.410792	0.489658	0.478773	-0.452239	-0.51747	0.466939	-0.287066	-0.368315	-0.479622	-0.468071	0.492463	0.518054	-0.488126	0.443507	0.448259	-0.408235	0.360975	-0.437239	0.390677	0.50012	-0.528494	0.423341	-0.515075	0.397597	0.337074	-0.328833	0.44599
0.499597	0.474739	-0.463298	-0.496333	-0.474956	0.530253	0.476583	0.500333	-0.521791	-0.473445	0.473275	-0.468359	-0.425926	-0.488248	-0.488812	0.480392	0.368366	-0.490993	0.514692	0.482089	-0.504879	0.43787	-0.461061	0.468097	0.448052	-0.463139	0.478159	-0.464845	0.484432	0.41947	-0.46431	0.524339
0.538335	0.402569	-0.502039	-0.474041	-0.458042	0.477661	0.503613	0.501129	-0.407007	-0.463523	0.472179	-0.428625	-0.461455	-0.454866	-0.508905	0.439361	0.38502	-0.452527	0.530191	0.479798	-0.485729	0.500629	-0.495575	0.458466	0.50328	-0.449819	0.497219	-0.497702	0.495277	0.488917	-0.467415	0.438958
0.437594	0.250542	-0.397977	-0.462756	-0.324142	0.407987	0.41787	0.419417	-0.334234	-0.487578	0.527919	-0.454178	-0.361186	-0.432925	-0.501897	0.466009	0.533779	-0.434455	0.400492	0.486209	-0.519488	0.405377	-0.487185	0.41744	0.532973	-0.417189	0.379483	-0.411761	0.353449	0.440359	-0.391009	0.410283
0.53789	0.372645	-0.496956	-0.417125	-0.521733	0.533748	0.455004	0.375698	-0.42869	-0.390532	0.511681	-0.520494	-0.447376	-0.48802	-0.42658	0.371176	0.410955	-0.431551	0.480352	0.489371	-0.367061	0.439901	-0.507642	0.404853	0.525384	-0.477615	0.536401	-0.448767	0.505154	0.376733	-0.524059	0.433195
0.470229	0.420697	-0.442637	-0.48059	-0.464454	0.51372	0.473223	0.49309	-0.449142	-0.522621	0.436281	-0.460127	-0.43226	-0.412989	-0.542921	0.517647	0.42474	-0.471029	0.528872	0.445592	-0.543007	0.518654	-0.48084	0.518898	0.415729	-0.528502	0.434079	-0.509348	0.389588	0.459782	-0.554479	0.477832
0.47617	0.493629	-0.407954	-0.421596	-0.392176	0.447092	0.475218	0.436515	-0.409005	-0.504673	0.480394	-0.449802	-0.38192	-0.440832	-0.461883	0.432047	0.518488	-0.408739	0.416123	0.49739	-0.442284	0.438756	-0.469574	0.444796	0.525685	-0.498608	0.443096	-0.420572	0.508649	0.428054	-0.414292	0.500114
0.478346	0.378479	-0.450823	-0.380594	-0.514269	0.424589	0.383962	0.482024	-0.392745	-0.27169	0.476551	-0.497832	-0.356869	-0.475373	-0.435365	0.407251	0.409055	-0.370469	0.390837	0.511298	-0.528534	0.359637	-0.394764	0.368879	0.453342	-0.367917	0.393566	-0.511046	0.417596	0.471176	-0.391396	0.399258
0.537359	0.473603	-0.560999	-0.440003	-0.409375	0.465973	0.45671	0.412958	-0.448998	-0.448506	0.43933	-0.474487	-0.450745	-0.515967	-0.481473	0.47405	0.480697	-0.480841	0.514833	0.503722	-0.494737	0.470794	-0.467686	0.465197	0.427038	-0.548892	0.494232	-0.457105	0.492908	0.446891	-0.433648	0.525639
0.43793	0.484536	-0.503636	-0.474517	-0.417552	0.478346	0.418305	0.460839	-0.474571	-0.524955	0.438161	-0.465844	-0.216884	-0.313857	-0.480404	0.338615	0.454436	-0.357077	0.545987	0.383599	-0.423511	0.514222	-0.503379	0.389134	0.430211	-0.422307	0.522448	-0.406838	0.319064	0.284612	-0.302405	0.427042
0.49681	0.461683	-0.487311	-0.493041	-0.433497	0.451488	0.464371	0.403409	-0.401031	-0.383724	0.525479	-0.40051	-0.373322	-0.299026	-0.470162	0.487282	0.358913	-0.453872	0.461699	0.452212	-0.449942	0.49866	-0.517021	0.465824	0.492576	-0.510295	0.503938	-0.421955	0.456862	0.347677	-0.468935	0.420004
0.476027	0.318963	-0.428162	-0.486387	-0.352567	0.426141	0.423995	0.476193	-0.519412	-0.400086	0.501913	-0.529849	-0.46615	-0.514135	-0.476874	0.371089	0.411644	-0.500547	0.454348	0.479084	-0.482993	0.471722	-0.50262	0.511147	0.538292	-0.321775	0.385569	-0.475331	0.489092	0.376866	-0.453166	0.543914
0.420257	0.288491	-0.514754	-0.502391	-0.446595	0.480679	0.52173	0.50116	-0.442183	-0.446463	0.517018	-0.501044	-0.4396	-0.496523	-0.491628	0.46673	0.345094	-0.447311	0.448684	0.438145	-0.51972	0.40639	-0.543415	0.429113	0.464192	-0.441411	0.474505	-0.38603	0.494579	0.414424	-0.461163	0.424463
0.407819	0.496892	-0.425129	-0.465055	-0.493683	0.436744	0.449752	0.472533	-0.489882	-0.494097	0.445475	-0.406568	-0.488673	-0.384117	-0.491554	0.468694	0.385327	-0.49676	0.433519	0.49306	-0.360052	0.383096	-0.408452	0.427435	0.372705	-0.442717	0.45499	-0.508045	0.410968	0.432636	-0.433584	0.431855
0.474967	0.33358	-0.496505	-0.517756	-0.518676	0.425123	0.488708	0.494875	-0.47772	-0.516219	0.431341	-0.479402	-0.4643	-0.454568	-0.505568	0.383834	0.495436	-0.515841	0.488806	0.444714	-0.514988	0.456391	-0.487869	0.451259	0.461405	-0.447439	0.466708	-0.508278	0.481307	0.47756	-0.456385	0.488109
0.49813	0.337208	-0.413587	-0.481373	-0.445783	0.495711	0.563247	0.483543	-0.54331	-0.47041	0.426828	-0.459249	-0.508184	-0.473066	-0.453112	0.45655	0.455882	-0.533271	0.520577	0.497778	-0.451535	0.466844	-0.514478	0.441999	0.433934	-0.478519	0.473579	-0.443995	0.489182	0.477393	-0.493621	0.503976
0.470981	0.425768	-0.384674	-0.486947	-0.524236	0.54579	0.549813	0.519332	-0.487234	-0.532127	0.476386	-0.496155	-0.530241	-0.302053	-0.503972	0.425081	0.430854	-0.483394	0.417436	0.433523	-0.503298	0.512034	-0.466804	0.447786	0.450487	-0.51224	0.560775	-0.525296	0.463158	0.424853	-0.517889	0.470962
0.508844	0.475611	-0.521563	-0.482968	-0.53706	0.499102	0.403944	0.450734	-0.498252	-0.458532	0.450331	-0.480014	-0.525121	-0.357013	-0.425941	0.478828	0.534197	-0.523438	0.540049	0.458102	-0.373301	0.443737	-0.519556	0.476018	0.394826	-0.477274	0.438536	-0.449311	0.473821	0.521469	-0.368554	0.407431
0.450317	0.471365	-0.479292	-0.410466	-0.353428	0.386884	0.479594	0.461441	-0.337293	-0.408043	0.388601	-0.387467	-0.502881	-0.368049	-0.396631	0.389433	0.348127	-0.381059	0.453568	0.438716	-0.314791	0.365844	-0.365871	0.298122	0.484934	-0.46567	0.310165	-0.402363	0.489996	0.392567	-0.415402	0.452994
0.489463	0.472021	-0.416986	-0.507674	-0.476053	0.447119	0.429362	0.462534	-0.406023	-0.463974	0.430181	-0.450812	-0.48438	-0.441767	-0.423585	0.401127	0.452928	-0.515066	0.484544	0.513363	-0.490983	0.487952	-0.454808	0.497675	0.422652	-0.461669	0.415769	-0.402315	0.502439	0.516497	-0.545594	0.45567
0.43477	0.447225	-0.530055	-0.47678	-0.439266	0.452918	0.45183	0.406478	-0.466053	-0.516286	0.402421	-0.456643	-0.381934	-0.494375	-0.494464	0.44128	0.526286	-0.491962	0.465702	0.497978	-0.439334	0.527642	-0.432851	0.502353	0.43643	-0.485607	0.504075	-0.403743	0.463806	0.350789	-0.395404	0.471485
0.36339	0.492153	-0.393304	-0.434497	-0.408143	0.395723	0.436537	0.496051	-0.393147	-0.340932	0.487402	-0.273996	-0.37035	-0.352657	-0.478329	0.442579	0.388605	-0.34452	0.3671	0.438616	-0.443902	0.443963	-0.476261	0.436043	0.428818	-0.335987	0.507703	-0.447898	0.305423	0.411906	-0.495369	0.44754
0.344833	0.379196	-0.509945	-0.435023	-0.415637	0.400005	0.449758	0.384832	-0.367529	-0.518673	0.479036	-0.44103	-0.373842	-0.4642	-0.451236	0.434108	0.529726	-0.469605	0.407554	0.407651	-0.484732	0.457514	-0.446948	0.52178	0.403875	-0.415497	0.490313	-0.420965	0.371097	0.408027	-0.445227	0.42242
0.503217	0.424051	-0.50932	-0.461436	-0.373228	0.530554	0.485693	0.418508	-0.529656	-0.469169	0.39251	-0.510782	-0.441495	-0.371899	-0.405058	0.554139	0.479393	-0.39293	0.461983	0.503914	-0.445786	0.480667	-0.458013	0.45268	0.489282	-0.414903	0.344392	-0.4436	0.467532	0.372074	-0.476615	0.507511
0.513121	0.578525	-0.483797	-0.468818	-0.392269	0.463825	0.516291	0.466044	-0.433034	-0.485747	0.443736	-0.379007	-0.47275	-0.435815	-0.47355	0.460296	0.373231	-0.447441	0.50576	0.493101	-0.46791	0.481782	-0.497303	0.457952	0.492689	-0.478115	0.529881	-0.39637	0.328215	0.393224	-0.455264	0.459992
0.501562	0.418059	-0.325186	-0.429608	-0.549635	0.420923	0.440075	0.383484	-0.466123	-0.528937	0.509971	-0.526368	-0.483121	-0.537687	-0.524268	0.505393	0.474299	-0.587065	0.434786	0.441153	-0.371772	0.479985	-0.56503	0.47931	0.53535	-0.453127	0.496069	-0.473764	0.524184	0.527079	-0.488789	0.440947
0.510597	0.465146	-0.477042	-0.499443	-0.475094	0.428231	0.532266	0.500393	-0.510447	-0.485733	0.497476	-0.47629	-0.452653	-0.48499	-0.490482	0.477668	0.409507	-0.48536	0.490264	0.441469	-0.460448	0.50403	-0.497451	0.4113	0.437902	-0.53411	0.420397	-0.510952	0.44738	0.481695	-0.502651	0.529217
0.451345	0.443025	-0.53527	-0.532142	-0.439365	0.435345	0.463674	0.434893	-0.469489	-0.450891	0.464915	-0.506509	-0.515251	-0.391139	-0.548135	0.533234	0.523729	-0.473243	0.4494	0.48412	-0.515645	0.433368	-0.482172	0.485912	0.435206	-0.43203	0.42398	-0.550538	0.479531	0.416007	-0.335312	0.483422
0.469611	0.385774	-0.403579	-0.441913	-0.402731	0.434534	0.464459	0.470642	-0.391042	-0.457422	0.415448	-0.519464	-0.464991	-0.449327	-0.476917	0.437786	0.507367	-0.367028	0.510195	0.420435	-0.454759	0.373514	-0.48742	0.49185	0.498736	-0.384166	0.435299	-0.423277	0.507456	0.551353	-0.428557	0.514606
