0.0410892	-0.0162199	-0.0330875	0.037937	-0.0329603	0.0160985	-0.0012399	0.00430343	0.00141747	0.00346134	-0.0422385	0.0370671	-0.0256162	0.00114239	0.0349814	-0.0109916	0.0137119	0.0356002	-0.0234178	-0.0244939	-0.0143511	-0.0196879	0.0468138	-0.0229953	0.0416408	0.0156877	0.0200616	0.00547453	-0.00815842	0.0357857	-0.00524179	-0.00044452
-0.389665	0.367209	0.473404	-0.478092	-0.231474	-0.44461	0.482097	-0.462514	0.463661	-0.443797	-0.459726	-0.474808	-0.349028	0.417818	0.461898	-0.4755	0.462624	0.495303	0.473727	-0.446721	-0.456875	0.38141	-0.470278	-0.482404	-0.44054	-0.483322	0.513275	-0.505604	0.420475	0.497808	0.413651	-0.498385
-0.435735	0.418978	0.442272	-0.282875	0.713853	-0.382354	0.447662	-0.379223	0.518638	-0.452457	-0.515874	-0.426913	-0.438462	0.427194	0.489768	-0.504205	0.263011	0.457358	0.441951	-0.509901	-0.478039	0.445515	-0.498887	-0.322538	-0.542592	-0.365137	0.472792	-0.402202	0.455689	0.428225	0.43923	-0.377381
-0.45066	0.403831	0.441765	-0.459943	0.892638	-0.510171	0.474697	-0.420366	0.354801	-0.332682	-0.481172	-0.4621	-0.435955	0.486094	0.391592	-0.434153	0.547497	0.448911	0.476803	-0.4765	-0.393832	0.473103	-0.465429	-0.422495	-0.510036	-0.42724	0.433626	-0.378656	0.517842	0.409217	0.489031	-0.479709
-0.48308	0.434167	0.448899	-0.410792	-0.197754	-0.407265	0.440002	-0.458717	0.483876	-0.443801	-0.447043	-0.387265	-0.505445	0.441971	0.428015	-0.433259	0.306036	0.455021	0.437137	-0.338923	-0.437743	0.427481	-0.479859	-0.479942	-0.579564	-0.406124	0.440463	-0.443891	0.394176	0.501709	0.480936	-0.429585
-0.378341	0.382503	0.362852	-0.187905	0.919587	-0.443076	0.300908	-0.405304	0.370208	-0.333737	-0.329114	-0.39987	-0.337725	0.444343	0.364454	-0.406334	0.447191	0.431839	0.328679	-0.469414	-0.439693	0.383185	-0.410739	-0.421985	-0.29215	-0.302497	0.380335	-0.461219	0.393033	0.477533	0.362022	-0.455031
-0.507011	0.476886	0.429947	-0.417398	-0.0152963	-0.464904	0.37662	-0.428743	0.357284	-0.396978	-0.43105	-0.424283	-0.412497	0.518236	0.461957	-0.339867	0.418412	0.436558	0.410367	-0.463264	-0.422983	0.446996	-0.401569	-0.385502	-0.30981	-0.458663	0.491212	-0.372342	0.478194	0.46874	0.377438	-0.425626
-0.483272	0.508463	0.337652	-0.385996	0.000969102	-0.434889	0.391582	-0.355861	0.382377	-0.435804	-0.43557	-0.429014	-0.419513	0.517653	0.485977	-0.448182	0.513321	0.454278	0.393683	-0.476881	-0.485989	0.454524	-0.405872	-0.495626	-0.585841	-0.505957	0.418886	-0.42022	0.50869	0.420629	0.428657	-0.387849
-0.422637	0.479382	0.376034	-0.46699	0.102447	-0.443994	0.485678	-0.380323	0.451838	-0.417595	-0.349118	-0.449102	-0.466767	0.453446	0.397055	-0.436154	0.498771	0.35817	0.514243	-0.390086	-0.497961	0.463421	-0.451468	-0.467859	-0.519363	-0.392921	0.405527	-0.521559	0.517785	0.411695	0.421462	-0.497031
-0.512802	0.479767	0.52494	-0.611144	0.925849	-0.480709	0.490103	-0.408924	0.43659	-0.517795	-0.412857	-0.463302	-0.567279	0.317116	0.404549	-0.254636	0.0852204	0.453541	0.435854	-0.385741	-0.343922	0.363059	-0.47718	-0.4728	-0.1503	-0.404145	0.492071	-0.390513	0.334413	0.218231	0.446497	-0.403685
-0.380707	0.462721	0.428123	-0.394536	0.758161	-0.464263	0.419217	-0.499984	0.437765	-0.469233	-0.454136	-0.381995	-0.396778	0.367046	0.357252	-0.440633	0.337781	0.388202	0.331209	-0.358885	-0.390897	0.493642	-0.423364	-0.487434	0.0715633	-0.516841	0.338065	-0.368142	0.30986	0.315945	0.461141	-0.501497
-0.382117	0.457982	0.430061	-0.429926	0.812561	-0.366419	0.435195	-0.406086	0.309146	-0.515205	-0.393755	-0.434464	-0.463289	0.321867	0.325494	-0.450294	0.312647	0.363854	0.417424	-0.347157	-0.405929	0.402	-0.384229	-0.463511	0.202741	-0.415512	0.264967	-0.337738	0.236834	0.405193	0.36218	-0.442122
-0.461069	0.418285	0.40326	-0.37994	0.51026	-0.429794	0.490077	-0.457803	0.477122	-0.454846	-0.441181	-0.429686	-0.444033	0.48867	0.485271	-0.370842	0.354333	0.403869	0.459728	-0.407764	-0.418585	0.45596	-0.376201	-0.435852	-0.496909	-0.434943	0.447677	-0.478462	0.320092	0.334681	0.477869	-0.383818
-0.483541	0.494131	0.458045	-0.398268	0.68473	-0.399202	0.357452	-0.393122	0.507854	-0.352205	-0.448506	-0.420578	-0.416406	0.3	0.394696	-0.441653	0.435207	0.434796	0.435736	-0.53642	-0.440111	0.505072	-0.452057	-0.449566	-0.560551	-0.49466	0.426059	-0.375463	0.500731	0.484162	0.424413	-0.477732
-0.418435	0.402653	0.562997	-0.514024	0.494079	-0.486402	0.457142	-0.453621	0.369401	-0.448035	-0.382683	-0.488515	-0.520745	0.479183	0.421972	-0.438947	0.403255	0.504295	0.472514	-0.459076	-0.429186	0.35438	-0.489169	-0.375831	-0.365241	-0.387006	0.442465	-0.507117	0.361198	0.46082	0.418033	-0.431759
-0.505807	0.437834	0.429476	-0.544816	0.382432	-0.431662	0.436432	-0.394841	0.374055	-0.413743	-0.337978	-0.50483	-0.368489	0.469216	0.489942	-0.508284	0.429935	0.41612	0.463958	-0.433226	-0.483713	0.37719	-0.435296	-0.357391	-0.576878	-0.435608	0.506141	-0.467921	0.454005	0.510374	0.449769	-0.393999
-0.448234	0.411948	0.481755	-0.466804	0.489931	-0.485051	0.428255	-0.436439	0.350391	-0.415436	-0.456193	-0.406151	-0.455264	0.442397	0.472506	-0.522362	0.37113	0.493947	0.499954	-0.382532	-0.442053	0.494363	-0.481406	-0.475628	-0.518663	-0.453477	0.509721	-0.455415	0.493591	0.4737	0.431874	-0.345499
-0.488472	0.425564	0.356146	-0.413142	0.449275	-0.471297	0.498625	-0.407883	0.379508	-0.454752	-0.384628	-0.465714	-0.38353	0.444269	0.494656	-0.374438	0.462985	0.435611	0.442707	-0.369103	-0.495859	0.40449	-0.39043	-0.459724	-0.376826	-0.35976	0.432636	-0.404516	0.400061	0.460739	0.431535	-0.362169
-0.450701	0.363691	0.45188	-0.416339	0.190858	-0.413862	0.443038	-0.498331	0.378969	-0.515488	-0.35089	-0.492805	-0.436679	0.45849	0.443009	-0.384742	0.539014	0.481887	0.49447	-0.420851	-0.425341	0.429048	-0.489122	-0.451896	-0.475355	-0.477847	0.417644	-0.440079	0.473567	0.47959	0.492495	-0.463443
-0.382105	0.521385	0.46026	-0.329271	0.131369	-0.374119	0.379806	-0.487363	0.361471	-0.37826	-0.400418	-0.480292	-0.454571	0.389612	0.502538	-0.391146	0.485542	0.413906	0.319456	-0.438459	-0.493397	0.49324	-0.401516	-0.342544	-0.462743	-0.519911	0.468212	-0.433577	0.458599	0.476315	0.476618	-0.472457
-0.486126	0.483526	0.360467	-0.463175	0.0639402	-0.513105	0.448068	-0.394244	0.459488	-0.415663	-0.43292	-0.461385	-0.456677	0.427068	0.478264	-0.469827	0.473413	0.435203	0.478654	-0.46668	-0.489306	0.473198	-0.459789	-0.367781	-0.605291	-0.473109	0.470291	-0.466601	0.492247	0.474037	0.512888	-0.433586
-0.38395	0.406554	0.444704	-0.432366	0.515797	-0.489594	0.369053	-0.43764	0.425517	-0.502791	-0.435723	-0.464157	-0.388481	0.443047	0.403672	-0.416737	0.375205	0.464834	0.449113	-0.40257	-0.478234	0.379887	-0.3904	-0.346478	-0.305359	-0.453182	0.453546	-0.376279	0.452478	0.409795	0.440534	-0.370795
-0.445646	0.361862	0.419686	-0.400292	0.950899	-0.443101	0.422324	-0.512883	0.499782	-0.367547	-0.39621	-0.447242	-0.409669	0.370782	0.44933	-0.362178	0.603818	0.443727	0.408204	-0.45714	-0.48002	0.492049	-0.477935	-0.484575	-0.480868	-0.345152	0.459707	-0.412051	0.482659	0.493661	0.451532	-0.412658
-0.521913	0.526442	0.359355	-0.506204	0.573505	-0.408321	0.435526	-0.432755	0.484182	-0.522349	-0.458514	-0.447755	-0.402911	0.487445	0.468004	-0.507396	0.398676	0.428358	0.468278	-0.50416	-0.500068	0.399287	-0.438688	-0.457697	-0.600305	-0.464127	0.506399	-0.542018	0.521703	0.48542	0.504623	-0.425524
-0.425135	0.433776	0.416333	-0.554013	0.106724	-0.378465	0.38368	-0.437767	0.454072	-0.366603	-0.451577	-0.440486	-0.418002	0.424487	0.404197	-0.523883	0.567009	0.403457	0.494412	-0.494947	-0.382859	0.512244	-0.444089	-0.464982	-0.51857	-0.444327	0.493939	-0.5009	0.416132	0.392355	0.472241	-0.376869
-0.405006	0.343623	0.360636	-0.457761	-0.335417	-0.364543	0.478779	-0.391458	0.517254	-0.38437	-0.552579	-0.358785	-0.249745	0.269748	0.488437	-0.516311	0.465017	0.334484	0.400286	-0.339259	-0.489928	0.367439	-0.460745	-0.36838	0.217408	-0.328562	0.229572	-0.320661	0.510706	0.370213	0.453091	-0.384889
-0.503142	0.435061	0.450778	-0.503775	0.280829	-0.505126	0.455221	-0.407088	0.439113	-0.422832	-0.412727	-0.432618	-0.520226	0.367916	0.463494	-0.466094	0.491612	0.435147	0.474372	-0.439221	-0.492116	0.483244	-0.445319	-0.516278	-0.58245	-0.492164	0.495632	-0.417578	0.546136	0.411649	0.4209	-0.500435
-0.317022	0.413413	0.406948	-0.146864	0.987297	-0.466467	0.455063	-0.402057	0.263091	-0.340886	-0.359643	-0.415209	-0.382646	0.221075	0.386067	-0.446228	0.460672	0.335647	0.299589	-0.397572	-0.313823	0.394843	-0.418069	-0.426058	0.128516	-0.327154	0.399611	-0.325958	0.148213	0.389111	0.4414	-0.470577
-0.445417	0.422267	0.380315	-0.508505	0.263906	-0.436212	0.532891	-0.493836	0.379478	-0.421352	-0.368417	-0.471797	-0.526623	0.525213	0.379374	-0.481596	0.481099	0.503927	0.440667	-0.409489	-0.529825	0.535592	-0.500409	-0.416366	-0.445078	-0.513638	0.494255	-0.415568	0.445292	0.447796	0.437221	-0.487544
-0.490808	0.432128	0.432925	-0.508477	0.602012	-0.41133	0.444444	-0.494719	0.507726	-0.387107	-0.455084	-0.470523	-0.492497	0.458658	0.487011	-0.489481	0.362936	0.432976	0.491892	-0.500989	-0.503389	0.425813	-0.460344	-0.425298	-0.438236	-0.452459	0.449545	-0.457859	0.475505	0.465013	0.461898	-0.395804
-0.391467	0.474142	0.312367	-0.521985	-0.0300927	-0.478694	0.440468	-0.414626	0.439485	-0.451075	-0.412969	-0.492741	-0.348492	0.442951	0.431012	-0.509639	0.422871	0.43448	0.450941	-0.379907	-0.496298	0.487517	-0.390698	-0.338522	-0.549342	-0.402719	0.478588	-0.464332	0.461431	0.467549	0.436937	-0.396819
-0.517963	0.482188	0.524155	-0.419973	-0.139162	-0.454132	0.395028	-0.459949	0.471361	-0.319114	-0.507714	-0.510677	-0.421194	0.466313	0.478228	-0.426031	0.505117	0.431366	0.444906	-0.39278	-0.501044	0.460158	-0.448549	-0.436855	-0.505392	-0.455543	0.518472	-0.460936	0.478822	0.419847	0.485203	-0.463735
-0.407828	0.414318	0.357093	-0.450436	0.0624805	-0.402486	0.515552	-0.430292	0.398811	-0.528922	-0.412321	-0.438688	-0.478442	0.360696	0.415793	-0.492382	0.4828	0.483404	0.448795	-0.480375	-0.432239	0.482355	-0.441608	-0.450055	-0.483452	-0.45572	0.417348	-0.494282	0.513743	0.446492	0.431399	-0.47995
-0.432949	0.398309	0.432967	-0.51827	0.222519	-0.386549	0.384347	-0.41634	0.41082	-0.502047	-0.352318	-0.479162	-0.440574	0.498361	0.48015	-0.488717	0.468749	0.474054	0.509095	-0.421016	-0.408977	0.408105	-0.478972	-0.509085	-0.385948	-0.363371	0.391991	-0.37808	0.518195	0.436162	0.389006	-0.453664
-0.45393	0.528565	0.513187	-0.426029	0.310106	-0.410386	0.478224	-0.348767	0.352744	-0.538524	-0.422326	-0.449946	-0.553517	0.46478	0.430599	-0.373653	0.433069	0.391759	0.452363	-0.375355	-0.421724	0.412441	-0.414024	-0.305372	-0.616692	-0.360343	0.505333	-0.387666	0.421843	0.478925	0.390616	-0.490951
-0.414632	0.409579	0.512857	-0.503476	0.465417	-0.442037	0.444077	-0.514096	0.412093	-0.329497	-0.446578	-0.492813	-0.491097	0.476255	0.429	-0.501498	0.481977	0.434284	0.429512	-0.541479	-0.491784	0.415989	-0.405084	-0.470849	-0.6313	-0.418674	0.399512	-0.44901	0.535322	0.383342	0.48017	-0.508532
-0.41408	0.481697	0.487728	-0.48588	-0.063612	-0.38942	0.440969	-0.508889	0.474844	-0.461269	-0.431799	-0.485075	-0.462641	0.458538	0.470924	-0.456586	0.360342	0.455926	0.45106	-0.422938	-0.42118	0.463893	-0.411444	-0.448428	-0.424484	-0.374509	0.516211	-0.525257	0.416144	0.524609	0.433568	-0.456912
-0.396259	0.473301	0.405328	-0.405155	-0.179576	-0.425307	0.409499	-0.42436	0.37477	-0.491842	-0.39896	-0.47887	-0.427503	0.496382	0.508235	-0.316626	0.386309	0.506966	0.421058	-0.53522	-0.451204	0.458805	-0.417297	-0.390191	-0.493378	-0.421855	0.509784	-0.376728	0.426585	0.472436	0.456463	-0.439872
-0.411598	0.409872	0.37119	-0.496273	0.450548	-0.441396	0.454129	-0.333802	0.453038	-0.448495	-0.40233	-0.389244	-0.359861	0.487678	0.493659	-0.458884	0.491594	0.449745	0.421679	-0.444901	-0.451385	0.416431	-0.466613	-0.474367	-0.410237	-0.395798	0.333818	-0.435016	0.394015	0.467751	0.389621	-0.472458
-0.495005	0.407334	0.48841	-0.477257	0.739922	-0.422442	0.406338	-0.409713	0.52833	-0.39259	-0.472872	-0.415732	-0.514451	0.471829	0.405523	-0.498709	0.558856	0.385639	0.492906	-0.422481	-0.434215	0.421821	-0.51817	-0.401147	-0.564445	-0.397364	0.487585	-0.547933	0.452033	0.462771	0.52741	-0.403411
-0.496816	0.402755	0.518334	-0.470487	0.618605	-0.46545	0.504819	-0.521663	0.487707	-0.424553	-0.422762	-0.470733	-0.445307	0.373829	0.496432	-0.489546	0.411183	0.461211	0.438455	-0.423821	-0.418571	0.467012	-0.509201	-0.499549	-0.431936	-0.409799	0.425158	-0.389248	0.366881	0.399641	0.460887	-0.501474
-0.286277	0.332159	0.460197	-0.501094	-1.01698	-0.360243	0.493419	-0.541617	0.592126	-0.443014	-0.583942	-0.41974	-0.214712	0.501533	0.476628	-0.475769	0.113757	0.19937	0.369396	-0.363735	-0.456958	0.322126	-0.337309	-0.464031	0.367687	-0.478327	0.215378	-0.346515	0.37096	0.121608	0.434624	-0.441497
-0.487311	0.497916	0.48191	-0.459297	0.650103	-0.395032	0.401609	-0.414897	0.360622	-0.461001	-0.366964	-0.39387	-0.371856	0.401583	0.419171	-0.402664	0.330286	0.469986	0.453989	-0.519413	-0.375202	0.486924	-0.491233	-0.377827	-0.220392	-0.414331	0.416836	-0.374387	0.370843	0.493279	0.410733	-0.40534
-0.440484	0.452252	0.428182	-0.439689	0.441337	-0.452239	0.455934	-0.510719	0.449992	-0.371605	-0.403646	-0.49453	-0.457176	0.45171	0.349794	-0.418469	0.383681	0.440625	0.495127	-0.491284	-0.459646	0.39929	-0.473534	-0.443351	-0.260998	-0.406999	0.364432	-0.477317	0.345794	0.40381	0.380325	-0.453869
-0.518707	0.522873	0.395553	-0.445749	0.262892	-0.416556	0.531676	-0.451611	0.461433	-0.368039	-0.433354	-0.468688	-0.447561	0.435456	0.513467	-0.458194	0.414613	0.467878	0.49951	-0.462088	-0.43957	0.449752	-0.501704	-0.44191	-0.529033	-0.396725	0.508956	-0.405788	0.493416	0.427224	0.457718	-0.413596
-0.408273	0.411662	0.499591	-0.280198	0.620793	-0.390298	0.402119	-0.451976	0.521967	-0.360874	-0.409049	-0.466864	-0.472965	0.423071	0.431637	-0.4237	0.507649	0.472144	0.503118	-0.424389	-0.413306	0.470781	-0.420247	-0.436592	-0.499656	-0.432798	0.451937	-0.515729	0.523851	0.393238	0.459197	-0.488161
-0.484855	0.453935	0.383245	-0.451091	-0.432943	-0.500931	0.477157	-0.46011	0.501324	-0.335468	-0.484346	-0.433979	-0.341863	0.441484	0.403808	-0.428838	0.295432	0.366424	0.511594	-0.354428	-0.480552	0.420891	-0.408987	-0.397258	-0.245372	-0.437659	0.379229	-0.367874	0.441788	0.386899	0.489511	-0.308484
-0.453508	0.475967	0.435219	-0.411716	0.841225	-0.514539	0.469805	-0.529778	0.411394	-0.478653	-0.391472	-0.428938	-0.410529	0.530823	0.37037	-0.433446	0.415482	0.516544	0.486604	-0.469837	-0.428642	0.474133	-0.445557	-0.465359	-0.135174	-0.516502	0.343796	-0.428921	0.505648	0.374486	0.342461	-0.419513
-0.444823	0.484835	0.411536	-0.52765	0.674378	-0.458514	0.417376	-0.425843	0.474508	-0.453513	-0.384874	-0.480171	-0.437016	0.42667	0.431473	-0.401838	0.465581	0.449082	0.455087	-0.505952	-0.474123	0.44289	-0.448937	-0.492017	-0.535718	-0.51302	0.436334	-0.439016	0.396376	0.417096	0.402299	-0.399396
-0.379211	0.453065	0.430647	-0.516302	-0.12049	-0.438455	0.47834	-0.486215	0.488004	-0.358667	-0.404368	-0.474413	-0.387749	0.442284	0.486875	-0.425971	0.382125	0.463277	0.446046	-0.400439	-0.483424	0.467062	-0.479904	-0.44333	-0.451534	-0.395	0.451082	-0.403391	0.391954	0.436902	0.403643	-0.482567
-0.452189	0.503917	0.433368	-0.506167	0.00121512	-0.499784	0.396731	-0.458525	0.545683	-0.419287	-0.417731	-0.512229	-0.499546	0.519879	0.501109	-0.38923	0.407287	0.43388	0.410486	-0.425837	-0.423107	0.551692	-0.483582	-0.525012	-0.508967	-0.433201	0.539993	-0.422595	0.432861	0.494773	0.49164	-0.493815
-0.445588	0.381818	0.484844	-0.505409	-0.111781	-0.400475	0.499718	-0.358053	0.447724	-0.5477	-0.404664	-0.524403	-0.496347	0.459622	0.458034	-0.503367	0.395109	0.421606	0.437529	-0.46651	-0.514559	0.394859	-0.481945	-0.333494	-0.617072	-0.428916	0.439064	-0.51074	0.416724	0.520569	0.404664	-0.466407
-0.42584	0.380144	0.519535	-0.297103	0.720567	-0.436716	0.41074	-0.3553	0.439929	-0.519412	-0.44805	-0.386039	-0.413228	0.411622	0.433672	-0.339095	0.545555	0.44492	0.424558	-0.486478	-0.463678	0.474842	-0.488684	-0.502214	-0.472901	-0.492635	0.488879	-0.485523	0.471193	0.477865	0.496237	-0.408356
-0.461752	0.422438	0.41213	-0.502276	-0.693595	-0.517478	0.466828	-0.430424	0.478441	-0.453462	-0.534546	-0.480263	-0.50812	0.48322	0.373662	-0.461394	0.276294	0.449061	0.497369	-0.283982	-0.378053	0.445748	-0.468373	-0.379263	-0.188646	-0.453511	0.475595	-0.413195	0.455102	0.445241	0.50939	-0.402291
-0.42534	0.505288	0.468057	-0.400597	0.141847	-0.469791	0.470356	-0.404241	0.489291	-0.513658	-0.463662	-0.411921	-0.501397	0.466726	0.476112	-0.479352	0.282704	0.455411	0.49545	-0.445334	-0.438957	0.462477	-0.481551	-0.439776	-0.273861	-0.504386	0.47373	-0.42195	0.382661	0.383653	0.509616	-0.379102
-0.463319	0.458711	0.414501	-0.360615	0.525382	-0.423407	0.430756	-0.520745	0.477945	-0.383347	-0.460251	-0.423682	-0.409112	0.333128	0.508441	-0.486517	0.564151	0.487062	0.482123	-0.465918	-0.419735	0.490112	-0.445765	-0.424471	-0.50802	-0.48075	0.426983	-0.450486	0.393549	0.42245	0.426724	-0.458443
-0.410261	0.399935	0.444928	-0.38353	0.171056	-0.431128	0.476341	-0.42656	0.524881	-0.423577	-0.427838	-0.425898	-0.405833	0.50549	0.462585	-0.488997	0.487723	0.404016	0.418126	-0.389438	-0.415386	0.444162	-0.406259	-0.431593	-0.503415	-0.45982	0.378654	-0.422645	0.428342	0.500727	0.482077	-0.351664
-0.432284	0.417176	0.495776	-0.379359	0.173848	-0.397679	0.455427	-0.457679	0.344292	-0.441673	-0.377773	-0.476567	-0.391624	0.382834	0.498527	-0.466229	0.500119	0.364436	0.414828	-0.418333	-0.479511	0.396803	-0.432891	-0.356644	-0.508729	-0.450525	0.447587	-0.47491	0.449332	0.406197	0.467855	-0.41933
-0.455724	0.442052	0.531846	-0.545089	0.312981	-0.441975	0.430918	-0.537806	0.486964	-0.477719	-0.47995	-0.458154	-0.45602	0.410735	0.466094	-0.434145	0.410385	0.478233	0.414437	-0.406683	-0.469625	0.470434	-0.511197	-0.414792	-0.33421	-0.451064	0.391578	-0.525339	0.510318	0.391184	0.469691	-0.435972
-0.280019	0.408561	0.383494	-0.393673	0.264121	-0.397607	0.407802	-0.482931	0.379695	-0.407952	-0.392213	-0.405132	-0.299769	0.372859	0.363783	-0.439882	0.195703	0.298756	0.438358	-0.346328	-0.397894	0.348751	-0.382359	-0.454443	0.359494	-0.387841	0.256327	-0.262691	0.232318	0.198247	0.435721	-0.434243
-0.407017	0.433456	0.418701	-0.508664	0.521098	-0.479406	0.450372	-0.431708	0.370073	-0.418733	-0.331994	-0.427684	-0.441958	0.49158	0.389921	-0.477011	0.342636	0.495168	0.497182	-0.317293	-0.408244	0.412168	-0.376489	-0.385033	-0.54912	-0.361061	0.426692	-0.42037	0.48533	0.464622	0.375242	-0.413029
-0.502719	0.489636	0.383294	-0.468972	0.271807	-0.480855	0.392541	-0.51882	0.478495	-0.451237	-0.48983	-0.478664	-0.485339	0.450443	0.448352	-0.41754	0.414928	0.435296	0.391295	-0.523669	-0.504773	0.436512	-0.45955	-0.385165	-0.378958	-0.500192	0.374987	-0.507157	0.48621	0.465263	0.415257	-0.424412
-0.407321	0.468282	0.364843	-0.377702	0.740811	-0.500245	0.458722	-0.398261	0.376253	-0.482392	-0.464104	-0.444495	-0.404867	0.464231	0.416204	-0.340994	0.484274	0.440109	0.476747	-0.35265	-0.38349	0.424661	-0.362247	-0.310366	-0.510923	-0.398095	0.395582	-0.392651	0.429309	0.476624	0.481209	-0.384092
-0.501924	0.397448	0.403906	-0.538819	0.324712	-0.412846	0.451888	-0.462911	0.379626	-0.445088	-0.405168	-0.502527	-0.402326	0.552857	0.510369	-0.420583	0.501099	0.459658	0.531999	-0.428616	-0.505496	0.486084	-0.495095	-0.39218	-0.539889	-0.484119	0.49318	-0.500501	0.395396	0.418674	0.42752	-0.435246
-0.524295	0.443067	0.494708	-0.401145	0.0429762	-0.40754	0.474677	-0.534882	0.367276	-0.391727	-0.525327	-0.431499	-0.47711	0.486019	0.532399	-0.435923	0.435734	0.486542	0.50331	-0.414269	-0.487608	0.42793	-0.493478	-0.509291	-0.502288	-0.493476	0.412209	-0.412171	0.443772	0.463996	0.424413	-0.478896
-0.456986	0.476164	0.382237	-0.429333	0.36865	-0.463884	0.446495	-0.426573	0.328853	-0.422545	-0.349181	-0.39104	-0.450663	0.43912	0.365965	-0.385031	0.405029	0.361511	0.400098	-0.450616	-0.43452	0.460196	-0.423544	-0.473157	-0.421841	-0.413627	0.392969	-0.446906	0.396857	0.431615	0.364257	-0.488307
-0.487282	0.479517	0.373504	-0.454434	0.606379	-0.433564	0.444657	-0.489505	0.485444	-0.421641	-0.525831	-0.469353	-0.493934	0.37653	0.461078	-0.489831	0.494052	0.499867	0.518171	-0.491854	-0.465279	0.512051	-0.441053	-0.447458	-0.530317	-0.434444	0.490392	-0.429051	0.424652	0.489708	0.548586	-0.424721
-0.437754	0.412614	0.495129	-0.47087	0.0511389	-0.409738	0.474457	-0.408877	0.484705	-0.381162	-0.496149	-0.491226	-0.491384	0.369783	0.493936	-0.496047	0.328717	0.498541	0.499945	-0.374475	-0.386298	0.468913	-0.421097	-0.412709	-0.468629	-0.352988	0.390844	-0.489209	0.412953	0.498314	0.46632	-0.443411
-0.504751	0.477721	0.367237	-0.414469	0.0381633	-0.39894	0.487523	-0.475158	0.482176	-0.403221	-0.430746	-0.441816	-0.382347	0.396534	0.421318	-0.435445	0.498529	0.487645	0.48485	-0.432642	-0.469574	0.409149	-0.421782	-0.421792	-0.535575	-0.446978	0.508033	-0.476919	0.487297	0.464005	0.455202	-0.427157
-0.450554	0.46201	0.363197	-0.549035	-0.194937	-0.431791	0.389466	-0.46236	0.376135	-0.344869	-0.451547	-0.452	-0.289561	0.502854	0.358041	-0.372252	0.432823	0.484468	0.30263	-0.464395	-0.415724	0.357828	-0.459914	-0.393318	-0.399131	-0.493857	0.494282	-0.359352	0.484707	0.413	0.368109	-0.395429
-0.433556	0.380629	0.467818	-0.454917	0.0504731	-0.474803	0.499324	-0.40156	0.425837	-0.408985	-0.406008	-0.490781	-0.417396	0.518133	0.4185	-0.41497	0.491686	0.44181	0.475433	-0.374232	-0.459711	0.39103	-0.4804	-0.394721	-0.427187	-0.418493	0.464573	-0.502161	0.473883	0.424474	0.456197	-0.442596
-0.449579	0.452247	0.460115	-0.466695	0.508938	-0.459458	0.421956	-0.516376	0.480265	-0.546347	-0.470141	-0.403797	-0.504252	0.463213	0.454911	-0.412644	0.275572	0.43603	0.485369	-0.371166	-0.42941	0.393703	-0.47507	-0.381462	-0.357996	-0.495705	0.495636	-0.422284	0.387252	0.324	0.476524	-0.429835
-0.410681	0.493218	0.412292	-0.282073	0.731051	-0.338606	0.399806	-0.434567	0.438044	-0.502853	-0.412709	-0.400678	-0.388702	0.392295	0.450067	-0.365938	0.395212	0.413392	0.2946	-0.323565	-0.337587	0.392676	-0.322633	-0.496455	-0.0411012	-0.448952	0.350104	-0.44706	0.380806	0.267798	0.447909	-0.469892
-0.405775	0.429004	0.398089	-0.334379	0.690698	-0.433549	0.456479	-0.438647	0.330919	-0.479813	-0.489333	-0.356928	-0.412659	0.336427	0.399879	-0.297593	0.513393	0.368609	0.438611	-0.453907	-0.474167	0.447922	-0.425989	-0.488479	-0.501787	-0.442248	0.439619	-0.49151	0.406275	0.466339	0.468021	-0.451035
-0.416732	0.414443	0.47636	-0.388777	0.590432	-0.409292	0.511402	-0.379186	0.376468	-0.401578	-0.40405	-0.519431	-0.48941	0.440004	0.440384	-0.396313	0.217836	0.509126	0.416198	-0.330348	-0.374593	0.482262	-0.476367	-0.365672	-0.4745	-0.522192	0.442786	-0.434226	0.515051	0.442737	0.370644	-0.443905
-0.515097	0.482756	0.421693	-0.581457	-0.160125	-0.472669	0.458823	-0.490282	0.461923	-0.537694	-0.463231	-0.483858	-0.437773	0.386773	0.460236	-0.517666	0.343584	0.432337	0.521837	-0.410436	-0.407537	0.445831	-0.54608	-0.379641	-0.269095	-0.528767	0.492009	-0.492288	0.38621	0.526951	0.513517	-0.453285
-0.457043	0.390103	0.402299	-0.484721	0.140686	-0.471594	0.39668	-0.442371	0.418875	-0.398499	-0.42521	-0.47911	-0.457957	0.417052	0.444388	-0.434588	0.435181	0.449414	0.495712	-0.392633	-0.408472	0.420125	-0.459553	-0.504949	-0.564903	-0.451401	0.413605	-0.509026	0.465676	0.420275	0.407327	-0.428596
-0.454264	0.500104	0.339172	-0.415892	0.485266	-0.429761	0.407091	-0.468742	0.431892	-0.401986	-0.530621	-0.457279	-0.472137	0.391595	0.432139	-0.511191	0.385211	0.526899	0.461951	-0.468336	-0.43565	0.480593	-0.416441	-0.473291	-0.523092	-0.476959	0.461223	-0.415031	0.482748	0.46137	0.443208	-0.439061
-0.513163	0.487193	0.439812	-0.430444	0.185272	-0.408166	0.498314	-0.418327	0.431444	-0.431861	-0.499774	-0.42731	-0.456594	0.401063	0.497024	-0.481888	0.410884	0.465085	0.468654	-0.383141	-0.465507	0.479972	-0.487699	-0.42254	-0.303887	-0.398036	0.479734	-0.459349	0.423014	0.451748	0.408716	-0.40732
-0.389527	0.379098	0.382828	-0.402783	0.0419729	-0.441658	0.531922	-0.431442	0.462681	-0.454757	-0.556417	-0.407757	-0.507403	0.463156	0.456467	-0.543542	0.318918	0.371875	0.509408	-0.445692	-0.458186	0.531706	-0.475887	-0.518157	0.341886	-0.465916	0.346677	-0.439383	0.348656	0.481157	0.516641	-0.522855
-0.470702	0.424036	0.470208	-0.381035	0.847306	-0.499378	0.419708	-0.511719	0.502081	-0.514307	-0.457236	-0.400419	-0.516099	0.380783	0.471434	-0.384915	0.444234	0.420233	0.464612	-0.396689	-0.49898	0.466446	-0.448308	-0.398192	-0.411306	-0.376136	0.46566	-0.478067	0.452469	0.53816	0.50699	-0.514041
-0.447991	0.408996	0.410279	-0.399259	0.638441	-0.374697	0.439134	-0.46403	0.467862	-0.436407	-0.467631	-0.511017	-0.462934	0.406442	0.482626	-0.398787	0.544426	0.523917	0.483959	-0.517856	-0.455043	0.506256	-0.463312	-0.397884	-0.51516	-0.411679	0.524139	-0.390894	0.516058	0.540884	0.513799	-0.437556
-0.430467	0.413295	0.449051	-0.498707	0.213686	-0.484938	0.404446	-0.4832	0.431289	-0.398897	-0.446605	-0.457618	-0.46327	0.314674	0.504583	-0.447166	0.449225	0.460157	0.425178	-0.469424	-0.400074	0.505256	-0.436405	-0.531546	-0.330642	-0.441856	0.525896	-0.433505	0.428962	0.431631	0.51536	-0.462603
-0.45462	0.472274	0.355804	-0.487745	0.685338	-0.381817	0.45358	-0.406696	0.461467	-0.462504	-0.422049	-0.482689	-0.420733	0.456672	0.495906	-0.454138	0.464031	0.507831	0.371728	-0.526777	-0.417437	0.44897	-0.429378	-0.441746	-0.387767	-0.499862	0.390565	-0.466483	0.509986	0.370807	0.421749	-0.490709
-0.399798	0.436285	0.396168	-0.478613	0.449846	-0.446357	0.400355	-0.383913	0.444488	-0.417153	-0.4694	-0.445718	-0.478588	0.365633	0.478778	-0.427037	0.428409	0.395094	0.451981	-0.464218	-0.456716	0.455109	-0.454304	-0.43318	-0.35115	-0.460833	0.382503	-0.400674	0.373677	0.392956	0.415445	-0.430795
-0.396294	0.505557	0.40925	-0.546258	0.455332	-0.383133	0.464409	-0.484479	0.487388	-0.405381	-0.382777	-0.410625	-0.381726	0.364877	0.491394	-0.517276	0.432654	0.451843	0.483269	-0.372072	-0.488536	0.456892	-0.408841	-0.403367	-0.454074	-0.378157	0.436514	-0.346128	0.442488	0.499361	0.457397	-0.45583
-0.428091	0.50415	0.502673	-0.515355	0.0841282	-0.512075	0.477942	-0.457043	0.441909	-0.495229	-0.496609	-0.457264	-0.521702	0.514607	0.509364	-0.424148	0.469228	0.460669	0.435513	-0.5385	-0.465294	0.473971	-0.4723	-0.545118	-0.54723	-0.405734	0.469329	-0.434977	0.440649	0.432346	0.441848	-0.472034
-0.405155	0.434153	0.296479	-0.418481	-0.122078	-0.421668	0.495529	-0.418212	0.478654	-0.556394	-0.284395	-0.448103	-0.467952	0.401599	0.38679	-0.489628	0.328951	0.384398	0.502775	-0.462278	-0.46305	0.407552	-0.509271	-0.417524	-0.417109	-0.350052	0.373478	-0.421279	0.290741	0.458258	0.34212	-0.556787
-0.497453	0.442938	0.475281	-0.365527	0.652255	-0.502352	0.444574	-0.417444	0.522699	-0.501776	-0.393184	-0.500126	-0.410882	0.430685	0.434538	-0.40447	0.50663	0.452826	0.481642	-0.473755	-0.505577	0.408557	-0.386629	-0.432829	-0.468597	-0.400514	0.416301	-0.517397	0.448427	0.458523	0.446921	-0.467991
-0.474525	0.461518	0.396739	-0.480031	-0.0133661	-0.453487	0.453913	-0.378996	0.424959	-0.484562	-0.367595	-0.453549	-0.441903	0.52052	0.419895	-0.506123	0.495588	0.471797	0.484967	-0.390634	-0.489475	0.44975	-0.403563	-0.440237	-0.617455	-0.432872	0.500995	-0.440722	0.449986	0.41359	0.398844	-0.467437
-0.405426	0.336725	0.444133	-0.217941	0.785521	-0.309956	0.457095	-0.506469	0.440461	-0.393747	-0.453009	-0.447836	-0.364207	0.245082	0.403023	-0.430131	0.590611	0.454337	0.400024	-0.443399	-0.481644	0.445674	-0.426054	-0.478575	-0.473755	-0.399988	0.428188	-0.47029	0.479148	0.420355	0.392169	-0.51843
-0.429119	0.447254	0.340744	-0.352381	-0.0983293	-0.406105	0.4467	-0.419917	0.358576	-0.416419	-0.389288	-0.484277	-0.475683	0.471017	0.441836	-0.38663	0.433735	0.485308	0.469074	-0.511044	-0.47539	0.449008	-0.413423	-0.323207	-0.318075	-0.412922	0.437336	-0.473294	0.509312	0.484234	0.409163	-0.448413
-0.427082	0.415723	0.325695	-0.448908	0.122543	-0.428674	0.475882	-0.381032	0.500191	-0.376988	-0.421961	-0.399284	-0.389219	0.394002	0.373419	-0.459585	0.395465	0.446786	0.392401	-0.464836	-0.426918	0.509953	-0.422741	-0.35645	-0.470852	-0.40425	0.374501	-0.464371	0.40783	0.462765	0.397717	-0.471787
-0.36531	0.498099	0.438111	-0.54575	0.0458258	-0.428837	0.516131	-0.496199	0.508123	-0.497638	-0.56416	-0.470267	-0.459247	0.504784	0.504338	-0.5018	0.363187	0.369009	0.46345	-0.494987	-0.470083	0.458517	-0.465362	-0.47839	0.0675713	-0.355406	0.451642	-0.385632	0.367881	0.45542	0.451502	-0.377316
-0.362624	0.408448	0.406057	-0.458242	0.603411	-0.396442	0.503423	-0.43053	0.470382	-0.437403	-0.480806	-0.465568	-0.411237	0.486267	0.473875	-0.376527	0.446599	0.418702	0.40284	-0.393972	-0.397736	0.365326	-0.404873	-0.437638	-0.332696	-0.428052	0.427756	-0.499249	0.492627	0.440874	0.479232	-0.4259
-0.433299	0.459735	0.460488	-0.318151	0.665816	-0.492924	0.433912	-0.374686	0.461114	-0.435688	-0.463679	-0.470022	-0.381795	0.504417	0.469988	-0.514571	0.434858	0.457753	0.423655	-0.436511	-0.473546	0.484228	-0.406576	-0.443287	-0.530499	-0.480148	0.444554	-0.530106	0.457025	0.436941	0.442508	-0.509538
-0.415693	0.430057	0.366836	-0.365549	0.793783	-0.435031	0.425017	-0.43066	0.473877	-0.492948	-0.48237	-0.378946	-0.42515	0.395993	0.394123	-0.415742	0.537252	0.384773	0.380119	-0.45722	-0.490693	0.444737	-0.468558	-0.439515	-0.501697	-0.405849	0.481794	-0.379451	0.499114	0.428235	0.495945	-0.446134
-0.470626	0.447455	0.410622	-0.416414	0.14928	-0.446448	0.426914	-0.430415	0.38792	-0.407322	-0.506342	-0.479374	-0.446829	0.477457	0.390958	-0.47362	0.455054	0.522704	0.408461	-0.466705	-0.496079	0.381925	-0.517295	-0.506935	-0.492397	-0.478707	0.414469	-0.435159	0.336575	0.531769	0.494436	-0.41021
-0.295531	0.365826	0.499664	-0.338982	-0.32306	-0.318514	0.358884	-0.467148	0.477328	-0.383356	-0.362373	-0.449994	-0.171628	0.212483	0.387769	-0.520801	-0.0234972	0.195302	0.299111	-0.310269	-0.438444	0.355287	-0.279347	-0.191289	-0.0762534	-0.355723	0.204759	-0.222367	0.507602	0.198805	0.377587	-0.453701
-0.446203	0.437695	0.383933	-0.383105	0.354539	-0.504617	0.477103	-0.500396	0.504942	-0.415253	-0.489934	-0.477166	-0.411585	0.498413	0.458528	-0.477859	0.473953	0.454503	0.465956	-0.349322	-0.426914	0.432644	-0.411545	-0.527521	0.127173	-0.456803	0.408146	-0.46335	0.334694	0.463933	0.450615	-0.392918
-0.536207	0.446972	0.47326	-0.3786	-0.0589765	-0.428378	0.50886	-0.502972	0.456996	-0.426517	-0.441266	-0.472826	-0.4208	0.509437	0.475341	-0.519845	0.325759	0.436499	0.487942	-0.356001	-0.409753	0.430775	-0.412111	-0.39466	-0.535961	-0.440782	0.518507	-0.469243	0.420454	0.391972	0.507829	-0.44457
-0.537409	0.505447	0.470199	-0.512875	0.0829557	-0.513072	0.482456	-0.500054	0.523199	-0.411693	-0.511391	-0.471092	-0.453425	0.475363	0.459731	-0.533505	0.331123	0.449428	0.481376	-0.465488	-0.507783	0.458154	-0.47717	-0.43914	-0.510978	-0.411696	0.469593	-0.413998	0.52195	0.411319	0.413403	-0.386915
-0.467167	0.448487	0.434477	-0.528088	0.258916	-0.426732	0.397514	-0.408626	0.504653	-0.429728	-0.443014	-0.473924	-0.521536	0.533767	0.449449	-0.433954	0.337601	0.4767	0.507592	-0.426313	-0.452348	0.435219	-0.492757	-0.508695	-0.521425	-0.514169	0.444218	-0.460837	0.4755	0.372542	0.428876	-0.434023
-0.399505	0.436161	0.374861	-0.371484	0.878301	-0.431655	0.338472	-0.44947	0.440799	-0.299674	-0.359467	-0.434572	-0.340134	0.200082	0.389696	-0.415868	0.559624	0.374468	0.312326	-0.400178	-0.386594	0.411978	-0.390345	-0.338085	-0.580907	-0.442297	0.370333	-0.40549	0.504875	0.347984	0.365977	-0.465597
-0.440206	0.393429	0.419155	-0.248099	0.814154	-0.466426	0.418115	-0.458322	0.468163	-0.481608	-0.43889	-0.519481	-0.496113	0.42076	0.422847	-0.412343	0.566986	0.423041	0.486895	-0.51003	-0.495851	0.445401	-0.492253	-0.399321	-0.629384	-0.43145	0.436888	-0.447324	0.471208	0.48622	0.498044	-0.528933
-0.424172	0.470153	0.464396	-0.400866	0.11669	-0.431722	0.446248	-0.422637	0.478573	-0.457305	-0.522787	-0.468328	-0.444554	0.4504	0.46833	-0.429572	0.450392	0.513818	0.468788	-0.410162	-0.444559	0.495483	-0.480998	-0.477054	-0.483131	-0.467337	0.508575	-0.430514	0.402444	0.467953	0.48566	-0.444837
-0.455317	0.488908	0.346432	-0.391012	0.476277	-0.387465	0.501108	-0.433461	0.424266	-0.488356	-0.480084	-0.463005	-0.365556	0.406574	0.47133	-0.390332	0.428833	0.503347	0.425954	-0.471478	-0.421745	0.380504	-0.436865	-0.420279	-0.564089	-0.466533	0.44027	-0.413275	0.430976	0.506004	0.404635	-0.457971
-0.471702	0.497633	0.395515	-0.427334	0.350198	-0.469985	0.521388	-0.472806	0.391027	-0.367344	-0.494228	-0.502288	-0.440988	0.394	0.478653	-0.346493	0.562108	0.543925	0.359951	-0.418704	-0.455873	0.497624	-0.473717	-0.548734	-0.38486	-0.388568	0.511267	-0.326116	0.490278	0.463117	0.489976	-0.364562
-0.513406	0.41938	0.519926	-0.408065	0.178647	-0.498774	0.386108	-0.414405	0.506959	-0.507411	-0.427055	-0.423693	-0.350639	0.338443	0.38677	-0.456905	0.414673	0.496092	0.52407	-0.268917	-0.501291	0.2915	-0.360843	-0.325512	-0.377035	-0.429338	0.462493	-0.447909	0.543455	0.536596	0.363582	-0.28175
-0.425344	0.507929	0.455838	-0.416882	0.582809	-0.479187	0.410194	-0.438578	0.425715	-0.464697	-0.514118	-0.477823	-0.36565	0.476356	0.483659	-0.390674	0.312517	0.478802	0.505337	-0.472197	-0.438448	0.363795	-0.483776	-0.325086	-0.627952	-0.409397	0.484596	-0.496272	0.401684	0.464306	0.405344	-0.445115
-0.530614	0.570989	0.302222	-0.315816	0.915	-0.396203	0.405328	-0.446449	0.47548	-0.335959	-0.523957	-0.438177	-0.193976	0.270882	0.346396	-0.277277	0.686155	0.390569	0.381387	-0.366949	-0.497583	0.464273	-0.488406	-0.464368	-0.663697	-0.452665	0.362847	-0.52829	0.555496	0.465853	0.417779	-0.482654
-0.424744	0.448274	0.382492	-0.443995	0.665205	-0.434311	0.500695	-0.51837	0.431133	-0.382712	-0.433801	-0.389143	-0.418436	0.340962	0.507459	-0.448954	0.472207	0.487693	0.419909	-0.415539	-0.395486	0.500512	-0.379748	-0.335861	-0.19004	-0.464764	0.357973	-0.372255	0.455308	0.323349	0.380703	-0.467027
-0.415913	0.414538	0.36332	-0.377684	0.695374	-0.405527	0.39099	-0.475263	0.464523	-0.413206	-0.438105	-0.4825	-0.495429	0.316499	0.461001	-0.421679	0.409113	0.480571	0.416361	-0.507343	-0.412388	0.454644	-0.401386	-0.4725	-0.493185	-0.453529	0.474464	-0.445797	0.455554	0.431173	0.471734	-0.427217
-0.54257	0.477648	0.487755	-0.410359	0.279143	-0.526549	0.45451	-0.428048	0.426577	-0.399884	-0.445749	-0.518979	-0.463617	0.514552	0.543002	-0.417949	0.428937	0.442099	0.48962	-0.447546	-0.44753	0.514772	-0.494007	-0.404882	-0.48268	-0.396606	0.449338	-0.449474	0.472811	0.450102	0.509683	-0.497118
-0.39712	0.419274	0.445201	-0.282784	0.696035	-0.413741	0.469066	-0.335763	0.338727	-0.502014	-0.458321	-0.398003	-0.260303	0.449053	0.459584	-0.398251	0.419693	0.469296	0.315992	-0.455568	-0.352963	0.441857	-0.406472	-0.515618	-0.336047	-0.423888	0.440728	-0.444389	0.374103	0.37661	0.410916	-0.36217
-0.475494	0.382873	0.503193	-0.36997	-0.167266	-0.488457	0.42862	-0.497806	0.419775	-0.439574	-0.462757	-0.40147	-0.490907	0.473899	0.465303	-0.534026	0.568065	0.484865	0.402661	-0.480699	-0.492777	0.35186	-0.532196	-0.464973	-0.417672	-0.500582	0.530492	-0.469984	0.364323	0.529313	0.434144	-0.442978
-0.490046	0.421489	0.49534	-0.34925	0.261707	-0.42113	0.495947	-0.511644	0.511706	-0.426533	-0.501644	-0.391107	-0.454748	0.3563	0.403262	-0.388069	0.495702	0.421015	0.368529	-0.543191	-0.440122	0.381055	-0.404731	-0.562023	-0.565496	-0.378638	0.386826	-0.419404	0.387658	0.516511	0.409438	-0.458992
-0.488143	0.492138	0.461076	-0.357573	0.463093	-0.435145	0.453666	-0.446702	0.506708	-0.414461	-0.410433	-0.504627	-0.323298	0.401471	0.456558	-0.50801	0.369932	0.380604	0.45079	-0.415248	-0.489437	0.39249	-0.493917	-0.475213	-0.333745	-0.476305	0.466905	-0.441297	0.452762	0.362011	0.476323	-0.401304
-0.422893	0.390583	0.373072	-0.50066	-0.236087	-0.406707	0.379246	-0.392295	0.365555	-0.492403	-0.336789	-0.273798	-0.327062	0.464574	0.378594	-0.375846	0.358876	0.33896	0.328432	-0.414968	-0.299861	0.367336	-0.357068	-0.327248	-0.304832	-0.402544	0.322741	-0.351746	0.31302	0.338039	0.334025	-0.405152
-0.447066	0.405538	0.440377	-0.532515	0.47963	-0.40892	0.395976	-0.371508	0.444054	-0.375661	-0.497593	-0.446891	-0.38619	0.300722	0.444074	-0.467442	0.470914	0.382881	0.48351	-0.451703	-0.43344	0.436562	-0.42627	-0.424983	-0.473707	-0.433473	0.450245	-0.35425	0.484089	0.36978	0.395864	-0.382386
-0.464754	0.531889	0.474111	-0.513568	0.255754	-0.521606	0.432796	-0.53555	0.436029	-0.54602	-0.510542	-0.542349	-0.542949	0.450427	0.531017	-0.462794	0.279672	0.523237	0.489314	-0.418975	-0.439445	0.402187	-0.453907	-0.34721	-0.483324	-0.425467	0.490648	-0.455329	0.537506	0.382989	0.407943	-0.426247
-0.400684	0.471227	0.434653	-0.415096	0.716553	-0.448521	0.469955	-0.429864	0.484295	-0.454517	-0.441584	-0.402877	-0.334574	0.363952	0.450512	-0.477906	0.321188	0.447593	0.457096	-0.369008	-0.511732	0.447897	-0.398294	-0.522606	-0.399753	-0.476726	0.454238	-0.387683	0.498765	0.402921	0.514133	-0.449551
-0.518909	0.458981	0.41059	-0.382827	0.0943566	-0.51635	0.458604	-0.510342	0.556277	-0.414208	-0.467284	-0.443308	-0.489333	0.412977	0.437697	-0.525918	0.509898	0.423807	0.50562	-0.523478	-0.458757	0.516242	-0.48693	-0.445275	-0.392049	-0.480577	0.473298	-0.449985	0.450422	0.450606	0.455277	-0.443198
-0.474605	0.499277	0.435157	-0.466982	-0.0953818	-0.47273	0.498422	-0.471297	0.549001	-0.361325	-0.526276	-0.456756	-0.370935	0.411449	0.481217	-0.434466	0.459959	0.519375	0.416576	-0.413222	-0.535311	0.516956	-0.544644	-0.284572	-0.427011	-0.451144	0.484192	-0.517207	0.51886	0.350056	0.430449	-0.50445
-0.509013	0.414669	0.430983	-0.400169	0.144854	-0.403688	0.426997	-0.464588	0.361443	-0.416321	-0.498909	-0.505214	-0.476254	0.512313	0.430218	-0.386958	0.424866	0.43836	0.426338	-0.407267	-0.418701	0.435344	-0.41697	-0.416188	-0.313022	-0.422528	0.443907	-0.440509	0.45837	0.42419	0.461595	-0.449985
-0.476489	0.502039	0.453443	-0.450376	0.156628	-0.410309	0.45101	-0.46441	0.480258	-0.389275	-0.413363	-0.443116	-0.393677	0.407615	0.512054	-0.454903	0.531879	0.46886	0.442127	-0.505538	-0.482023	0.409272	-0.460353	-0.400731	-0.582766	-0.462385	0.47649	-0.408072	0.539758	0.398909	0.472678	-0.441071
-0.453654	0.377934	0.359795	-0.27836	0.780428	-0.418179	0.395321	-0.315792	0.454825	-0.283646	-0.413239	-0.463048	-0.419764	0.442124	0.463915	-0.377009	0.507023	0.467455	0.455848	-0.496773	-0.386396	0.4979	-0.4875	-0.427783	-0.583209	-0.284949	0.485581	-0.378271	0.547434	0.547635	0.476707	-0.44735
-0.456237	0.506382	0.436862	-0.437442	0.435057	-0.407281	0.484955	-0.499141	0.479054	-0.393983	-0.468216	-0.46248	-0.45624	0.542254	0.423798	-0.413032	0.513102	0.410109	0.473704	-0.403382	-0.463287	0.419238	-0.506824	-0.517714	-0.525805	-0.47486	0.422817	-0.48878	0.402285	0.385582	0.437644	-0.396705
-0.414265	0.404513	0.397953	-0.438383	0.315541	-0.421574	0.497937	-0.48994	0.418584	-0.494577	-0.501517	-0.464462	-0.40331	0.406687	0.450032	-0.411375	0.490113	0.389561	0.48607	-0.472715	-0.46443	0.506118	-0.51235	-0.442525	-0.37157	-0.421178	0.481962	-0.440022	0.363905	0.492727	0.401607	-0.483253
-0.38748	0.419572	0.490281	-0.420889	-0.0311938	-0.333642	0.410571	-0.368937	0.3885	-0.512013	-0.311811	-0.461234	-0.479642	0.479878	0.477438	-0.487188	0.450656	0.460913	0.518512	-0.382775	-0.44457	0.378192	-0.420866	-0.356172	-0.500033	-0.336893	0.442884	-0.412686	0.482099	0.535103	0.463398	-0.524574
-0.500017	0.471791	0.486151	-0.339579	0.322944	-0.461568	0.400862	-0.516275	0.392266	-0.520001	-0.372608	-0.440998	-0.445244	0.410807	0.484392	-0.44639	0.486806	0.459639	0.462545	-0.554675	-0.435543	0.45582	-0.528613	-0.335457	-0.457899	-0.355938	0.487306	-0.457822	0.350669	0.391277	0.469227	-0.478299
-0.378028	0.3709	0.297	-0.258992	0.917968	-0.431728	0.416737	-0.400517	0.479453	-0.346973	-0.42369	-0.433988	-0.38923	0.310694	0.405906	-0.426059	0.514418	0.448418	0.36239	-0.489732	-0.416814	0.362008	-0.455544	-0.377584	-0.529339	-0.375275	0.348672	-0.458813	0.473506	0.429609	0.472556	-0.439478
-0.421674	0.429218	0.416889	-0.525641	-0.230212	-0.438238	0.392637	-0.396418	0.504273	-0.374135	-0.499134	-0.418736	-0.363298	0.406534	0.507492	-0.525535	0.453692	0.380084	0.488919	-0.355701	-0.469196	0.46418	-0.470351	-0.409183	-0.335293	-0.471591	0.390798	-0.506101	0.369868	0.432042	0.433094	-0.382074
-0.492802	0.48576	0.372416	-0.405022	0.520256	-0.501333	0.420016	-0.46298	0.507439	-0.389265	-0.41261	-0.413026	-0.497524	0.462308	0.489952	-0.407065	0.568377	0.522881	0.406017	-0.414686	-0.492613	0.40049	-0.429145	-0.393491	-0.577282	-0.469393	0.409902	-0.359949	0.458327	0.443275	0.427954	-0.419936
-0.436688	0.370235	0.377701	-0.379055	0.658236	-0.502134	0.496609	-0.465916	0.482443	-0.505059	-0.461546	-0.440491	-0.531851	0.47402	0.413763	-0.399509	0.494725	0.429618	0.45329	-0.49053	-0.511583	0.420953	-0.518937	-0.488057	-0.447655	-0.488768	0.438406	-0.490472	0.438627	0.534944	0.425309	-0.413802
-0.516592	0.42734	0.337219	-0.372193	0.837653	-0.411735	0.455573	-0.36769	0.507307	-0.448326	-0.451668	-0.405518	-0.376447	0.494319	0.44528	-0.330375	0.588253	0.490014	0.492672	-0.464441	-0.496497	0.489413	-0.387623	-0.399122	-0.441683	-0.407239	0.45849	-0.426371	0.363785	0.558066	0.419766	-0.48396
-0.485521	0.409731	0.385219	-0.434712	0.560925	-0.521645	0.405209	-0.464926	0.467746	-0.428435	-0.460179	-0.454413	-0.423491	0.491199	0.497714	-0.485346	0.472698	0.521653	0.477603	-0.524546	-0.428312	0.469988	-0.467047	-0.390099	-0.478867	-0.433576	0.453613	-0.502106	0.339563	0.534679	0.431934	-0.487009
-0.338048	0.430702	0.418952	-0.420557	0.427384	-0.466566	0.405749	-0.397729	0.423878	-0.46813	-0.553302	-0.495062	-0.509846	0.43254	0.464405	-0.504617	0.419575	0.349629	0.374508	-0.407868	-0.462052	0.465193	-0.403958	-0.45565	-0.0451072	-0.468178	0.46205	-0.471352	0.355001	0.484608	0.449046	-0.445128
-0.474363	0.398858	0.462051	-0.536622	-0.0295617	-0.456937	0.393858	-0.382897	0.469302	-0.392622	-0.396917	-0.391565	-0.359608	0.451671	0.408679	-0.481153	0.246598	0.363055	0.414858	-0.386684	-0.511186	0.361059	-0.501442	-0.368043	-0.280779	-0.466787	0.426405	-0.463632	0.422764	0.419138	0.424417	-0.379889
-0.477167	0.502779	0.352219	-0.488099	0.513459	-0.492345	0.41511	-0.446032	0.425469	-0.437535	-0.44066	-0.451214	-0.484336	0.527787	0.499583	-0.532176	0.471445	0.462749	0.448744	-0.472951	-0.500148	0.479849	-0.483138	-0.514155	-0.532439	-0.375692	0.471599	-0.486585	0.455115	0.383868	0.448218	-0.485258
-0.496853	0.510646	0.466347	-0.490522	-0.0680873	-0.403986	0.458894	-0.514172	0.517691	-0.431837	-0.452859	-0.502222	-0.467405	0.371163	0.440356	-0.480672	0.513378	0.429488	0.441788	-0.371564	-0.498992	0.494827	-0.469975	-0.41489	-0.297099	-0.421745	0.474293	-0.495025	0.410027	0.445355	0.404959	-0.460798
-0.466528	0.397148	0.487727	-0.453636	0.418028	-0.451784	0.486699	-0.440835	0.502356	-0.380833	-0.525851	-0.463408	-0.462963	0.348699	0.527176	-0.487835	0.544465	0.491623	0.437778	-0.365543	-0.413414	0.398174	-0.453833	-0.415822	-0.450859	-0.480959	0.410929	-0.403321	0.428744	0.381348	0.460775	-0.472747
-0.461292	0.504543	0.443948	-0.324525	0.468949	-0.515867	0.46214	-0.494571	0.432882	-0.424682	-0.577079	-0.534449	-0.492755	0.437234	0.446863	-0.446995	0.282971	0.439641	0.455285	-0.466473	-0.48036	0.43485	-0.521367	-0.401807	-0.370826	-0.507603	0.443555	-0.558364	0.409478	0.422859	0.402289	-0.415733
-0.530749	0.496675	0.33239	-0.434693	0.161912	-0.464376	0.439801	-0.449064	0.474043	-0.465452	-0.403962	-0.512035	-0.395416	0.410962	0.448864	-0.54414	0.324907	0.53405	0.422893	-0.459839	-0.472589	0.465873	-0.519463	-0.381407	-0.338984	-0.503297	0.489253	-0.376185	0.400316	0.473078	0.46654	-0.38275
-0.373526	0.48178	0.424441	-0.310761	0.853423	-0.523472	0.477581	-0.420415	0.460064	-0.331551	-0.415123	-0.409277	-0.419303	0.441686	0.422542	-0.428435	0.459026	0.521411	0.433993	-0.406265	-0.507501	0.518663	-0.448979	-0.470338	-0.447556	-0.41693	0.515452	-0.4987	0.417674	0.494211	0.473665	-0.535949
-0.329603	0.400033	0.297694	-0.306179	0.735869	-0.236326	0.300642	-0.253217	0.295727	-0.298887	-0.184299	-0.220692	-0.193339	0.305863	0.367103	-0.270216	0.332984	0.393296	0.28745	-0.443042	-0.285758	0.370153	-0.36622	-0.268425	-0.553588	-0.375146	0.332867	-0.278212	0.351631	0.380783	0.364464	-0.293996
-0.400314	0.422038	0.457403	-0.484188	-0.0328474	-0.408074	0.460271	-0.496745	0.427994	-0.484547	-0.470817	-0.421237	-0.49017	0.390932	0.465586	-0.427853	0.333116	0.403048	0.420003	-0.483876	-0.491548	0.372259	-0.415015	-0.408608	-0.447935	-0.453058	0.491963	-0.494541	0.459095	0.427905	0.446887	-0.388862
-0.473329	0.505622	0.423739	-0.531321	-0.191707	-0.41923	0.463182	-0.452755	0.453792	-0.449817	-0.507001	-0.462774	-0.451361	0.565282	0.416893	-0.485489	0.337692	0.518954	0.551819	-0.479726	-0.479183	0.415084	-0.447831	-0.371272	-0.597671	-0.47706	0.415929	-0.500578	0.411953	0.513865	0.466438	-0.460034
-0.468248	0.455637	0.463032	-0.403258	0.29269	-0.429462	0.483185	-0.45734	0.421372	-0.378017	-0.410206	-0.397163	-0.375977	0.457965	0.488308	-0.42157	0.401332	0.48541	0.377801	-0.471544	-0.467736	0.397155	-0.393053	-0.516849	-0.604629	-0.505251	0.428629	-0.480266	0.426342	0.439425	0.479246	-0.406888
-0.460203	0.429823	0.390686	-0.44418	0.23721	-0.351998	0.522129	-0.407422	0.397475	-0.375494	-0.3467	-0.388006	-0.46268	0.436358	0.426496	-0.344576	0.438087	0.432438	0.452286	-0.353418	-0.451137	0.407394	-0.46141	-0.375646	-0.52271	-0.499011	0.432112	-0.429695	0.526651	0.484906	0.446706	-0.421887
-0.462832	0.494659	0.351133	-0.481227	0.672827	-0.475418	0.501209	-0.41367	0.483759	-0.469457	-0.38652	-0.454306	-0.387574	0.467625	0.426273	-0.505852	0.460385	0.440148	0.472627	-0.466472	-0.487247	0.396506	-0.403188	-0.365786	-0.483551	-0.474469	0.482186	-0.476818	0.473451	0.477191	0.399339	-0.378561
-0.393634	0.367712	0.439696	-0.526866	0.638172	-0.379015	0.360172	-0.40105	0.453562	-0.464197	-0.367016	-0.407462	-0.371118	0.361693	0.527581	-0.45204	0.457315	0.467151	0.43637	-0.469594	-0.495499	0.333942	-0.499441	-0.441525	-0.54243	-0.460046	0.37308	-0.407853	0.374651	0.555955	0.396526	-0.445993
-0.406179	0.437308	0.42481	-0.487916	0.618914	-0.365684	0.476222	-0.426758	0.345618	-0.413176	-0.469911	-0.457525	-0.403201	0.443841	0.464383	-0.425189	0.465772	0.461646	0.435383	-0.467477	-0.500736	0.517613	-0.397428	-0.34658	-0.483093	-0.403163	0.408335	-0.518128	0.395825	0.396481	0.484673	-0.50981
-0.490081	0.430092	0.471317	-0.439762	-0.148739	-0.481857	0.420977	-0.379452	0.52064	-0.441298	-0.524614	-0.508148	-0.438088	0.382764	0.489297	-0.51966	0.28075	0.398083	0.399651	-0.456794	-0.470452	0.425707	-0.485951	-0.420516	-0.299904	-0.496035	0.514788	-0.395592	0.336566	0.487979	0.393828	-0.422908
-0.470379	0.463694	0.464953	-0.352996	0.639539	-0.456334	0.455823	-0.380197	0.379426	-0.401639	-0.527057	-0.4004	-0.434206	0.349076	0.413927	-0.447606	0.477079	0.386412	0.403194	-0.449495	-0.506995	0.5204	-0.486059	-0.406861	-0.588419	-0.404934	0.500674	-0.439796	0.49222	0.422116	0.471398	-0.422712
-0.507786	0.48331	0.386863	-0.511857	0.333116	-0.508593	0.421157	-0.447536	0.465299	-0.469663	-0.417266	-0.529204	-0.384899	0.365155	0.436765	-0.421069	0.419558	0.462006	0.472873	-0.498429	-0.421454	0.474516	-0.474643	-0.383258	-0.489152	-0.379046	0.418688	-0.445844	0.448166	0.45567	0.448487	-0.463792
-0.502815	0.463447	0.386011	-0.366276	0.708889	-0.473099	0.429881	-0.519328	0.444183	-0.471884	-0.38822	-0.487489	-0.485421	0.394875	0.387814	-0.418161	0.444384	0.450668	0.437719	-0.458241	-0.49051	0.413634	-0.438495	-0.480313	-0.289598	-0.329399	0.444296	-0.386955	0.416982	0.523613	0.448387	-0.443053
-0.424289	0.461069	0.472143	-0.544378	-0.362935	-0.432011	0.473898	-0.409801	0.329505	-0.509826	-0.303098	-0.390976	-0.451727	0.50782	0.450272	-0.507371	0.458602	0.452205	0.483979	-0.392787	-0.498405	0.427118	-0.356305	-0.485703	-0.638011	-0.407826	0.50645	-0.484352	0.489852	0.478628	0.447304	-0.332731
-0.424515	0.43902	0.469798	-0.250194	0.617594	-0.465221	0.445637	-0.404435	0.381432	-0.390277	-0.472986	-0.48965	-0.441719	0.454072	0.48896	-0.459946	0.505772	0.464236	0.386553	-0.440378	-0.398324	0.496755	-0.482989	-0.496151	-0.545577	-0.441857	0.50648	-0.383738	0.533663	0.470755	0.495029	-0.395143
-0.519192	0.515054	0.437136	-0.424361	0.151882	-0.517846	0.483516	-0.497397	0.446253	-0.390896	-0.452656	-0.460599	-0.421989	0.416054	0.428026	-0.420175	0.568432	0.486647	0.502779	-0.486957	-0.50908	0.522802	-0.401183	-0.393106	-0.653942	-0.503353	0.415557	-0.532386	0.507343	0.450656	0.410321	-0.332328
-0.427321	0.484004	0.512471	-0.490203	0.31263	-0.488973	0.426972	-0.3778	0.352445	-0.49646	-0.472445	-0.498993	-0.479998	0.535434	0.460723	-0.479485	0.381281	0.417382	0.432273	-0.496229	-0.476716	0.49618	-0.470581	-0.428858	-0.507341	-0.475773	0.441731	-0.451622	0.434586	0.497266	0.43778	-0.494195
-0.424368	0.487875	0.399493	-0.502275	0.600688	-0.416709	0.440265	-0.514797	0.477853	-0.487928	-0.436319	-0.431487	-0.424696	0.436839	0.482384	-0.406519	0.339007	0.450738	0.486777	-0.419132	-0.452663	0.440035	-0.466478	-0.357122	-0.263348	-0.508703	0.437794	-0.484106	0.44602	0.458763	0.390066	-0.391626
-0.467432	0.48901	0.441643	-0.450053	0.421382	-0.326707	0.448304	-0.464784	0.409191	-0.420843	-0.392636	-0.435776	-0.482639	0.351765	0.471067	-0.474687	0.387973	0.452138	0.517802	-0.429337	-0.386252	0.474061	-0.396824	-0.506233	-0.604482	-0.441494	0.457155	-0.469941	0.519471	0.40087	0.500417	-0.380585
-0.453105	0.399723	0.369979	-0.560957	-0.21664	-0.378062	0.509866	-0.492415	0.496797	-0.400881	-0.442331	-0.476137	-0.400328	0.400161	0.449277	-0.503822	0.429439	0.47134	0.532226	-0.462983	-0.491351	0.431315	-0.422322	-0.41815	-0.507216	-0.475377	0.487702	-0.534651	0.462018	0.442615	0.471789	-0.388304
-0.423921	0.369487	0.491669	-0.438864	0.464561	-0.381841	0.473785	-0.488919	0.438365	-0.460356	-0.486449	-0.491244	-0.501211	0.401255	0.374401	-0.46444	0.349112	0.441865	0.473449	-0.458993	-0.391148	0.43182	-0.455921	-0.409802	-0.460272	-0.480274	0.401401	-0.424594	0.392319	0.465658	0.471091	-0.467892
-0.446186	0.367705	0.339282	-0.388644	0.561778	-0.419989	0.468212	-0.525834	0.584059	-0.298113	-0.57583	-0.462152	-0.402946	0.332261	0.460746	-0.522831	0.402908	0.478503	0.497147	-0.453332	-0.522874	0.589148	-0.545973	-0.502533	0.129109	-0.348197	0.294512	-0.383802	0.535569	0.394968	0.517256	-0.434367
-0.498744	0.449893	0.489189	-0.526605	0.19567	-0.504629	0.408527	-0.487884	0.481155	-0.431078	-0.484833	-0.435604	-0.43661	0.483821	0.466565	-0.462535	0.426604	0.461259	0.465439	-0.457668	-0.523009	0.433363	-0.419331	-0.397313	-0.444984	-0.494529	0.42523	-0.426717	0.53316	0.364609	0.483233	-0.375649
-0.486814	0.445085	0.47138	-0.43352	0.436585	-0.401052	0.500939	-0.389565	0.498217	-0.408699	-0.503437	-0.402717	-0.398403	0.373266	0.495088	-0.410445	0.526089	0.4348	0.437227	-0.463262	-0.406794	0.5156	-0.411729	-0.410163	-0.533357	-0.496721	0.47772	-0.480524	0.461372	0.415643	0.491936	-0.456562
-0.398066	0.395739	0.42952	-0.351846	0.689295	-0.429139	0.368524	-0.479083	0.389646	-0.341766	-0.443164	-0.489536	-0.504009	0.394844	0.483596	-0.434082	0.446573	0.540974	0.36456	-0.498618	-0.503109	0.514348	-0.476358	-0.430783	-0.631108	-0.467746	0.491654	-0.401441	0.517262	0.413767	0.463741	-0.414458
-0.419145	0.454919	0.276461	-0.399143	0.823811	-0.35285	0.313549	-0.398345	0.325402	-0.411783	-0.49218	-0.353639	-0.20467	0.27621	0.336309	-0.350465	0.268732	0.301484	0.398596	-0.487775	-0.413707	0.332942	-0.445741	-0.210551	-0.591031	-0.481599	0.475668	-0.444056	0.502111	0.532295	0.431454	-0.383016
-0.420762	0.474336	0.401743	-0.528185	-0.154443	-0.495371	0.379701	-0.408473	0.506236	-0.40857	-0.47718	-0.406154	-0.444749	0.374927	0.490063	-0.438486	0.285295	0.418582	0.389105	-0.319915	-0.399194	0.409091	-0.458494	-0.43348	-0.491294	-0.429245	0.515909	-0.496247	0.461725	0.339112	0.479155	-0.365051
-0.466174	0.529318	0.505931	-0.366531	0.71809	-0.467604	0.466281	-0.450078	0.391485	-0.470509	-0.430334	-0.466095	-0.358393	0.188533	0.35952	-0.455806	0.611875	0.438813	0.387451	-0.38391	-0.497809	0.41625	-0.512537	-0.351688	-0.459622	-0.478201	0.458721	-0.573872	0.510043	0.530391	0.485616	-0.496364
-0.490567	0.417627	0.469634	-0.455093	0.613174	-0.322907	0.41827	-0.415013	0.297819	-0.286634	-0.509271	-0.38452	-0.295562	0.437849	0.358757	-0.397746	0.474689	0.447748	0.260014	-0.327973	-0.477598	0.393994	-0.450973	-0.537542	-0.496011	-0.525804	0.434194	-0.366126	0.466052	0.384213	0.413336	-0.42578
-0.519714	0.38566	0.410621	-0.376627	0.423717	-0.412386	0.52455	-0.477863	0.46468	-0.399208	-0.482704	-0.480915	-0.479415	0.504723	0.386156	-0.482486	0.509131	0.515319	0.409591	-0.491205	-0.491626	0.503893	-0.426965	-0.384898	-0.486443	-0.464911	0.459833	-0.464606	0.480211	0.418804	0.43049	-0.448427
-0.423804	0.470463	0.525934	-0.369631	0.650732	-0.517939	0.50641	-0.435177	0.469884	-0.48268	-0.421073	-0.490843	-0.539636	0.481849	0.479101	-0.507112	0.556531	0.430792	0.423407	-0.438376	-0.425418	0.368854	-0.4268	-0.506223	-0.437443	-0.483882	0.400251	-0.418683	0.399444	0.433424	0.472631	-0.424593
-0.399167	0.389903	0.471099	-0.420773	0.93726	-0.328875	0.362035	-0.496511	0.439418	-0.466185	-0.528519	-0.376271	-0.423269	0.330523	0.529958	-0.418871	0.531525	0.495826	0.429888	-0.415833	-0.476235	0.486091	-0.459293	-0.399654	-0.368468	-0.480293	0.420897	-0.363348	0.463096	0.542153	0.378629	-0.491966
-0.458624	0.441007	0.391954	-0.328495	0.39194	-0.491416	0.496498	-0.433411	0.486044	-0.461634	-0.498984	-0.419494	-0.460066	0.380272	0.470313	-0.495033	0.542455	0.477225	0.377178	-0.365923	-0.471214	0.502668	-0.430412	-0.472294	-0.398466	-0.384883	0.505988	-0.481692	0.438766	0.501926	0.403749	-0.468667
-0.463825	0.454398	0.425384	-0.363852	0.34498	-0.423815	0.391543	-0.442	0.497286	-0.489417	-0.407081	-0.463689	-0.509798	0.425416	0.410579	-0.42889	0.440967	0.445893	0.413458	-0.400396	-0.450944	0.388312	-0.495508	-0.381703	-0.582028	-0.455438	0.395939	-0.428362	0.476582	0.496632	0.491495	-0.413339
-0.493316	0.481131	0.500119	-0.375937	0.325054	-0.467554	0.464911	-0.448312	0.541604	-0.422638	-0.457555	-0.445397	-0.448454	0.418097	0.424168	-0.516087	0.325785	0.473138	0.454774	-0.488121	-0.5291	0.442177	-0.502392	-0.393948	-0.39086	-0.441435	0.399721	-0.564676	0.418331	0.483778	0.467512	-0.536095
-0.499429	0.484971	0.468574	-0.590704	0.0579374	-0.327871	0.421124	-0.519773	0.448137	-0.419881	-0.440736	-0.45039	-0.468676	0.410559	0.454543	-0.433495	0.393226	0.480236	0.51002	-0.384017	-0.515284	0.505605	-0.47362	-0.410979	-0.414276	-0.48675	0.472802	-0.434819	0.45547	0.56373	0.382978	-0.465938
-0.394088	0.406302	0.488692	-0.562483	-0.646742	-0.379417	0.575264	-0.545879	0.52897	-0.327918	-0.620688	-0.509925	-0.28922	0.497607	0.570385	-0.594256	0.354202	0.324564	0.41017	-0.387041	-0.483503	0.492786	-0.436437	-0.360993	0.087523	-0.463796	0.343122	-0.478917	0.45646	0.427846	0.464029	-0.391407
-0.426237	0.363665	0.453974	-0.335029	0.598583	-0.486808	0.482909	-0.440037	0.482017	-0.450467	-0.428391	-0.481896	-0.422619	0.508129	0.404507	-0.369312	0.537049	0.466784	0.431202	-0.475657	-0.475839	0.494564	-0.4636	-0.431396	-0.455731	-0.48536	0.454696	-0.498444	0.374237	0.487095	0.474147	-0.502619
-0.488216	0.391887	0.512302	-0.544073	0.889463	-0.422076	0.562587	-0.387083	0.545393	-0.456847	-0.513051	-0.528881	-0.365012	0.519091	0.567825	-0.497842	0.48771	0.509716	0.450381	-0.584411	-0.502112	0.419847	-0.466565	-0.563875	0.0368574	-0.479465	0.391783	-0.369554	0.403817	0.480023	0.352234	-0.401351
-0.496181	0.373117	0.292638	-0.43115	0.859794	-0.435872	0.466275	-0.419969	0.333096	-0.480371	-0.41821	-0.424432	-0.437804	0.372516	0.471345	-0.428524	0.494475	0.443615	0.451937	-0.499797	-0.368923	0.292138	-0.490231	-0.428053	-0.299716	-0.451276	0.366865	-0.387751	0.149213	0.415684	0.455975	-0.4341
-0.503277	0.43184	0.436871	-0.452882	0.784119	-0.502838	0.481038	-0.387068	0.490834	-0.486037	-0.42371	-0.438275	-0.485078	0.377184	0.436855	-0.32641	0.49635	0.350166	0.462499	-0.454971	-0.428803	0.435777	-0.480503	-0.411829	-0.526672	-0.472806	0.477203	-0.48079	0.474056	0.49794	0.424265	-0.490566
-0.496063	0.448812	0.399226	-0.400945	0.328234	-0.467559	0.456144	-0.475641	0.413179	-0.459564	-0.395701	-0.433316	-0.541798	0.400564	0.485112	-0.487261	0.518517	0.487934	0.398362	-0.448863	-0.458859	0.48174	-0.417265	-0.484736	-0.460682	-0.409117	0.488762	-0.422352	0.485063	0.486029	0.487212	-0.384579
-0.432976	0.417281	0.484249	-0.314328	0.824574	-0.361923	0.360362	-0.436136	0.422016	-0.313206	-0.339879	-0.464772	-0.355182	0.355049	0.366477	-0.292876	0.408556	0.379035	0.418125	-0.408658	-0.384043	0.392511	-0.448846	-0.389782	-0.415785	-0.392951	0.367689	-0.465639	0.352791	0.412999	0.407884	-0.421462
-0.472145	0.382945	0.297421	-0.451552	0.407528	-0.467021	0.460214	-0.363446	0.404006	-0.433503	-0.266169	-0.339789	-0.506517	0.544055	0.493299	-0.258081	0.466596	0.396632	0.438582	-0.456363	-0.406212	0.435419	-0.428051	-0.531814	-0.628954	-0.511489	0.440745	-0.365914	0.400897	0.373883	0.482215	-0.42849
-0.463455	0.49496	0.492242	-0.414848	0.492547	-0.458102	0.412604	-0.408519	0.397249	-0.451602	-0.306664	-0.448258	-0.477137	0.505843	0.497066	-0.470648	0.548428	0.408204	0.423672	-0.442717	-0.455715	0.45762	-0.46068	-0.386648	-0.549559	-0.477535	0.446136	-0.427576	0.542319	0.442865	0.44873	-0.423182
-0.389511	0.593387	0.558535	-0.418946	0.15807	-0.353684	0.460634	-0.366343	0.439193	-0.564955	-0.53027	-0.388472	-0.611736	0.461692	0.56909	-0.390928	0.25002	0.429983	0.301325	-0.31407	-0.418512	0.384909	-0.454039	-0.38131	-0.444643	-0.350096	0.405515	-0.523949	0.427006	0.341614	0.350337	-0.474498
-0.510552	0.447639	0.27466	-0.469949	0.266827	-0.479366	0.515757	-0.518167	0.496511	-0.364951	-0.414341	-0.464552	-0.411361	0.560952	0.467894	-0.417343	0.427082	0.484666	0.52598	-0.494657	-0.418112	0.519199	-0.446072	-0.479356	-0.520156	-0.562884	0.485064	-0.544396	0.433397	0.434223	0.440557	-0.3468
-0.478556	0.477013	0.5561	-0.492886	-0.42087	-0.485808	0.4911	-0.458274	0.412537	-0.432264	-0.394535	-0.495781	-0.378249	0.510654	0.458722	-0.503974	0.398484	0.504155	0.393976	-0.510169	-0.485809	0.402234	-0.47858	-0.513252	-0.190023	-0.508535	0.49802	-0.542807	0.375766	0.432305	0.437902	-0.554923
-0.394749	0.417148	0.496823	-0.519182	0.268346	-0.434525	0.424508	-0.437893	0.466888	-0.484797	-0.556137	-0.514098	-0.514181	0.525574	0.492232	-0.496733	0.41606	0.384236	0.493441	-0.532492	-0.445735	0.463494	-0.515189	-0.464908	0.116929	-0.500147	0.405777	-0.429389	0.344141	0.508858	0.451746	-0.448262
-0.503941	0.380011	0.299379	-0.225215	-0.423816	-0.372421	0.433197	-0.541812	0.257441	-0.430879	-0.518419	-0.498256	-0.537149	0.299456	0.390479	-0.364026	0.395921	0.513714	0.570639	-0.334978	-0.381861	0.257974	-0.432932	-0.357894	-0.739918	-0.489022	0.495262	-0.562463	0.287082	0.460189	0.424424	-0.438793
-0.445237	0.402063	0.375548	-0.315374	-0.027232	-0.37934	0.450273	-0.462469	0.550141	-0.457029	-0.495413	-0.447584	-0.287561	0.437866	0.471468	-0.52396	0.396127	0.363348	0.39801	-0.449951	-0.400275	0.486284	-0.414359	-0.447488	-0.241357	-0.403718	0.426006	-0.40284	0.489235	0.343863	0.360376	-0.45349
-0.417716	0.404806	0.428797	-0.564783	0.764849	-0.508918	0.499497	-0.416929	0.467292	-0.474191	-0.523442	-0.503907	-0.500987	0.446274	0.319091	-0.44766	0.12646	0.362517	0.411492	-0.478035	-0.488999	0.427487	-0.44845	-0.47095	0.313404	-0.459095	0.340835	-0.437541	0.330995	0.402106	0.490464	-0.350157
-0.403282	0.362486	0.442598	-0.525887	0.514151	-0.419783	0.49984	-0.418705	0.371664	-0.464871	-0.467728	-0.436783	-0.394719	0.494961	0.482983	-0.412329	0.498847	0.394896	0.404196	-0.418566	-0.477955	0.475382	-0.486592	-0.376339	-0.542066	-0.506479	0.489491	-0.414031	0.421511	0.410799	0.413582	-0.531421
-0.420571	0.502944	0.210762	-0.491084	-0.376758	-0.349026	0.399999	-0.375952	0.523235	-0.389274	-0.273223	-0.449485	-0.256603	0.408767	0.490027	-0.413261	0.503096	0.428907	0.418786	-0.602005	-0.511825	0.516726	-0.491564	-0.57279	-0.65643	-0.479158	0.482904	-0.256762	0.527891	0.389286	0.454958	-0.563258
-0.384644	0.446227	0.478409	-0.401836	0.780666	-0.483479	0.380721	-0.514306	0.352248	-0.566941	-0.377284	-0.40579	-0.494447	0.582965	0.367321	-0.344949	0.557154	0.442644	0.418719	-0.394795	-0.475088	0.420792	-0.477093	-0.395001	-0.531498	-0.558251	0.513062	-0.42029	0.346389	0.398208	0.39903	-0.497984
-0.409184	0.36911	0.357146	-0.448564	0.673504	-0.413002	0.462555	-0.413121	0.394336	-0.475612	-0.407072	-0.391591	-0.387437	0.39346	0.425921	-0.399127	0.417797	0.421247	0.338796	-0.444134	-0.400295	0.501437	-0.465049	-0.338841	-0.0622455	-0.419073	0.37291	-0.358485	0.438237	0.354489	0.397946	-0.425928
-0.511558	0.468121	0.422157	-0.447565	0.643714	-0.492322	0.447967	-0.515169	0.420707	-0.475758	-0.435706	-0.411056	-0.433602	0.45779	0.526758	-0.425322	0.535765	0.401668	0.441575	-0.434993	-0.388213	0.45264	-0.387091	-0.51273	-0.59989	-0.447131	0.445399	-0.451198	0.466855	0.423782	0.47934	-0.522156
-0.474358	0.393802	0.559493	-0.497092	-0.0888611	-0.601986	0.455805	-0.528737	0.27893	-0.500064	-0.421571	-0.359408	-0.429587	0.370302	0.386444	-0.322439	0.289525	0.438544	0.401487	-0.307354	-0.551355	0.498519	-0.395022	-0.356031	-0.275819	-0.506486	0.38615	-0.49667	0.432898	0.584819	0.533462	-0.408212
-0.441231	0.528729	0.447625	-0.46208	-0.15681	-0.390897	0.430227	-0.51529	0.366395	-0.559977	-0.417637	-0.497086	-0.504567	0.469852	0.50441	-0.379254	0.236045	0.495758	0.447207	-0.314471	-0.447517	0.49299	-0.427538	-0.359278	-0.55571	-0.316126	0.549016	-0.52543	0.463814	0.420547	0.430582	-0.535024
-0.475426	0.436033	0.455189	-0.451365	0.578072	-0.54535	0.493245	-0.477052	0.465178	-0.38257	-0.457045	-0.417859	-0.421217	0.390568	0.390461	-0.441131	0.534513	0.470169	0.496518	-0.539991	-0.536414	0.430901	-0.445284	-0.510974	-0.519007	-0.393394	0.489974	-0.509953	0.525772	0.44612	0.388982	-0.474851
-0.483282	0.51342	0.434086	-0.323045	0.686289	-0.533274	0.479482	-0.446325	0.417946	-0.379079	-0.466313	-0.501972	-0.5053	0.366072	0.471569	-0.385429	0.49389	0.4728	0.490608	-0.437081	-0.452773	0.438166	-0.48893	-0.477945	-0.570905	-0.474436	0.503046	-0.488469	0.476512	0.438771	0.451776	-0.432121
-0.493178	0.534547	0.42215	-0.456438	0.728246	-0.492829	0.498425	-0.462705	0.471754	-0.506791	-0.394256	-0.418553	-0.533106	0.435931	0.452199	-0.387487	0.524968	0.476846	0.462018	-0.366454	-0.497496	0.447225	-0.462403	-0.517923	-0.493162	-0.494784	0.450407	-0.491479	0.440771	0.553633	0.482373	-0.470473
-0.431877	0.376907	0.377917	-0.366953	0.0350619	-0.408979	0.389179	-0.407693	0.425712	-0.399247	-0.462646	-0.457415	-0.48987	0.463876	0.431909	-0.447323	0.428376	0.464177	0.475449	-0.448165	-0.484823	0.486394	-0.434565	-0.366714	-0.362264	-0.463342	0.385992	-0.381712	0.461038	0.481841	0.450435	-0.384973
-0.4112	0.489285	0.382162	-0.403256	0.655082	-0.328935	0.372753	-0.39614	0.368542	-0.439513	-0.452168	-0.418039	-0.448616	0.428759	0.415806	-0.326094	0.490874	0.423258	0.301811	-0.344528	-0.432432	0.397601	-0.396413	-0.496751	-0.294287	-0.296323	0.334288	-0.427523	0.371103	0.385771	0.347567	-0.496792
-0.414818	0.469998	0.495446	-0.421236	0.367625	-0.486232	0.411893	-0.418963	0.410526	-0.412929	-0.436149	-0.485149	-0.504793	0.488323	0.507838	-0.505312	0.4246	0.403473	0.47763	-0.419791	-0.477611	0.427066	-0.483235	-0.436688	-0.421796	-0.374146	0.404553	-0.520732	0.485228	0.534	0.438796	-0.416048
-0.422247	0.428919	0.41842	-0.416912	0.607467	-0.415041	0.471586	-0.433184	0.391176	-0.419558	-0.378569	-0.41035	-0.487803	0.43567	0.467545	-0.382358	0.388769	0.498642	0.479686	-0.499924	-0.465946	0.410482	-0.527875	-0.382285	-0.518669	-0.395515	0.50823	-0.465678	0.450842	0.471022	0.485346	-0.401017
-0.443575	0.392395	0.421845	-0.449658	0.160511	-0.463516	0.492284	-0.508603	0.5454	-0.539135	-0.494069	-0.424728	-0.511598	0.449254	0.411485	-0.505425	0.264718	0.456702	0.512628	-0.508672	-0.522417	0.555463	-0.501967	-0.523551	0.0961116	-0.487404	0.368993	-0.463732	0.401056	0.467344	0.482318	-0.422349
-0.457746	0.403525	0.495088	-0.446282	-0.00356354	-0.415053	0.518911	-0.450763	0.385463	-0.369165	-0.456079	-0.506462	-0.518388	0.433502	0.413251	-0.404413	0.418372	0.469795	0.517005	-0.495892	-0.434788	0.506536	-0.424179	-0.400661	-0.318544	-0.358004	0.518655	-0.435876	0.481956	0.433006	0.385956	-0.488388
-0.486038	0.357722	0.319895	-0.556522	0.625797	-0.445097	0.327537	-0.437429	0.435487	-0.378657	-0.47253	-0.49437	-0.226437	0.00557934	0.393227	-0.379334	0.0236709	0.390099	0.502721	-0.33833	-0.498469	0.423533	-0.465184	-0.190154	-0.624807	-0.507579	0.478015	-0.549261	0.195634	0.239384	0.357366	-0.424451
-0.501755	0.483164	0.331543	-0.362246	0.634488	-0.491376	0.518117	-0.529827	0.40393	-0.417084	-0.54262	-0.470382	-0.403521	0.471229	0.425297	-0.512715	0.377982	0.518714	0.489406	-0.48678	-0.53232	0.525304	-0.436109	-0.476574	-0.539521	-0.492752	0.490681	-0.470207	0.486225	0.506637	0.442646	-0.429122
-0.39346	0.420059	0.325383	-0.347992	0.56319	-0.391738	0.433056	-0.422694	0.400518	-0.405524	-0.418062	-0.456165	-0.456797	0.360439	0.398009	-0.405058	0.446988	0.499017	0.479734	-0.366132	-0.426909	0.377404	-0.41303	-0.388893	-0.440618	-0.48844	0.411931	-0.396271	0.432559	0.440695	0.465741	-0.452064
-0.488409	0.512612	0.512375	-0.445461	-0.184211	-0.502202	0.462065	-0.533713	0.341641	-0.368053	-0.426589	-0.406886	-0.515139	0.454905	0.42916	-0.519486	0.464658	0.486924	0.490749	-0.43605	-0.526786	0.329548	-0.437773	-0.468334	-0.437145	-0.489583	0.447032	-0.363868	0.40795	0.45825	0.38765	-0.540475
-0.425749	0.405644	0.418385	-0.478797	0.757283	-0.459693	0.461234	-0.452264	0.488116	-0.440464	-0.361456	-0.448838	-0.425121	0.271053	0.496	-0.388079	0.515885	0.380216	0.454089	-0.472833	-0.497203	0.459672	-0.481675	-0.463277	-0.412587	-0.460975	0.42192	-0.406642	0.532053	0.403677	0.506425	-0.439727
-0.445105	0.533407	0.389672	-0.35194	0.329591	-0.480938	0.480206	-0.459641	0.49666	-0.427372	-0.47728	-0.498981	-0.440123	0.405864	0.513423	-0.514774	0.546207	0.443594	0.504524	-0.455323	-0.433363	0.464088	-0.528145	-0.563863	-0.302912	-0.454662	0.434009	-0.417906	0.406551	0.467451	0.367706	-0.529241
-0.400164	0.510896	0.531194	-0.298851	-0.0883493	-0.438949	0.470647	-0.374043	0.385939	-0.432401	-0.521259	-0.434974	-0.416052	0.465985	0.454902	-0.368221	0.453251	0.483307	0.492297	-0.550863	-0.484173	0.528915	-0.373361	-0.49415	-0.518743	-0.523561	0.449393	-0.338237	0.440603	0.494953	0.490557	-0.410184
-0.430997	0.420609	0.421551	-0.504279	0.635192	-0.388295	0.425067	-0.438256	0.390136	-0.371844	-0.477805	-0.426843	-0.49001	0.386715	0.427873	-0.370964	0.463533	0.446544	0.463233	-0.410232	-0.415482	0.374149	-0.419626	-0.38707	-0.438637	-0.39506	0.407201	-0.484421	0.509604	0.421833	0.445133	-0.429174
-0.264139	0.404196	0.412223	-0.280251	0.66551	-0.308149	0.347165	-0.384271	0.334701	-0.459878	-0.515621	-0.310635	-0.369053	0.380227	0.368195	-0.372721	0.229034	0.442135	0.273984	-0.458555	-0.383158	0.304757	-0.478998	-0.400155	0.0115963	-0.390103	0.300639	-0.489694	0.287219	0.383677	0.29684	-0.331264
-0.446225	0.465002	0.418741	-0.455572	0.646553	-0.412216	0.48736	-0.386447	0.457606	-0.399661	-0.398949	-0.437294	-0.501234	0.51547	0.489691	-0.335096	0.432547	0.479298	0.482686	-0.459062	-0.438241	0.439693	-0.439292	-0.384442	-0.621867	-0.461155	0.436071	-0.414521	0.532514	0.523888	0.479038	-0.359165
-0.425504	0.384577	0.435418	-0.434017	0.103067	-0.459951	0.363399	-0.415065	0.429143	-0.415899	-0.465292	-0.414606	-0.510575	0.44601	0.446764	-0.452684	0.358278	0.418777	0.465918	-0.514627	-0.501861	0.489215	-0.406195	-0.457124	-0.582924	-0.406179	0.520026	-0.43843	0.478282	0.435728	0.476541	-0.460609
-0.319595	0.429622	0.264148	-0.427355	0.673816	-0.422248	0.458579	-0.417843	0.298243	-0.401547	-0.380001	-0.482658	-0.385044	0.353756	0.446559	-0.408607	0.570374	0.361985	0.304007	-0.344981	-0.342851	0.453788	-0.398503	-0.253761	-0.512939	-0.377031	0.428145	-0.433246	0.475746	0.424451	0.408579	-0.381366
-0.385315	0.337007	0.457409	-0.339793	0.583989	-0.535442	0.411059	-0.453925	0.448521	-0.361757	-0.494559	-0.512192	-0.469039	0.468142	0.454346	-0.440859	0.477973	0.473141	0.399817	-0.445178	-0.484437	0.515489	-0.395222	-0.43068	-0.65813	-0.430817	0.435874	-0.368455	0.399269	0.446546	0.349642	-0.481276
-0.347985	0.298708	0.28463	-0.40144	0.804978	-0.377885	0.304541	-0.430529	0.190837	-0.339415	-0.295989	-0.359033	-0.174303	0.390883	0.342592	-0.280773	0.367373	0.307863	0.388071	-0.348845	-0.290508	0.375075	-0.309679	-0.289898	0.318647	-0.203395	0.302167	-0.451634	0.161629	0.19137	0.368851	-0.384245
-0.373915	0.455803	0.389291	-0.262545	0.241314	-0.412691	0.399287	-0.470729	0.426158	-0.420162	-0.557126	-0.378329	-0.340277	0.479957	0.437437	-0.445583	0.336205	0.362435	0.303886	-0.404032	-0.425459	0.367642	-0.340992	-0.240399	-0.423137	-0.3898	0.385703	-0.393569	0.391062	0.457565	0.419315	-0.427827
-0.298958	0.213465	0.314736	-0.469132	0.68352	-0.284816	0.445747	-0.482939	0.363942	-0.44558	-0.468282	-0.371127	-0.284819	0.374167	0.332782	-0.409152	0.307824	0.353081	0.236875	-0.178824	-0.26884	0.396962	-0.301149	-0.433973	0.266721	-0.426404	0.240674	-0.289711	0.380563	0.19707	0.369745	-0.307556
-0.465095	0.18421	0.463752	-0.391446	0.762064	-0.305137	0.308429	-0.349076	0.410531	-0.256196	-0.470098	-0.345853	-0.283526	0.247024	0.404456	-0.177208	0.161475	0.322099	0.321332	-0.266019	-0.344472	0.370673	-0.415148	-0.465657	-0.0328064	-0.458377	0.350726	-0.417544	0.419754	0.330716	0.386283	-0.301711
-0.444731	0.396754	0.366243	-0.526092	0.49225	-0.446844	0.434029	-0.433681	0.296585	-0.432916	-0.31137	-0.40038	-0.486445	0.423455	0.331189	-0.482076	0.396157	0.471789	0.351182	-0.367581	-0.445757	0.393793	-0.412783	-0.367472	-0.438364	-0.305212	0.278742	-0.377922	0.416828	0.350996	0.39159	-0.37494
-0.478459	0.362528	0.420695	-0.410098	0.39126	-0.390024	0.470919	-0.379417	0.457471	-0.419059	-0.409385	-0.413977	-0.380534	0.472218	0.453122	-0.386404	0.453316	0.466199	0.426279	-0.448998	-0.474706	0.375111	-0.393993	-0.461813	-0.366657	-0.386501	0.458324	-0.43661	0.477654	0.419739	0.458193	-0.330833
-0.453051	0.46713	0.433599	-0.461692	-0.147222	-0.492194	0.434543	-0.400815	0.431355	-0.375332	-0.473937	-0.417608	-0.461713	0.482221	0.485724	-0.399802	0.432849	0.442932	0.501521	-0.387624	-0.418258	0.373155	-0.420908	-0.477582	-0.486431	-0.497711	0.43518	-0.470511	0.494447	0.447735	0.400593	-0.41067
-0.483799	0.495804	0.489686	-0.518674	-0.0376393	-0.530677	0.498674	-0.514998	0.438877	-0.521413	-0.493329	-0.449653	-0.546929	0.454679	0.443003	-0.432394	0.454309	0.453467	0.496768	-0.462478	-0.462748	0.466749	-0.446576	-0.486052	-0.623908	-0.44562	0.480671	-0.474436	0.548898	0.49825	0.506457	-0.440598
-0.42689	0.402101	0.335796	-0.16935	0.95211	-0.339208	0.403928	-0.339047	0.43794	-0.429639	-0.342741	-0.349128	-0.439689	0.235926	0.328257	-0.369439	0.454607	0.358433	0.242538	-0.384638	-0.402427	0.329574	-0.419634	-0.416445	-0.469702	-0.329113	0.34929	-0.420773	0.413939	0.479609	0.364233	-0.443019
-0.46874	0.433572	0.529921	-0.450611	0.565851	-0.517998	0.397245	-0.428773	0.36371	-0.251294	-0.473536	-0.406125	-0.425464	0.415308	0.404364	-0.399207	0.294359	0.459257	0.420507	-0.289626	-0.440741	0.444435	-0.416335	-0.434833	-0.169673	-0.39647	0.506356	-0.435219	0.466499	0.491318	0.362471	-0.418304
-0.348076	0.479634	0.396973	-0.414809	0.370535	-0.417836	0.364089	-0.398216	0.442625	-0.445876	-0.371631	-0.380659	-0.45409	0.482086	0.470216	-0.407432	0.543686	0.456647	0.487244	-0.47418	-0.432122	0.40721	-0.390909	-0.473753	-0.438459	-0.416909	0.411436	-0.389815	0.494707	0.389701	0.467326	-0.447921
-0.382565	0.493898	0.513903	-0.318779	0.211861	-0.452399	0.470413	-0.479912	0.414184	-0.437167	-0.514583	-0.471634	-0.478788	0.338681	0.519648	-0.400216	0.358486	0.486555	0.478042	-0.37934	-0.417121	0.448121	-0.42156	-0.372459	-0.440292	-0.515722	0.464324	-0.515774	0.341663	0.358113	0.482651	-0.44098
-0.477245	0.464114	0.397648	-0.439261	0.60123	-0.506747	0.367104	-0.43072	0.419713	-0.357806	-0.415595	-0.409732	-0.352949	0.401979	0.406561	-0.377731	0.458007	0.494119	0.449691	-0.470035	-0.488623	0.423893	-0.425368	-0.455053	-0.591511	-0.488138	0.507987	-0.507902	0.513289	0.522556	0.435357	-0.490287
-0.522894	0.479691	0.449515	-0.421765	0.276696	-0.460578	0.418999	-0.460643	0.503931	-0.401095	-0.50106	-0.411588	-0.518281	0.419772	0.478104	-0.515418	0.468553	0.512521	0.498591	-0.475751	-0.51244	0.4977	-0.463622	-0.47717	-0.472521	-0.395384	0.429071	-0.456181	0.393637	0.391614	0.484223	-0.412951
-0.466144	0.51042	0.488778	-0.463577	0.191936	-0.387973	0.473627	-0.415412	0.481086	-0.424783	-0.31671	-0.487508	-0.390272	0.41707	0.441189	-0.476571	0.480742	0.45389	0.427857	-0.453699	-0.505263	0.454125	-0.379498	-0.504472	-0.417019	-0.37684	0.461351	-0.426003	0.419444	0.404881	0.458807	-0.461527
-0.393917	0.447286	0.535112	-0.382017	-0.0479733	-0.406343	0.362513	-0.469367	0.463812	-0.393065	-0.533292	-0.50072	-0.448469	0.375077	0.426984	-0.368641	0.416338	0.459817	0.356046	-0.438984	-0.479778	0.482345	-0.482663	-0.369517	-0.331128	-0.42716	0.498036	-0.526813	0.283413	0.441593	0.406141	-0.473028
-0.447786	0.448004	0.489317	-0.322025	0.0950523	-0.436282	0.429055	-0.430082	0.484604	-0.448424	-0.41516	-0.441655	-0.408584	0.498948	0.389301	-0.462175	0.490369	0.397248	0.330991	-0.417791	-0.417741	0.37766	-0.436902	-0.45876	-0.588268	-0.456506	0.407944	-0.390134	0.368434	0.382663	0.386016	-0.325384
-0.392703	0.378409	0.439801	-0.351357	0.464889	-0.487748	0.522999	-0.50606	0.400544	-0.338687	-0.521248	-0.380339	-0.509577	0.370432	0.340787	-0.537352	0.342747	0.407428	0.435399	-0.449928	-0.489502	0.522493	-0.421366	-0.487153	0.0686585	-0.336321	0.385637	-0.426694	0.365231	0.375001	0.474795	-0.422714
-0.475096	0.409506	0.465859	-0.471864	0.073025	-0.506018	0.394363	-0.469207	0.429521	-0.406826	-0.452143	-0.466924	-0.41651	0.395473	0.376958	-0.403988	0.418424	0.417324	0.481858	-0.435807	-0.450612	0.441383	-0.424874	-0.394409	-0.448996	-0.412518	0.376354	-0.480189	0.428333	0.515493	0.484664	-0.470868
-0.445629	0.469635	0.439238	-0.425902	0.029704	-0.378568	0.471505	-0.460949	0.437684	-0.472017	-0.440281	-0.489164	-0.38305	0.381125	0.395705	-0.459208	0.471648	0.377778	0.369443	-0.366901	-0.455247	0.363196	-0.4584	-0.369771	-0.678125	-0.427518	0.419102	-0.422423	0.353767	0.494183	0.382296	-0.420084
-0.511341	0.467496	0.359516	-0.473373	0.372142	-0.508708	0.494503	-0.480021	0.48851	-0.432632	-0.38249	-0.486759	-0.432974	0.461117	0.493589	-0.494113	0.373163	0.490566	0.467122	-0.443284	-0.50873	0.490886	-0.465801	-0.421281	-0.611916	-0.498368	0.510479	-0.431519	0.46769	0.429502	0.456653	-0.427566
-0.433883	0.375414	0.466382	-0.401073	0.601749	-0.492243	0.41992	-0.465321	0.436555	-0.44951	-0.458072	-0.42904	-0.392357	0.466857	0.433624	-0.393614	0.441295	0.43062	0.42123	-0.413332	-0.420523	0.507451	-0.422247	-0.405574	-0.556163	-0.408771	0.422832	-0.461651	0.423405	0.526546	0.515819	-0.494902
-0.477648	0.44176	0.433578	-0.47187	0.679269	-0.520317	0.491929	-0.451289	0.284237	-0.553874	-0.520875	-0.437318	-0.487888	0.434248	0.450708	-0.286275	0.385872	0.495548	0.408969	-0.50905	-0.471157	0.360421	-0.462238	-0.50727	-0.604673	-0.494579	0.475622	-0.500371	0.391148	0.474828	0.4313	-0.460819
-0.475517	0.432047	0.328075	-0.412525	0.246811	-0.460821	0.455571	-0.47519	0.371451	-0.354752	-0.330174	-0.419134	-0.408463	0.456391	0.407365	-0.369095	0.376951	0.461385	0.420694	-0.373915	-0.469285	0.330359	-0.467815	-0.449474	-0.42308	-0.423839	0.488632	-0.448393	0.476474	0.340777	0.471156	-0.30485
-0.416674	0.517123	0.449961	-0.58651	0.168896	-0.431935	0.439698	-0.366465	0.464716	-0.358155	-0.444147	-0.513194	-0.336993	0.450241	0.38762	-0.473025	0.575886	0.529181	0.392703	-0.455435	-0.525837	0.412966	-0.400807	-0.33449	-0.45794	-0.414226	0.420645	-0.356748	0.4682	0.47586	0.393335	-0.432745
-0.416754	0.404287	0.369593	-0.326796	0.6444	-0.444735	0.451357	-0.438603	0.501882	-0.454171	-0.448006	-0.414097	-0.486508	0.454002	0.527505	-0.452455	0.490815	0.463495	0.374279	-0.492737	-0.445249	0.503088	-0.458662	-0.4902	-0.472147	-0.469652	0.392839	-0.427097	0.498083	0.378797	0.453273	-0.423646
-0.418255	0.493573	0.491175	-0.443683	0.127083	-0.408893	0.411507	-0.446899	0.531336	-0.367139	-0.431484	-0.469255	-0.401229	0.421757	0.453959	-0.409608	0.452753	0.430865	0.468153	-0.493708	-0.515694	0.498201	-0.473603	-0.351461	-0.323465	-0.447444	0.384613	-0.459981	0.444839	0.402185	0.409018	-0.50196
-0.454205	0.463534	0.433654	-0.549079	-0.29472	-0.436614	0.385051	-0.427009	0.476047	-0.426844	-0.411869	-0.506067	-0.445356	0.453716	0.428272	-0.448997	0.361831	0.47745	0.528859	-0.512569	-0.472273	0.363157	-0.404053	-0.358201	-0.596367	-0.465396	0.49101	-0.49004	0.421194	0.401368	0.458053	-0.349315
-0.413699	0.39602	0.510096	-0.532822	0.243081	-0.507807	0.459944	-0.541813	0.515006	-0.427414	-0.529571	-0.435904	-0.494974	0.432705	0.399193	-0.490876	0.403069	0.445485	0.432227	-0.438362	-0.513189	0.457388	-0.50532	-0.45657	0.0979137	-0.484601	0.321514	-0.427935	0.433015	0.457852	0.537296	-0.520666
-0.459164	0.43582	0.472601	-0.373926	0.636582	-0.420507	0.424132	-0.425683	0.418995	-0.456689	-0.440047	-0.412854	-0.409015	0.351687	0.455439	-0.4224	0.458872	0.500664	0.529837	-0.498355	-0.442725	0.418171	-0.43207	-0.461414	-0.489341	-0.456022	0.487781	-0.386126	0.468204	0.456505	0.486232	-0.479654
-0.463483	0.461083	0.416215	-0.247328	0.917132	-0.42658	0.408262	-0.411189	0.420115	-0.385603	-0.446525	-0.476946	-0.347924	0.471553	0.355941	-0.368354	0.405578	0.415322	0.385059	-0.454377	-0.432524	0.489731	-0.466621	-0.420012	-0.567813	-0.370927	0.460522	-0.413767	0.404663	0.365342	0.406293	-0.412275
-0.472673	0.519818	0.407203	-0.376427	-0.0245046	-0.444627	0.439198	-0.443501	0.405418	-0.471399	-0.53795	-0.462124	-0.451293	0.494333	0.445457	-0.432574	0.537982	0.516817	0.415878	-0.436482	-0.460438	0.413709	-0.515103	-0.469823	-0.353272	-0.497487	0.492641	-0.489653	0.392509	0.413234	0.424834	-0.459773
-0.348646	0.383797	0.252512	-0.391661	0.650618	-0.316174	0.328632	-0.41743	0.268778	-0.315835	-0.35526	-0.359391	-0.4098	0.378525	0.371606	-0.289143	0.519349	0.348708	0.349785	-0.337388	-0.387968	0.382697	-0.375961	-0.518556	-0.201599	-0.337903	0.45012	-0.246634	0.382725	0.277055	0.46046	-0.367522
-0.492191	0.390104	0.426895	-0.368451	0.505731	-0.410328	0.458517	-0.429051	0.399635	-0.391547	-0.404504	-0.426571	-0.503544	0.410045	0.461724	-0.450196	0.418725	0.394676	0.388233	-0.461441	-0.448965	0.485143	-0.409184	-0.422928	-0.472743	-0.434826	0.489	-0.383985	0.410376	0.454055	0.384776	-0.421609
-0.499313	0.42772	0.457563	-0.350113	0.50335	-0.515325	0.484566	-0.513018	0.431876	-0.403695	-0.458281	-0.471294	-0.397951	0.461398	0.413674	-0.455267	0.475854	0.478782	0.496265	-0.461265	-0.528793	0.492086	-0.487498	-0.430599	-0.40125	-0.37282	0.396888	-0.47407	0.508042	0.437631	0.490675	-0.503688
-0.409913	0.47973	0.409234	-0.409828	0.651236	-0.486587	0.509919	-0.400422	0.508822	-0.514361	-0.494617	-0.451833	-0.423598	0.48446	0.514811	-0.44432	0.529594	0.4391	0.422963	-0.457679	-0.485748	0.481762	-0.475573	-0.505826	-0.59505	-0.445926	0.44213	-0.478817	0.425145	0.428532	0.491788	-0.491181
-0.261022	0.414868	0.443997	-0.347227	0.175029	-0.411035	0.343046	-0.391889	0.388372	-0.397357	-0.46849	-0.411715	-0.27436	0.372385	0.388017	-0.322456	0.50332	0.345402	0.391111	-0.289699	-0.331661	0.299552	-0.325318	-0.505612	0.13679	-0.421648	0.293049	-0.438222	0.342628	0.422655	0.353514	-0.471207
-0.385674	0.396907	0.40869	-0.456897	0.65489	-0.531992	0.384588	-0.439078	0.346525	-0.406169	-0.37055	-0.468001	-0.536964	0.418106	0.539395	-0.302497	0.517151	0.438957	0.491544	-0.424939	-0.394982	0.500894	-0.506732	-0.430844	-0.573776	-0.365926	0.407424	-0.383746	0.56434	0.476005	0.408358	-0.490554
-0.420947	0.399587	0.454708	-0.416842	0.215087	-0.412747	0.460325	-0.441387	0.478041	-0.458316	-0.497284	-0.406027	-0.369057	0.418998	0.490524	-0.427926	0.299806	0.444313	0.490505	-0.377921	-0.454484	0.418613	-0.431392	-0.37435	-0.336486	-0.521419	0.485927	-0.427713	0.456663	0.388967	0.406927	-0.414768
-0.466264	0.42794	0.436254	-0.399753	0.203204	-0.38081	0.523407	-0.465168	0.48424	-0.505145	-0.411318	-0.507728	-0.468325	0.423312	0.480889	-0.466505	0.460829	0.398996	0.495261	-0.403482	-0.46454	0.447758	-0.444415	-0.357261	-0.467907	-0.345724	0.476485	-0.493787	0.498787	0.497741	0.48536	-0.38665
-0.495587	0.420385	0.496133	-0.54606	0.142112	-0.525318	0.411627	-0.504841	0.521579	-0.478123	-0.456808	-0.4429	-0.457108	0.47828	0.422699	-0.519145	0.551594	0.431023	0.510645	-0.409966	-0.476955	0.453969	-0.470857	-0.511477	-0.622275	-0.428833	0.455496	-0.405405	0.398356	0.362702	0.422717	-0.390402
-0.516976	0.489347	0.389589	-0.462287	0.387707	-0.48252	0.477667	-0.531294	0.416226	-0.403042	-0.384261	-0.46882	-0.359698	0.384727	0.432277	-0.469795	0.406461	0.436668	0.471676	-0.456284	-0.456332	0.499925	-0.425374	-0.486132	-0.447856	-0.451357	0.457287	-0.448113	0.449657	0.472069	0.500228	-0.448492
-0.415024	0.430671	0.464402	-0.442828	0.914342	-0.495746	0.447437	-0.417739	0.418682	-0.429352	-0.429372	-0.442214	-0.446174	0.406934	0.403349	-0.406958	0.465018	0.484911	0.422256	-0.405847	-0.501678	0.486164	-0.392845	-0.382417	-0.537025	-0.435918	0.443044	-0.37894	0.446489	0.419464	0.46755	-0.492877
-0.456469	0.458802	0.511227	-0.471566	-0.188755	-0.422932	0.421888	-0.480048	0.491784	-0.431831	-0.500042	-0.513502	-0.437921	0.421165	0.454509	-0.443317	0.364402	0.410831	0.497392	-0.498237	-0.432721	0.45269	-0.4679	-0.440914	-0.427292	-0.511707	0.489613	-0.475789	0.447063	0.397563	0.471218	-0.470555
-0.530483	0.404021	0.419683	-0.364211	0.729063	-0.385698	0.427102	-0.541585	0.465745	-0.385751	-0.497975	-0.520978	-0.517008	0.426903	0.501246	-0.4918	0.438491	0.541762	0.402753	-0.385522	-0.503848	0.440921	-0.481747	-0.428058	-0.467865	-0.502724	0.4506	-0.467471	0.432532	0.404951	0.447904	-0.54946
-0.485473	0.432385	0.401019	-0.481298	0.363155	-0.465482	0.43411	-0.495381	0.516578	-0.510965	-0.376495	-0.493243	-0.525889	0.430278	0.467891	-0.496249	0.427295	0.48497	0.454264	-0.503341	-0.466996	0.436757	-0.436016	-0.448575	-0.539503	-0.387679	0.522154	-0.429969	0.528663	0.459155	0.448341	-0.386385
-0.345839	0.451004	0.463789	-0.363227	0.0257489	-0.470399	0.474612	-0.352014	0.397003	-0.458879	-0.480845	-0.362839	-0.536844	0.339364	0.419176	-0.372366	0.385368	0.505061	0.405633	-0.357031	-0.365648	0.452619	-0.447371	-0.447206	-0.641177	-0.530414	0.407389	-0.433519	0.336811	0.31055	0.44163	-0.421021
-0.441991	0.361508	0.501122	-0.346867	0.416631	-0.397438	0.511504	-0.414728	0.513736	-0.353751	-0.400186	-0.465085	-0.520671	0.525701	0.51282	-0.42814	0.575777	0.533605	0.489756	-0.405858	-0.504772	0.449289	-0.512604	-0.36251	-0.622027	-0.461241	0.409374	-0.552228	0.467547	0.380541	0.473929	-0.408913
-0.393717	0.357355	0.344013	-0.421687	0.653786	-0.330179	0.282804	-0.302202	0.230965	-0.318231	-0.350485	-0.307	-0.287085	0.183987	0.380143	-0.353496	0.189067	0.342842	0.276565	-0.328353	-0.306793	0.367484	-0.371281	-0.329249	-0.18201	-0.43287	0.321725	-0.347979	0.365476	0.286275	0.424056	-0.374863
-0.489635	0.462971	0.451443	-0.482669	0.372239	-0.462582	0.488956	-0.416919	0.405462	-0.516187	-0.398702	-0.443232	-0.483524	0.483576	0.422346	-0.458193	0.432806	0.471133	0.412372	-0.383025	-0.510727	0.443262	-0.44522	-0.428752	-0.454362	-0.521114	0.485155	-0.397144	0.520319	0.428295	0.447669	-0.378893
-0.431021	0.347771	0.439653	-0.445812	0.520846	-0.404958	0.406603	-0.406716	0.347686	-0.510171	-0.425989	-0.430815	-0.404606	0.407687	0.432102	-0.384008	0.505794	0.44629	0.444538	-0.37987	-0.385938	0.466241	-0.410683	-0.346512	-0.469422	-0.344604	0.425043	-0.533163	0.508527	0.47444	0.480072	-0.506193
-0.448819	0.402939	0.483072	-0.443216	-0.294711	-0.505436	0.414993	-0.533369	0.461158	-0.448982	-0.541037	-0.5062	-0.50333	0.420453	0.550186	-0.549114	0.346149	0.441919	0.524119	-0.38168	-0.50354	0.513415	-0.526546	-0.401492	-0.29706	-0.466767	0.489848	-0.530282	0.438491	0.383267	0.490425	-0.442749
-0.443033	0.444504	0.360585	-0.456295	0.70965	-0.48729	0.459148	-0.408842	0.382189	-0.412042	-0.484052	-0.410096	-0.467696	0.456087	0.413862	-0.344352	0.502586	0.429057	0.413753	-0.419337	-0.454665	0.44007	-0.449505	-0.503125	-0.374561	-0.476705	0.449055	-0.431901	0.481836	0.434285	0.467604	-0.422107
-0.355086	0.345589	0.334837	-0.460975	0.962452	-0.471109	0.372891	-0.379806	0.408728	-0.432246	-0.511963	-0.46271	-0.333051	0.334188	0.380672	-0.347301	0.475784	0.475451	0.283955	-0.365716	-0.449515	0.36906	-0.36322	-0.363055	0.0115515	-0.396475	0.29158	-0.310279	0.230396	0.415285	0.363998	-0.385145
-0.405208	0.425671	0.422446	-0.507855	0.207583	-0.477391	0.485012	-0.461908	0.41866	-0.532914	-0.442156	-0.486171	-0.443934	0.409902	0.47993	-0.439592	0.338855	0.490843	0.470074	-0.477981	-0.468673	0.461352	-0.514476	-0.493132	-0.478495	-0.366712	0.397735	-0.336625	0.399846	0.41669	0.473373	-0.349723
-0.455898	0.447216	0.418062	-0.514517	0.292718	-0.398775	0.433501	-0.509659	0.520008	-0.416737	-0.440718	-0.463104	-0.374293	0.46389	0.506971	-0.412927	0.439717	0.509117	0.418936	-0.431378	-0.410488	0.404812	-0.454264	-0.397784	-0.468356	-0.454173	0.423981	-0.480213	0.46907	0.41478	0.485695	-0.464929
-0.395737	0.372375	0.435956	-0.37475	0.809181	-0.465317	0.520448	-0.47659	0.403452	-0.380935	-0.415691	-0.375513	-0.472593	0.202252	0.322679	-0.5161	0.451913	0.390775	0.435647	-0.348539	-0.409348	0.476152	-0.450636	-0.469818	0.027521	-0.362082	0.385186	-0.41515	0.391764	0.455523	0.504842	-0.481713
-0.442363	0.510751	0.456127	-0.496703	0.256483	-0.481404	0.4566	-0.474899	0.440937	-0.437316	-0.400651	-0.503747	-0.527645	0.431494	0.512277	-0.449096	0.386383	0.455943	0.495847	-0.529476	-0.487836	0.451944	-0.535898	-0.41299	-0.535275	-0.46383	0.525007	-0.465113	0.431037	0.447438	0.475358	-0.489045
-0.479711	0.482833	0.416373	-0.399191	0.580035	-0.439032	0.459168	-0.396802	0.484064	-0.493435	-0.455273	-0.497206	-0.502345	0.502625	0.477574	-0.402442	0.475621	0.510247	0.424056	-0.475183	-0.441639	0.479111	-0.450684	-0.505333	-0.424864	-0.40689	0.458359	-0.495095	0.514916	0.559209	0.535191	-0.467814
-0.425572	0.473955	0.517091	-0.495954	0.165597	-0.498889	0.481748	-0.468277	0.407391	-0.46103	-0.43456	-0.427237	-0.438002	0.517239	0.459291	-0.444379	0.365329	0.472834	0.418007	-0.466248	-0.410411	0.408349	-0.492074	-0.450448	-0.471574	-0.411799	0.453204	-0.454014	0.442358	0.371052	0.494368	-0.466012
-0.403124	0.515571	0.454141	-0.505052	0.610625	-0.468181	0.452961	-0.509156	0.427283	-0.46471	-0.409466	-0.512703	-0.422836	0.417301	0.462041	-0.409986	0.501718	0.446905	0.455431	-0.496018	-0.48345	0.47483	-0.428669	-0.451672	-0.441867	-0.447755	0.506729	-0.484128	0.504284	0.416605	0.435945	-0.456085
-0.488046	0.427845	0.465484	-0.495046	-0.427105	-0.42433	0.492515	-0.36828	0.464458	-0.404024	-0.475632	-0.461763	-0.355983	0.402367	0.379124	-0.376882	0.445862	0.383493	0.519233	-0.378676	-0.357761	0.476809	-0.375143	-0.513864	-0.553897	-0.529964	0.451603	-0.43835	0.413168	0.333064	0.351465	-0.331492
-0.43162	0.447252	0.484458	-0.445283	0.330106	-0.494117	0.482757	-0.38359	0.419663	-0.443686	-0.425631	-0.478763	-0.49535	0.472933	0.42135	-0.498404	0.505923	0.4115	0.486026	-0.415589	-0.402099	0.427352	-0.395074	-0.441077	-0.496261	-0.443421	0.462544	-0.443343	0.43342	0.423276	0.447849	-0.443444
-0.472173	0.499385	0.444817	-0.549179	0.281885	-0.483728	0.435026	-0.393411	0.48491	-0.416918	-0.424454	-0.432261	-0.407566	0.487715	0.468696	-0.443456	0.326628	0.539406	0.453303	-0.451633	-0.504677	0.435031	-0.43071	-0.432039	-0.490683	-0.404351	0.454237	-0.476011	0.490331	0.444634	0.476077	-0.4803
-0.477384	0.398148	0.437768	-0.462275	0.429817	-0.429346	0.390967	-0.35919	0.428625	-0.362641	-0.266342	-0.453704	-0.37719	0.324723	0.490741	-0.475221	0.415926	0.31446	0.437594	-0.469606	-0.394718	0.365749	-0.315942	-0.34726	-0.509949	-0.286319	0.442551	-0.516415	0.417142	0.489139	0.460854	-0.42746
-0.470175	0.462967	0.540151	-0.436825	0.712155	-0.458847	0.463725	-0.469529	0.507135	-0.456715	-0.456053	-0.458393	-0.525947	0.356882	0.412192	-0.525448	0.428311	0.52035	0.408331	-0.408513	-0.454228	0.518801	-0.463748	-0.437717	-0.539131	-0.459074	0.380852	-0.43062	0.495575	0.523188	0.494517	-0.518329
-0.446687	0.417884	0.481106	-0.538809	0.644007	-0.489172	0.422021	-0.510976	0.467548	-0.433816	-0.427199	-0.433779	-0.533655	0.45112	0.47661	-0.490149	0.412586	0.506757	0.484902	-0.442302	-0.430646	0.495873	-0.48368	-0.38476	-0.431016	-0.379974	0.511911	-0.496556	0.448875	0.476349	0.505058	-0.436147
-0.424934	0.446723	0.516724	-0.454471	-0.378237	-0.506333	0.416726	-0.408236	0.384136	-0.492297	-0.558276	-0.482558	-0.456098	0.557741	0.558531	-0.407595	0.400817	0.493711	0.46277	-0.508169	-0.509439	0.506035	-0.533044	-0.459385	-0.0626402	-0.521413	0.447216	-0.473282	0.247194	0.418694	0.534178	-0.585822
-0.449126	0.528052	0.472558	-0.53695	0.217823	-0.450518	0.42626	-0.409592	0.413466	-0.479846	-0.46604	-0.475589	-0.454474	0.382619	0.483731	-0.440887	0.439561	0.494048	0.508477	-0.488266	-0.443696	0.488493	-0.475674	-0.36031	-0.29697	-0.455941	0.485949	-0.532958	0.445396	0.441256	0.493132	-0.503387
-0.498092	0.497045	0.516372	-0.455969	0.0333471	-0.535236	0.483927	-0.486714	0.422904	-0.388897	-0.400113	-0.379298	-0.497114	0.464212	0.535596	-0.415392	0.287772	0.475058	0.506239	-0.414386	-0.48525	0.437209	-0.491507	-0.396213	-0.432237	-0.391144	0.465766	-0.489203	0.531172	0.514232	0.454062	-0.383719
-0.453789	0.430525	0.51044	-0.404577	0.19756	-0.383402	0.404603	-0.479793	0.472557	-0.44785	-0.494918	-0.356677	-0.529906	0.530682	0.454186	-0.438149	0.307679	0.473711	0.490966	-0.369591	-0.434596	0.467821	-0.480453	-0.390694	-0.455683	-0.419743	0.418142	-0.450686	0.446305	0.413093	0.440679	-0.493799
-0.477821	0.361318	0.335416	-0.346375	-0.061197	-0.524358	0.387985	-0.342794	0.421375	-0.346218	-0.361562	-0.416753	-0.409061	0.359383	0.370939	-0.357116	0.434585	0.48506	0.323112	-0.399916	-0.430525	0.478635	-0.403237	-0.379363	-0.653537	-0.323846	0.448125	-0.342446	0.404707	0.38494	0.430161	-0.351711
-0.435943	0.474077	0.483558	-0.3137	0.358013	-0.430302	0.371529	-0.450304	0.407892	-0.352476	-0.424446	-0.419531	-0.467734	0.435437	0.419837	-0.385582	0.448999	0.500333	0.428051	-0.390382	-0.449438	0.417416	-0.460865	-0.437583	-0.297624	-0.462033	0.401332	-0.422694	0.360556	0.508046	0.491804	-0.46235
-0.449453	0.481967	0.46431	-0.451746	0.705264	-0.402692	0.470101	-0.510539	0.482627	-0.416949	-0.499576	-0.437633	-0.440646	0.37866	0.435461	-0.517802	0.410931	0.405886	0.431763	-0.471193	-0.423344	0.428689	-0.421242	-0.348607	-0.42828	-0.379283	0.505709	-0.327344	0.416128	0.355664	0.378523	-0.387406
-0.455594	0.517051	0.348678	-0.438891	0.573081	-0.458322	0.425923	-0.502872	0.485278	-0.363248	-0.356087	-0.459334	-0.377723	0.389739	0.451402	-0.458474	0.380202	0.422999	0.441924	-0.415922	-0.468884	0.474015	-0.512409	-0.482809	-0.445608	-0.402157	0.512059	-0.450126	0.425894	0.468477	0.431351	-0.466772
-0.495479	0.446549	0.366818	-0.48405	0.643948	-0.518493	0.444868	-0.408232	0.445942	-0.452397	-0.524621	-0.540446	-0.342256	0.326016	0.447916	-0.491834	0.353697	0.486392	0.445635	-0.3633	-0.511996	0.470317	-0.485619	-0.420863	-0.253006	-0.432017	0.349436	-0.374618	0.409315	0.457602	0.394223	-0.46874
-0.425188	0.444626	0.370552	-0.532392	0.327463	-0.420653	0.477408	-0.491084	0.499102	-0.40666	-0.471101	-0.501028	-0.476802	0.441601	0.424683	-0.48191	0.35683	0.386564	0.49039	-0.396944	-0.405964	0.403364	-0.401118	-0.415369	-0.0497183	-0.478928	0.469109	-0.396583	0.405118	0.375072	0.426306	-0.478941
-0.435041	0.42725	0.328494	-0.393012	0.713369	-0.450034	0.438303	-0.362669	0.482638	-0.435961	-0.445399	-0.484729	-0.354884	0.45478	0.517803	-0.480032	0.491429	0.515021	0.454584	-0.508803	-0.453348	0.446376	-0.486591	-0.418732	-0.576058	-0.507858	0.457108	-0.508797	0.449109	0.497146	0.424776	-0.501091
-0.459518	0.401428	0.391174	-0.344934	-0.535903	-0.452342	0.401799	-0.410887	0.30682	-0.323581	-0.435045	-0.453072	-0.434329	0.385406	0.468795	-0.391502	0.446327	0.399293	0.450097	-0.475221	-0.473304	0.442932	-0.462803	-0.321934	-0.272245	-0.442775	0.358438	-0.412039	0.402309	0.344974	0.460713	-0.361826
-0.45857	0.38738	0.404222	-0.371385	0.545656	-0.447026	0.522185	-0.425572	0.534109	-0.415813	-0.47941	-0.441669	-0.504586	0.460541	0.465215	-0.43563	0.458031	0.425847	0.386904	-0.450108	-0.502222	0.47256	-0.477989	-0.460991	-0.508009	-0.489345	0.54156	-0.446518	0.478599	0.440643	0.457006	-0.474992
-0.418589	0.368191	0.33954	-0.285337	0.446359	-0.466377	0.293824	-0.360683	0.430562	-0.463964	-0.452709	-0.351875	-0.43473	0.298429	0.367824	-0.371562	0.386656	0.447817	0.423926	-0.420192	-0.411872	0.432854	-0.431913	-0.518569	-0.462243	-0.279227	0.477081	-0.422091	0.494038	0.457213	0.278145	-0.406238
-0.489656	0.362748	0.523309	-0.469532	0.701291	-0.505933	0.4144	-0.461589	0.420851	-0.520794	-0.449506	-0.465977	-0.450122	0.430787	0.427979	-0.434649	0.412037	0.442403	0.422751	-0.453964	-0.43961	0.38319	-0.397176	-0.344346	-0.43113	-0.482289	0.438092	-0.477259	0.461292	0.442921	0.38578	-0.460702
-0.396562	0.39261	0.381859	-0.384372	0.695871	-0.47107	0.431087	-0.386	0.444007	-0.434541	-0.412014	-0.414094	-0.500108	0.357055	0.406864	-0.489946	0.479682	0.385318	0.409937	-0.401895	-0.384668	0.471249	-0.482065	-0.438363	-0.443998	-0.40072	0.45273	-0.406639	0.359763	0.472477	0.508156	-0.445545
-0.487203	0.413739	0.395267	-0.461309	0.484963	-0.446618	0.409288	-0.412257	0.509321	-0.355723	-0.497349	-0.466331	-0.423073	0.52101	0.467229	-0.523066	0.428769	0.462317	0.538986	-0.529098	-0.512023	0.463623	-0.503944	-0.46277	-0.52296	-0.513825	0.524459	-0.488808	0.44168	0.404265	0.447871	-0.403378
-0.44791	0.398794	0.390796	-0.456361	0.751772	-0.412127	0.382966	-0.476395	0.403705	-0.383071	-0.481655	-0.432946	-0.514523	0.467399	0.383802	-0.341759	0.422681	0.440752	0.40264	-0.440561	-0.403084	0.453464	-0.489071	-0.393311	-0.469248	-0.402432	0.459746	-0.456608	0.447829	0.371794	0.442299	-0.41725
-0.442343	0.420085	0.41119	-0.295917	0.988588	-0.42508	0.304855	-0.376257	0.442772	-0.40088	-0.325814	-0.307284	-0.331039	0.261913	0.384253	-0.290582	0.627043	0.445689	0.262512	-0.39105	-0.333597	0.450441	-0.448414	-0.413769	-0.317523	-0.289977	0.333707	-0.377026	0.301729	0.498392	0.375067	-0.417991
-0.483303	0.511716	0.463031	-0.496488	0.240142	-0.510323	0.498606	-0.439739	0.420866	-0.518658	-0.452588	-0.528466	-0.450139	0.355742	0.49889	-0.456764	0.460312	0.478359	0.435988	-0.449628	-0.483358	0.468449	-0.4658	-0.412293	-0.529012	-0.505737	0.474054	-0.407663	0.398096	0.408424	0.408336	-0.508539
-0.425361	0.472833	0.331577	-0.368548	0.864006	-0.358489	0.378876	-0.484836	0.304409	-0.39958	-0.391158	-0.388104	-0.417411	0.209793	0.331489	-0.341016	0.54949	0.340938	0.247478	-0.337231	-0.335177	0.428858	-0.403138	-0.326699	-0.177483	-0.334416	0.324838	-0.346451	0.381522	0.37391	0.45412	-0.34493
-0.431352	0.35211	0.402071	-0.386681	0.866766	-0.357645	0.409227	-0.477064	0.464288	-0.375394	-0.52562	-0.526558	-0.344809	0.314997	0.466045	-0.420818	0.232793	0.517405	0.456058	-0.494018	-0.480931	0.408931	-0.466539	-0.372141	-0.621589	-0.456712	0.398838	-0.393515	0.369262	0.342121	0.450142	-0.460557
-0.542161	0.522668	0.368443	-0.301178	0.593766	-0.47544	0.503778	-0.452217	0.312175	-0.525272	-0.328585	-0.368054	-0.391138	0.239089	0.432173	-0.363243	0.323921	0.513555	0.497371	-0.199326	-0.494791	0.395455	-0.374524	-0.421177	-0.57868	-0.329948	0.571818	-0.392947	0.488647	0.442934	0.407831	-0.502154
-0.542504	0.505496	0.476795	-0.39658	0.224038	-0.490435	0.425017	-0.416496	0.406557	-0.454627	-0.380246	-0.447658	-0.461733	0.430579	0.426922	-0.44106	0.338516	0.455378	0.412777	-0.376466	-0.410911	0.509472	-0.515964	-0.350627	-0.413576	-0.408914	0.443703	-0.483971	0.402952	0.460148	0.464768	-0.44219
-0.450829	0.351306	0.297481	-0.478282	0.264327	-0.489154	0.435797	-0.421104	0.419502	-0.37438	-0.486108	-0.438633	-0.302697	0.390307	0.420684	-0.466104	0.464929	0.417907	0.383585	-0.409831	-0.380387	0.442596	-0.441773	-0.428507	-0.437153	-0.406262	0.385158	-0.361095	0.487545	0.364203	0.38733	-0.336638
-0.469272	0.479639	0.512337	-0.501565	0.437552	-0.428196	0.480819	-0.417609	0.473665	-0.479787	-0.398053	-0.429505	-0.494119	0.442204	0.460947	-0.459279	0.498577	0.434901	0.447938	-0.431168	-0.475634	0.423782	-0.454959	-0.424416	-0.575038	-0.391298	0.469524	-0.483158	0.482686	0.458722	0.499217	-0.434222
-0.466648	0.457321	0.488735	-0.456185	0.608021	-0.545037	0.453752	-0.378219	0.327844	-0.391111	-0.469415	-0.390467	-0.54979	0.497445	0.41815	-0.429987	0.434891	0.508713	0.471096	-0.443348	-0.533126	0.420501	-0.404822	-0.487035	-0.600007	-0.441561	0.521342	-0.511837	0.531991	0.532506	0.568077	-0.382695
-0.443626	0.460954	0.50268	-0.57843	-0.108303	-0.508514	0.450931	-0.568528	0.521615	-0.425188	-0.515884	-0.450613	-0.528416	0.425777	0.504931	-0.34838	0.390227	0.503926	0.435563	-0.522474	-0.468451	0.464875	-0.522186	-0.493087	-0.569507	-0.361502	0.453674	-0.458023	0.502067	0.536183	0.416978	-0.535149
-0.372583	0.397351	0.523323	-0.454099	0.469375	-0.372451	0.477641	-0.413887	0.522064	-0.420252	-0.464348	-0.50188	-0.482344	0.533658	0.418007	-0.36022	0.537517	0.424099	0.340365	-0.442192	-0.491661	0.447626	-0.387124	-0.40394	-0.488837	-0.452267	0.421003	-0.473493	0.427946	0.46746	0.425525	-0.481693
-0.403544	0.285387	0.395771	-0.292299	0.786403	-0.316482	0.330347	-0.331389	0.386799	-0.32872	-0.419015	-0.461366	-0.382982	0.385071	0.34728	-0.397016	0.435781	0.356052	0.40476	-0.378853	-0.425432	0.337537	-0.38491	-0.408308	-0.441405	-0.330977	0.365627	-0.355133	0.427304	0.478945	0.395907	-0.370096
-0.403135	0.401107	0.497407	-0.440377	0.361357	-0.400714	0.414403	-0.468024	0.493631	-0.408105	-0.460525	-0.441301	-0.466263	0.505669	0.466156	-0.447538	0.429641	0.482089	0.47181	-0.424209	-0.427771	0.479602	-0.449132	-0.396323	-0.263915	-0.500754	0.351041	-0.48421	0.448003	0.450302	0.413337	-0.468862
-0.411257	0.468521	0.483452	-0.363954	0.578573	-0.347714	0.380286	-0.373232	0.412636	-0.465217	-0.437527	-0.455318	-0.431758	0.369909	0.458993	-0.434936	0.305354	0.489496	0.378232	-0.419559	-0.480278	0.485222	-0.424591	-0.366383	-0.42736	-0.426676	0.412131	-0.476687	0.438687	0.482726	0.376017	-0.434643
-0.378567	0.372506	0.332496	-0.377586	-0.207443	-0.40354	0.453156	-0.45261	0.502735	-0.349125	-0.316097	-0.357664	-0.463193	0.395935	0.404704	-0.403858	0.162784	0.420648	0.439423	-0.260136	-0.374763	0.422044	-0.408345	-0.269071	-0.188032	-0.266701	0.397951	-0.289275	0.41306	0.36446	0.433115	-0.387158
-0.472398	0.458405	0.352225	-0.488999	-0.012641	-0.472659	0.415266	-0.416583	0.317776	-0.474746	-0.42758	-0.438181	-0.432673	0.340636	0.411185	-0.393244	0.424716	0.475973	0.350457	-0.33293	-0.469218	0.405472	-0.482917	-0.437404	-0.341931	-0.437789	0.39471	-0.388652	0.304265	0.386088	0.40205	-0.337765
-0.444621	0.302952	0.482594	-0.417284	0.165662	-0.42003	0.426245	-0.387657	0.279922	-0.466683	-0.382681	-0.475358	-0.359189	0.492729	0.402436	-0.462028	0.433708	0.475355	0.375219	-0.338734	-0.41638	0.447459	-0.339386	-0.466899	-0.467358	-0.381444	0.439504	-0.407097	0.366879	0.495214	0.355235	-0.379151
-0.449633	0.432379	0.517545	-0.460264	-0.30476	-0.459626	0.447442	-0.525989	0.532055	-0.498948	-0.530812	-0.425267	-0.426643	0.44603	0.439176	-0.521669	0.26287	0.363902	0.385901	-0.48623	-0.486392	0.446859	-0.390644	-0.547091	0.190278	-0.489921	0.354595	-0.456774	0.386071	0.425795	0.433691	-0.436101
-0.418631	0.519687	0.385622	-0.388695	0.714942	-0.373098	0.515917	-0.411787	0.274497	-0.328296	-0.461536	-0.473843	-0.486941	0.431447	0.456191	-0.484117	0.511844	0.479539	0.437893	-0.581604	-0.491384	0.524482	-0.46391	-0.320205	-0.465408	-0.355665	0.412806	-0.513256	0.519135	0.544681	0.518381	-0.508019
